{
    "results": [
        {
            "type": "all metrics, l1, half phoneme, using sgd, alpha= 0.01, shuffle=True, random_state= 42, 10-fold",
            "cross_val": true,
            "log_weights": [
                [
                    [
                        -1.6329774337983696,
                        -2.2392450529231627,
                        4.013820078252733,
                        1.5151511432726528,
                        0.7637457664185217
                    ]
                ],
                [
                    [
                        -1.8057963011108635,
                        -2.6202588855782394,
                        4.908217738801073,
                        0.8448346785634521,
                        0.0
                    ]
                ],
                [
                    [
                        -1.8735019367676014,
                        -2.433592025507471,
                        4.600243486463058,
                        0.9727410651774336,
                        0.19622629512385675
                    ]
                ],
                [
                    [
                        -1.802565013609454,
                        -2.324988970324098,
                        4.169245197701159,
                        1.3679604390716988,
                        0.40175969832954594
                    ]
                ],
                [
                    [
                        -1.9568846070682016,
                        -2.3890871050502747,
                        4.325428724188237,
                        1.2404017185533622,
                        0.2854423022467562
                    ]
                ],
                [
                    [
                        -1.8706510721620073,
                        -2.2470990978077134,
                        4.2184258825176215,
                        1.6740698991992027,
                        0.15117968420232888
                    ]
                ],
                [
                    [
                        -1.8405391884344362,
                        -2.430046974702297,
                        4.385460087360123,
                        1.004478293865928,
                        0.3346593305027433
                    ]
                ],
                [
                    [
                        -1.7641582348398976,
                        -2.525122152029438,
                        4.646190022112607,
                        1.0747692936926543,
                        0.0
                    ]
                ],
                [
                    [
                        -2.03226249005065,
                        -2.2372766837472247,
                        4.4762414314493135,
                        1.092407174599685,
                        0.10673148967669363
                    ]
                ],
                [
                    [
                        -1.8618863512070427,
                        -2.4539949580335447,
                        4.566057321436001,
                        1.310377540600577,
                        0.0
                    ]
                ]
            ],
            "training_score": [
                0.9006289308176101,
                0.8930817610062893,
                0.8943396226415095,
                0.8981132075471698,
                0.8880503144654088,
                0.8867924528301887,
                0.8880503144654088,
                0.8968553459119497,
                0.9044025157232705,
                0.8943396226415095
            ],
            "test_score": 0.8983903420523138,
            "mean_training": 0.8944654088050317,
            "std_val": 0.005466997185434145,
            "confusion_matrix": [
                467,
                42,
                59,
                426
            ],
            "log_loss": 0.2746126488108865
        },
        {
            "type": "all metrics except weighed, l1, half phoneme, using sgd, alpha= 0.01, shuffle=True, random_state= 42, 10-fold",
            "cross_val": true,
            "log_weights": [
                [
                    [
                        -1.7808129427869193,
                        -2.6086864510399614,
                        4.854089460847934,
                        1.0987374080660655
                    ]
                ],
                [
                    [
                        -2.1160800407254623,
                        -2.427830340734107,
                        4.76902550437802,
                        1.1772571691951277
                    ]
                ],
                [
                    [
                        -2.117795535446949,
                        -2.5662093400062407,
                        5.22875793558423,
                        0.3710842652756354
                    ]
                ],
                [
                    [
                        -2.081125863813576,
                        -2.5737716600350584,
                        4.848558820949617,
                        0.9859514358822422
                    ]
                ],
                [
                    [
                        -1.9614436077322053,
                        -2.433688301404413,
                        4.560358946948785,
                        1.6988542392913337
                    ]
                ],
                [
                    [
                        -2.2113360883625424,
                        -2.2758184149672767,
                        4.541822077202391,
                        1.674727400733734
                    ]
                ],
                [
                    [
                        -1.915308038297347,
                        -2.4338498867201825,
                        4.701837952867721,
                        1.4338042497226633
                    ]
                ],
                [
                    [
                        -1.8254825388846667,
                        -2.467049520045037,
                        4.657085388394886,
                        1.6588250153384068
                    ]
                ],
                [
                    [
                        -2.007035876252637,
                        -2.4372142624598845,
                        4.763383680146356,
                        1.3578036948166095
                    ]
                ],
                [
                    [
                        -1.944293498727442,
                        -2.436000416355124,
                        4.716023181342175,
                        1.2437710095714727
                    ]
                ]
            ],
            "training_score": [
                0.9169811320754717,
                0.8943396226415095,
                0.9044025157232705,
                0.8968553459119497,
                0.8930817610062893,
                0.8930817610062893,
                0.8867924528301887,
                0.8981132075471698,
                0.9081761006289308,
                0.9018867924528302
            ],
            "test_score": 0.8822937625754527,
            "mean_training": 0.89937106918239,
            "std_val": 0.008305697619732917,
            "confusion_matrix": [
                437,
                54,
                63,
                440
            ],
            "log_loss": 0.2919632238418298
        },
        {
            "type": "all metrics except lcs, l1, half phoneme, using sgd, alpha= 0.01, shuffle=True, random_state= 42, 10-fold",
            "cross_val": true,
            "log_weights": [
                [
                    [
                        -2.0897037340057243,
                        -2.642200563281565,
                        5.159789109220743,
                        0.0
                    ]
                ],
                [
                    [
                        -1.8488384718201034,
                        -2.9338540259910784,
                        5.545749909819092,
                        0.0
                    ]
                ],
                [
                    [
                        -2.3190486567656383,
                        -2.596295927067628,
                        5.04855638806978,
                        0.5351288192624513
                    ]
                ],
                [
                    [
                        -2.214240190125016,
                        -2.447893319311362,
                        5.057909497746442,
                        0.2705400899223635
                    ]
                ],
                [
                    [
                        -2.205559904118872,
                        -2.474553017730269,
                        4.997967841364752,
                        0.1670710261303112
                    ]
                ],
                [
                    [
                        -2.336526768868218,
                        -2.5944572172473324,
                        5.360145563211196,
                        0.0
                    ]
                ],
                [
                    [
                        -2.212981640706827,
                        -2.618654863587336,
                        5.313391267301178,
                        0.0
                    ]
                ],
                [
                    [
                        -2.2932434924632643,
                        -2.5344474648154973,
                        5.0944685330679915,
                        0.05466569621895463
                    ]
                ],
                [
                    [
                        -2.1855514024179343,
                        -2.6827943284949303,
                        5.192678800863089,
                        0.0
                    ]
                ],
                [
                    [
                        -2.1978188815306514,
                        -2.552793901507378,
                        5.177972256166164,
                        0.2445282667701724
                    ]
                ]
            ],
            "training_score": [
                0.9169811320754717,
                0.8981132075471698,
                0.8767295597484277,
                0.9081761006289308,
                0.9044025157232705,
                0.8805031446540881,
                0.8905660377358491,
                0.8880503144654088,
                0.909433962264151,
                0.8842767295597485
            ],
            "test_score": 0.8883299798792756,
            "mean_training": 0.8957232704402515,
            "std_val": 0.012980376361406568,
            "confusion_matrix": [
                448,
                45,
                66,
                435
            ],
            "log_loss": 0.29094725764810014
        },
        {
            "type": "all metrics except jaccard, l1, half phoneme, using sgd, alpha= 0.01, shuffle=True, random_state= 42, 10-fold",
            "cross_val": true,
            "log_weights": [
                [
                    [
                        -2.5706003648784828,
                        -3.35791157458978,
                        2.8311263833007514,
                        1.2981760889338776
                    ]
                ],
                [
                    [
                        -2.4814898895653115,
                        -3.492674085035366,
                        2.165118530604403,
                        1.967079950691196
                    ]
                ],
                [
                    [
                        -2.8305233301229933,
                        -3.5018248677006665,
                        2.6900033635385845,
                        1.0472754620627263
                    ]
                ],
                [
                    [
                        -2.665445094121333,
                        -3.7548028074724686,
                        2.6445269101427105,
                        1.0234136052433116
                    ]
                ],
                [
                    [
                        -2.690807191049471,
                        -3.5072408383749956,
                        2.699887772209753,
                        1.113639155820796
                    ]
                ],
                [
                    [
                        -2.9696673844497026,
                        -3.3078074883789923,
                        3.3595574149228753,
                        0.4930255696124965
                    ]
                ],
                [
                    [
                        -2.6900450307883674,
                        -3.650104464480997,
                        2.742270126604802,
                        0.9830003396444309
                    ]
                ],
                [
                    [
                        -2.8959848649012216,
                        -3.4510190398402867,
                        2.5377189681968564,
                        1.298668650870648
                    ]
                ],
                [
                    [
                        -2.7947375284911558,
                        -3.4059074015836726,
                        3.125864380429369,
                        0.6202010140106946
                    ]
                ],
                [
                    [
                        -2.6854874391108874,
                        -3.6759106963339714,
                        2.223039236056399,
                        1.2332612583032978
                    ]
                ]
            ],
            "training_score": [
                0.889308176100629,
                0.8918238993710692,
                0.8817610062893082,
                0.8830188679245283,
                0.8955974842767296,
                0.8591194968553459,
                0.8830188679245283,
                0.8955974842767296,
                0.869182389937107,
                0.8981132075471698
            ],
            "test_score": 0.8843058350100603,
            "mean_training": 0.8846540880503145,
            "std_val": 0.01182724427463296,
            "confusion_matrix": [
                461,
                31,
                84,
                418
            ],
            "log_loss": 0.30265659048666466
        },
        {
            "type": "all metrics except hamming, l1, half phoneme, using sgd, alpha= 0.01, shuffle=True, random_state= 42, 10-fold",
            "cross_val": true,
            "log_weights": [
                [
                    [
                        -3.4027808886784077,
                        5.046730760551902,
                        1.7191453659985003,
                        0.06292502032468184
                    ]
                ],
                [
                    [
                        -3.4918188383801843,
                        5.293690055339174,
                        1.3082321445333278,
                        0.07579008645118357
                    ]
                ],
                [
                    [
                        -3.5222563299426364,
                        5.2281078400706535,
                        0.8839119468868711,
                        0.48646930137227173
                    ]
                ],
                [
                    [
                        -3.2801937717431024,
                        4.710895860465878,
                        1.6244853262950896,
                        0.5477328838431255
                    ]
                ],
                [
                    [
                        -3.411193833736715,
                        5.797464237311774,
                        1.104579060591764,
                        0.0
                    ]
                ],
                [
                    [
                        -3.452393171475169,
                        4.969881465418719,
                        1.1141039334258185,
                        0.5155419976191354
                    ]
                ],
                [
                    [
                        -3.4645772356340325,
                        4.583804369246352,
                        1.2152317218841093,
                        0.9780013889515925
                    ]
                ],
                [
                    [
                        -3.4869485955428052,
                        5.127941949605677,
                        1.0430772352959867,
                        0.4670160468843302
                    ]
                ],
                [
                    [
                        -3.4410640395360708,
                        5.2552551524748115,
                        1.3689938689265047,
                        0.03799936731481556
                    ]
                ],
                [
                    [
                        -3.4840235830231667,
                        5.278147170888175,
                        1.5541420342371435,
                        0.0
                    ]
                ]
            ],
            "training_score": [
                0.8779874213836478,
                0.8767295597484277,
                0.8817610062893082,
                0.8842767295597485,
                0.8955974842767296,
                0.9018867924528302,
                0.89937106918239,
                0.8955974842767296,
                0.8905660377358491,
                0.8817610062893082
            ],
            "test_score": 0.8893360160965795,
            "mean_training": 0.8885534591194968,
            "std_val": 0.008718351421969032,
            "confusion_matrix": [
                458,
                48,
                62,
                426
            ],
            "log_loss": 0.2890833431990216
        },
        {
            "type": "all metrics except edit, l1, half phoneme, using sgd, alpha= 0.01, shuffle=True, random_state= 42, 10-fold",
            "cross_val": true,
            "log_weights": [
                [
                    [
                        -3.591658291244281,
                        4.913767346712284,
                        1.4423082713118756,
                        0.2839880398351381
                    ]
                ],
                [
                    [
                        -3.617442399930167,
                        5.042003388828619,
                        1.4736088077853255,
                        0.0
                    ]
                ],
                [
                    [
                        -3.700612301303316,
                        5.384913493309533,
                        1.0573956055598908,
                        0.0
                    ]
                ],
                [
                    [
                        -3.5317194621086774,
                        4.9992261310330175,
                        1.280446774639886,
                        0.13095617737381993
                    ]
                ],
                [
                    [
                        -3.535532116569081,
                        5.005288026799433,
                        1.3504715032050856,
                        0.1429986107655648
                    ]
                ],
                [
                    [
                        -3.586626514492181,
                        4.964431243331423,
                        1.6818196220136614,
                        0.0
                    ]
                ],
                [
                    [
                        -3.3689768093830277,
                        4.389226576227149,
                        1.6825108315678614,
                        0.5741136681052322
                    ]
                ],
                [
                    [
                        -3.475398680784531,
                        4.851055375343581,
                        1.5754087503082872,
                        0.022530801344074144
                    ]
                ],
                [
                    [
                        -3.3735084711272685,
                        4.567059897570772,
                        1.9363374581891033,
                        0.2864585895327846
                    ]
                ],
                [
                    [
                        -3.4478940407764984,
                        4.664509022953316,
                        1.4483143777854492,
                        0.5744880498429159
                    ]
                ]
            ],
            "training_score": [
                0.89937106918239,
                0.889308176100629,
                0.9069182389937107,
                0.9044025157232705,
                0.8981132075471698,
                0.9006289308176101,
                0.8968553459119497,
                0.9018867924528302,
                0.9031446540880503,
                0.8943396226415095
            ],
            "test_score": 0.8752515090543259,
            "mean_training": 0.8994968553459121,
            "std_val": 0.004886270339510699,
            "confusion_matrix": [
                426,
                48,
                76,
                444
            ],
            "log_loss": 0.29681112497435697
        },
        {
            "type": "all metrics except edit and jaccard, l1, half phoneme, using sgd, alpha= 0.01, shuffle=True, random_state= 42, 10-fold",
            "cross_val": true,
            "log_weights": [
                [
                    [
                        -5.093544400708636,
                        3.2444434922049084,
                        2.108417298561907
                    ]
                ],
                [
                    [
                        -5.595781803679105,
                        3.8959210666395,
                        0.31110652302488995
                    ]
                ],
                [
                    [
                        -5.424187346028111,
                        3.596591765957212,
                        1.0633463898989584
                    ]
                ],
                [
                    [
                        -5.440261276052029,
                        3.0738353402803935,
                        1.2148041846659703
                    ]
                ],
                [
                    [
                        -5.4528147897373245,
                        3.503594810785857,
                        0.9415323363369127
                    ]
                ],
                [
                    [
                        -5.064912622288921,
                        3.5245276003336206,
                        1.427132696731545
                    ]
                ],
                [
                    [
                        -5.436218405698279,
                        3.5818889048039395,
                        0.7629373357178515
                    ]
                ],
                [
                    [
                        -5.306433841812094,
                        3.570228264652885,
                        1.074354824218525
                    ]
                ],
                [
                    [
                        -5.294111267203118,
                        3.2009425377251386,
                        1.2936149869304843
                    ]
                ],
                [
                    [
                        -5.406408005598921,
                        3.904093055422999,
                        0.5503237169065389
                    ]
                ]
            ],
            "training_score": [
                0.8716981132075472,
                0.9056603773584906,
                0.8880503144654088,
                0.889308176100629,
                0.8930817610062893,
                0.8830188679245283,
                0.8880503144654088,
                0.8905660377358491,
                0.8943396226415095,
                0.8955974842767296
            ],
            "test_score": 0.8812877263581489,
            "mean_training": 0.889937106918239,
            "std_val": 0.008348449562789994,
            "confusion_matrix": [
                489,
                33,
                85,
                387
            ],
            "log_loss": 0.30685603868339384
        },
        {
            "type": "all metrics except hamming and jaccard, l1, half phoneme, using sgd, alpha= 0.01, shuffle=True, random_state= 42, 10-fold",
            "cross_val": true,
            "log_weights": [
                [
                    [
                        -4.826777086622379,
                        3.2724052077861607,
                        1.7563552521333181
                    ]
                ],
                [
                    [
                        -5.665114606078947,
                        3.775548816807373,
                        0.27932182607763284
                    ]
                ],
                [
                    [
                        -5.059782192697412,
                        2.8222233919007245,
                        1.7452123432751474
                    ]
                ],
                [
                    [
                        -4.9759313769108875,
                        3.5346835210811394,
                        1.0413233747082646
                    ]
                ],
                [
                    [
                        -4.874829124375194,
                        3.0790545251852555,
                        1.7374025862488383
                    ]
                ],
                [
                    [
                        -5.121403696790647,
                        3.7968259583028,
                        0.7201974026648599
                    ]
                ],
                [
                    [
                        -5.084718779062104,
                        3.65598811176732,
                        0.8525054318412255
                    ]
                ],
                [
                    [
                        -5.019583651135603,
                        3.2941675004818576,
                        1.2108019178158647
                    ]
                ],
                [
                    [
                        -4.995110855814236,
                        3.0207288606983096,
                        1.627683234515559
                    ]
                ],
                [
                    [
                        -4.866017083073575,
                        3.3654923135609986,
                        1.4068449014265303
                    ]
                ]
            ],
            "training_score": [
                0.8729559748427673,
                0.8578616352201258,
                0.8905660377358491,
                0.9006289308176101,
                0.8943396226415095,
                0.8754716981132076,
                0.8742138364779874,
                0.8729559748427673,
                0.8930817610062893,
                0.8817610062893082
            ],
            "test_score": 0.8712273641851107,
            "mean_training": 0.8813836477987422,
            "std_val": 0.012414654653757627,
            "confusion_matrix": [
                471,
                46,
                82,
                395
            ],
            "log_loss": 0.3257220554757241
        },
        {
            "type": "all metrics except edit, hamming and jaccard, l1, half phoneme, using sgd, alpha= 0.01, shuffle=True, random_state= 42, 10-fold",
            "cross_val": true,
            "log_weights": [
                [
                    [
                        5.909300729533169,
                        3.2559668951433896
                    ]
                ],
                [
                    [
                        5.854180541686868,
                        3.862649605834253
                    ]
                ],
                [
                    [
                        6.562154344401716,
                        2.491011517377605
                    ]
                ],
                [
                    [
                        6.605319795294368,
                        2.6664748962566485
                    ]
                ],
                [
                    [
                        6.505351261201181,
                        2.934824618271252
                    ]
                ],
                [
                    [
                        6.3392685038955925,
                        2.679060580233222
                    ]
                ],
                [
                    [
                        6.462486189867992,
                        2.954970419484342
                    ]
                ],
                [
                    [
                        6.088694124406185,
                        3.188734752199798
                    ]
                ],
                [
                    [
                        6.460709964795971,
                        2.660328459426664
                    ]
                ],
                [
                    [
                        6.194864043048106,
                        3.2962219202464986
                    ]
                ]
            ],
            "training_score": [
                0.8616352201257862,
                0.8603773584905661,
                0.8339622641509434,
                0.8817610062893082,
                0.8528301886792453,
                0.8289308176100629,
                0.8402515723270441,
                0.8616352201257862,
                0.869182389937107,
                0.8477987421383648
            ],
            "test_score": 0.8470824949698189,
            "mean_training": 0.8538364779874212,
            "std_val": 0.015546681313690941,
            "confusion_matrix": [
                423,
                53,
                99,
                419
            ],
            "log_loss": 0.34678115617102884
        },
        {
            "type": "all metrics except lcs and weighed, l1, half phoneme, using sgd, alpha= 0.01, shuffle=True, random_state= 42, 10-fold",
            "cross_val": true,
            "log_weights": [
                [
                    [
                        -2.366142743824402,
                        -2.6026208296950815,
                        5.28386956389523
                    ]
                ],
                [
                    [
                        -2.2371951406282617,
                        -2.658826300853274,
                        5.468474989285031
                    ]
                ],
                [
                    [
                        -2.356359174246645,
                        -2.5837080811775226,
                        5.419960221748497
                    ]
                ],
                [
                    [
                        -2.425160185397632,
                        -2.590442683925663,
                        5.48557266451883
                    ]
                ],
                [
                    [
                        -2.3028502609233685,
                        -2.6762680519057116,
                        5.429152923995559
                    ]
                ],
                [
                    [
                        -2.2711980673290717,
                        -2.6927228433454458,
                        5.589396543272287
                    ]
                ],
                [
                    [
                        -2.2554075877174085,
                        -2.572237312730727,
                        5.3838280076545795
                    ]
                ],
                [
                    [
                        -2.4408763869061985,
                        -2.628729014684366,
                        5.237228172262724
                    ]
                ],
                [
                    [
                        -2.2584684666353247,
                        -2.6770734204382065,
                        5.490587270533593
                    ]
                ],
                [
                    [
                        -2.366080163330776,
                        -2.6540212049902348,
                        5.418391790637086
                    ]
                ]
            ],
            "training_score": [
                0.8805031446540881,
                0.889308176100629,
                0.8968553459119497,
                0.8981132075471698,
                0.8855345911949686,
                0.8880503144654088,
                0.889308176100629,
                0.8855345911949686,
                0.8918238993710692,
                0.8981132075471698
            ],
            "test_score": 0.9154929577464789,
            "mean_training": 0.8903144654088049,
            "std_val": 0.005619700101556898,
            "confusion_matrix": [
                467,
                35,
                49,
                443
            ],
            "log_loss": 0.24902522712623648
        },
        {
            "type": "all metrics except edit, lcs and weighed, l1, half phoneme, using sgd, alpha= 0.01, shuffle=True, random_state= 42, 10-fold",
            "cross_val": true,
            "log_weights": [
                [
                    [
                        -4.29533415509731,
                        6.421282030166722
                    ]
                ],
                [
                    [
                        -4.185267166560813,
                        6.33625785538735
                    ]
                ],
                [
                    [
                        -4.189401565188442,
                        6.265918109683801
                    ]
                ],
                [
                    [
                        -4.220836263242456,
                        6.293257881211651
                    ]
                ],
                [
                    [
                        -4.207382542915312,
                        6.342939875221082
                    ]
                ],
                [
                    [
                        -4.23912580497812,
                        6.090332743490847
                    ]
                ],
                [
                    [
                        -4.1873685094164355,
                        6.276047761838945
                    ]
                ],
                [
                    [
                        -4.20620433323289,
                        6.256413141163361
                    ]
                ],
                [
                    [
                        -4.112481611194039,
                        6.1877843407353055
                    ]
                ],
                [
                    [
                        -4.254232703006174,
                        5.962598841850668
                    ]
                ]
            ],
            "training_score": [
                0.9056603773584906,
                0.889308176100629,
                0.9056603773584906,
                0.89937106918239,
                0.8981132075471698,
                0.9018867924528302,
                0.9157232704402516,
                0.9006289308176101,
                0.889308176100629,
                0.9106918238993711
            ],
            "test_score": 0.8812877263581489,
            "mean_training": 0.9016352201257863,
            "std_val": 0.007971310449184832,
            "confusion_matrix": [
                442,
                52,
                66,
                434
            ],
            "log_loss": 0.29181850198429155
        },
        {
            "type": "all metrics except hamming, lcs and weighed, l1, half phoneme, using sgd, alpha= 0.01, shuffle=True, random_state= 42, 10-fold",
            "cross_val": true,
            "log_weights": [
                [
                    [
                        -4.059056884009452,
                        6.369403150662172
                    ]
                ],
                [
                    [
                        -4.013545296496266,
                        6.274193367693169
                    ]
                ],
                [
                    [
                        -3.9291040250146976,
                        6.295560772944241
                    ]
                ],
                [
                    [
                        -4.123841036879376,
                        6.233622464643873
                    ]
                ],
                [
                    [
                        -3.8107361139394715,
                        6.157267207615058
                    ]
                ],
                [
                    [
                        -3.9187218348381028,
                        6.230564366113959
                    ]
                ],
                [
                    [
                        -4.00136045972054,
                        6.272579609567271
                    ]
                ],
                [
                    [
                        -3.926003315863134,
                        6.313864207078528
                    ]
                ],
                [
                    [
                        -3.8380095523894,
                        6.314852464160614
                    ]
                ],
                [
                    [
                        -3.9444285391262786,
                        6.122922112292956
                    ]
                ]
            ],
            "training_score": [
                0.8918238993710692,
                0.8716981132075472,
                0.8968553459119497,
                0.8805031446540881,
                0.9182389937106918,
                0.9031446540880503,
                0.8968553459119497,
                0.8830188679245283,
                0.8805031446540881,
                0.89937106918239
            ],
            "test_score": 0.89738430583501,
            "mean_training": 0.8922012578616354,
            "std_val": 0.012926632217929264,
            "confusion_matrix": [
                432,
                43,
                59,
                460
            ],
            "log_loss": 0.26659433859613463
        },
        {
            "type": "all metrics except jaccard, lcs and weighed, l1, half phoneme, using sgd, alpha= 0.01, shuffle=True, random_state= 42, 10-fold",
            "cross_val": true,
            "log_weights": [
                [
                    [
                        -4.511708515790924,
                        -4.9209649369978665
                    ]
                ],
                [
                    [
                        -4.4425264400050715,
                        -4.9015920613697075
                    ]
                ],
                [
                    [
                        -4.397910212892292,
                        -4.950256828123649
                    ]
                ],
                [
                    [
                        -4.359234183147804,
                        -5.009346557943728
                    ]
                ],
                [
                    [
                        -4.2922832905154875,
                        -4.865827102269054
                    ]
                ],
                [
                    [
                        -4.420313628538961,
                        -4.951211277170236
                    ]
                ],
                [
                    [
                        -4.439749792536136,
                        -5.183069317338578
                    ]
                ],
                [
                    [
                        -4.619767177597685,
                        -4.993774772395785
                    ]
                ],
                [
                    [
                        -4.404270578868189,
                        -4.965740964778119
                    ]
                ],
                [
                    [
                        -4.246212360385488,
                        -5.142251220913388
                    ]
                ]
            ],
            "training_score": [
                0.9044025157232705,
                0.8855345911949686,
                0.89937106918239,
                0.8729559748427673,
                0.8981132075471698,
                0.8955974842767296,
                0.8616352201257862,
                0.8867924528301887,
                0.8905660377358491,
                0.8918238993710692
            ],
            "test_score": 0.8953722334004024,
            "mean_training": 0.8886792452830189,
            "std_val": 0.012263344595327146,
            "confusion_matrix": [
                471,
                50,
                54,
                419
            ],
            "log_loss": 0.2915175830259824
        },
        {
            "type": "all metrics, l1, full phoneme, using sgd, alpha= 0.01, shuffle=True, random_state= 42, 10-fold",
            "cross_val": true,
            "log_weights": [
                [
                    [
                        -0.32888906101313997,
                        -0.7107488796804319,
                        2.9410148385131625,
                        0.0,
                        0.08939404210537104
                    ]
                ],
                [
                    [
                        -0.10686373220823053,
                        -1.002553508821082,
                        2.8465017315735537,
                        0.0,
                        0.12340732719982674
                    ]
                ],
                [
                    [
                        -0.33198172222160505,
                        -0.93396460732027,
                        2.6561552226673144,
                        0.0,
                        0.23246218797810114
                    ]
                ],
                [
                    [
                        0.0,
                        -0.9081118218797244,
                        2.6046160602008355,
                        0.0,
                        0.5894219528984743
                    ]
                ],
                [
                    [
                        -0.09828993755597983,
                        -0.9373957046555215,
                        2.7397070781114063,
                        0.0,
                        0.2254095948171113
                    ]
                ],
                [
                    [
                        -0.2893024283127185,
                        -0.7322182069349682,
                        2.9397847819958463,
                        0.0,
                        0.060578509356020875
                    ]
                ],
                [
                    [
                        -0.27604764892919376,
                        -0.7093678486045473,
                        2.6778483907652255,
                        0.0,
                        0.692967625345546
                    ]
                ],
                [
                    [
                        -0.28934960121593983,
                        -0.7909329973044149,
                        2.375163021715594,
                        0.0,
                        0.6725329883293095
                    ]
                ],
                [
                    [
                        -0.5766238040433,
                        -0.8907238118042329,
                        2.4064094465392425,
                        0.0,
                        0.21565593552747497
                    ]
                ],
                [
                    [
                        -0.3098408002248491,
                        -0.7492994010918689,
                        2.9351879286409366,
                        0.0,
                        0.0
                    ]
                ]
            ],
            "training_score": [
                0.6679245283018868,
                0.670440251572327,
                0.6528301886792452,
                0.6817610062893081,
                0.6792452830188679,
                0.6842767295597484,
                0.6691823899371069,
                0.6729559748427673,
                0.6666666666666666,
                0.6691823899371069
            ],
            "test_score": 0.6750503018108652,
            "mean_training": 0.6714465408805032,
            "std_val": 0.008527522644869579,
            "confusion_matrix": [
                342,
                160,
                163,
                329
            ],
            "log_loss": 0.5959622524761412
        },
        {
            "type": "all metrics except lcs and weighed, l1, full phoneme, using sgd, alpha= 0.01, shuffle=True, random_state= 42, 10-fold",
            "cross_val": true,
            "log_weights": [
                [
                    [
                        -0.4577534282129376,
                        -0.7411915184820063,
                        2.785787694278669
                    ]
                ],
                [
                    [
                        -0.09831522615386883,
                        -0.8128638227399811,
                        2.9792824384804164
                    ]
                ],
                [
                    [
                        -0.3577383039206763,
                        -0.7396375674176393,
                        2.851209469964653
                    ]
                ],
                [
                    [
                        -0.3018818648840469,
                        -0.9690834609022145,
                        2.6815621467870248
                    ]
                ],
                [
                    [
                        -0.47905426372379156,
                        -0.8188760103199118,
                        2.5761654900323054
                    ]
                ],
                [
                    [
                        -0.33347888942579723,
                        -0.9763365495932521,
                        2.578134130768501
                    ]
                ],
                [
                    [
                        -0.16492239185764795,
                        -1.0492090952456667,
                        2.769000755670011
                    ]
                ],
                [
                    [
                        -0.32024165753732625,
                        -0.7751334203927782,
                        2.8384098156063042
                    ]
                ],
                [
                    [
                        -0.545391823989091,
                        -0.8659006492098617,
                        2.7290978010431317
                    ]
                ],
                [
                    [
                        -0.25902109509468657,
                        -0.9483731700936511,
                        2.8634246418499587
                    ]
                ]
            ],
            "training_score": [
                0.6792452830188679,
                0.6742138364779874,
                0.6792452830188679,
                0.6540880503144654,
                0.6779874213836478,
                0.6666666666666666,
                0.6654088050314465,
                0.6767295597484276,
                0.650314465408805,
                0.650314465408805
            ],
            "test_score": 0.6488933601609658,
            "mean_training": 0.6674213836477987,
            "std_val": 0.011365390689888316,
            "confusion_matrix": [
                346,
                127,
                222,
                299
            ],
            "log_loss": 0.5908412034046585
        },
        {
            "type": "all metrics except edit, lcs and weighed, l1, full phoneme, using sgd, alpha= 0.01, shuffle=True, random_state= 42, 10-fold",
            "cross_val": true,
            "log_weights": [
                [
                    [
                        -1.2009442524199414,
                        2.5960070242355338
                    ]
                ],
                [
                    [
                        -1.022723861932139,
                        2.6854244854602545
                    ]
                ],
                [
                    [
                        -0.9020794722752209,
                        2.9527693443121095
                    ]
                ],
                [
                    [
                        -1.0717878068219453,
                        2.624484542774432
                    ]
                ],
                [
                    [
                        -0.9125753223885472,
                        2.7768536902639607
                    ]
                ],
                [
                    [
                        -1.0455764603587232,
                        2.811108203589124
                    ]
                ],
                [
                    [
                        -0.8452662969992583,
                        2.999922971381224
                    ]
                ],
                [
                    [
                        -1.1781435354356533,
                        2.5745056468048673
                    ]
                ],
                [
                    [
                        -1.1942381239425834,
                        2.5927603068088914
                    ]
                ],
                [
                    [
                        -0.9553910032872499,
                        2.6767544810401294
                    ]
                ]
            ],
            "training_score": [
                0.6666666666666666,
                0.6729559748427673,
                0.6679245283018868,
                0.6591194968553459,
                0.6867924528301886,
                0.6591194968553459,
                0.6641509433962264,
                0.6679245283018868,
                0.6742138364779874,
                0.6742138364779874
            ],
            "test_score": 0.6981891348088531,
            "mean_training": 0.6693081761006289,
            "std_val": 0.007824061152243513,
            "confusion_matrix": [
                364,
                139,
                161,
                330
            ],
            "log_loss": 0.5640858620974257
        },
        {
            "type": "all metrics except hamming, lcs and weighed, l1, full phoneme, using sgd, alpha= 0.01, shuffle=True, random_state= 42, 10-fold",
            "cross_val": true,
            "log_weights": [
                [
                    [
                        -0.9124451289099224,
                        3.266387286658781
                    ]
                ],
                [
                    [
                        -0.8051720788475341,
                        3.07532161175485
                    ]
                ],
                [
                    [
                        -0.6974407968972925,
                        3.119053111893742
                    ]
                ],
                [
                    [
                        -1.000547342667062,
                        2.9822082856785452
                    ]
                ],
                [
                    [
                        -0.9867204542193153,
                        2.994471210707897
                    ]
                ],
                [
                    [
                        -1.1292957548171252,
                        2.900808009738336
                    ]
                ],
                [
                    [
                        -0.6763903817417223,
                        3.4697139146551277
                    ]
                ],
                [
                    [
                        -0.5975709797442466,
                        3.259878647370943
                    ]
                ],
                [
                    [
                        -0.8741321746792403,
                        3.0885359649317494
                    ]
                ],
                [
                    [
                        -1.179870320849486,
                        2.841568076261902
                    ]
                ]
            ],
            "training_score": [
                0.6377358490566037,
                0.6855345911949685,
                0.6981132075471698,
                0.6754716981132075,
                0.6955974842767295,
                0.6465408805031446,
                0.6515723270440251,
                0.710691823899371,
                0.6628930817610063,
                0.6553459119496855
            ],
            "test_score": 0.670020120724346,
            "mean_training": 0.6719496855345911,
            "std_val": 0.02351763992586095,
            "confusion_matrix": [
                345,
                153,
                175,
                321
            ],
            "log_loss": 0.5832610280942021
        },
        {
            "type": "all metrics except hamming, lcs and weighed, l1, full phoneme, using sgd, alpha= 0.01, shuffle=True, random_state= 42, 10-fold",
            "cross_val": true,
            "log_weights": [
                [
                    [
                        -0.9304828619123914,
                        3.029065214894362
                    ]
                ],
                [
                    [
                        -0.7526152281946485,
                        3.155216305983977
                    ]
                ],
                [
                    [
                        -1.103453231610313,
                        2.8895532483387645
                    ]
                ],
                [
                    [
                        -0.8356779528811891,
                        3.100314308597115
                    ]
                ],
                [
                    [
                        -1.031446575722629,
                        2.8444144980705697
                    ]
                ],
                [
                    [
                        -1.06868105566801,
                        2.876563714851454
                    ]
                ],
                [
                    [
                        -0.9500337253909494,
                        3.0723517212966356
                    ]
                ],
                [
                    [
                        -1.0725561575337186,
                        3.0215288432479115
                    ]
                ],
                [
                    [
                        -0.8051153969943617,
                        3.2346739932245576
                    ]
                ],
                [
                    [
                        -0.9403483361001898,
                        3.036044093973358
                    ]
                ]
            ],
            "training_score": [
                0.6842767295597484,
                0.70062893081761,
                0.6679245283018868,
                0.6930817610062893,
                0.6779874213836478,
                0.6767295597484276,
                0.660377358490566,
                0.6591194968553459,
                0.6641509433962264,
                0.6830188679245283
            ],
            "test_score": 0.6659959758551308,
            "mean_training": 0.6767295597484276,
            "std_val": 0.013228494918374746,
            "confusion_matrix": [
                352,
                161,
                171,
                310
            ],
            "log_loss": 0.5922873907130541
        },
        {
            "type": "all metrics except weighed, l1, full phoneme, using sgd, alpha= 0.01, shuffle=True, random_state= 42, 10-fold",
            "cross_val": true,
            "log_weights": [
                [
                    [
                        -0.5191602941075738,
                        -0.8954820715902989,
                        2.586485243371553,
                        0.0
                    ]
                ],
                [
                    [
                        -0.4334677631860959,
                        -1.1072312187678965,
                        2.7724901681245377,
                        0.0
                    ]
                ],
                [
                    [
                        -0.5571992871645438,
                        -1.0555269076934206,
                        2.528104954669685,
                        0.0
                    ]
                ],
                [
                    [
                        -0.36032918107396833,
                        -0.868419811604297,
                        2.8688325443229568,
                        0.0
                    ]
                ],
                [
                    [
                        -0.44230192849002803,
                        -1.1464026509881486,
                        2.4944497968474924,
                        0.0
                    ]
                ],
                [
                    [
                        -0.5742231436798179,
                        -0.9733963623916745,
                        2.5171257713120894,
                        0.0
                    ]
                ],
                [
                    [
                        -0.144151231725742,
                        -1.0391426596708147,
                        2.834070106204806,
                        0.0
                    ]
                ],
                [
                    [
                        -0.4616504976109548,
                        -1.0034891864828057,
                        2.4577999484721524,
                        0.0
                    ]
                ],
                [
                    [
                        -0.266309468122826,
                        -0.9496963234818266,
                        2.7489334283877316,
                        0.0
                    ]
                ],
                [
                    [
                        -0.3258871630882985,
                        -0.9933044416226932,
                        2.7752682542119436,
                        0.0
                    ]
                ]
            ],
            "training_score": [
                0.670440251572327,
                0.6062893081761006,
                0.6641509433962264,
                0.6490566037735849,
                0.6566037735849056,
                0.6691823899371069,
                0.6452830188679245,
                0.6842767295597484,
                0.6880503144654088,
                0.640251572327044
            ],
            "test_score": 0.6509054325955734,
            "mean_training": 0.6573584905660377,
            "std_val": 0.022670840540187816,
            "confusion_matrix": [
                351,
                117,
                230,
                296
            ],
            "log_loss": 0.5969361549583592
        },
        {
            "type": "all metrics except lcs, l1, full phoneme, using sgd, alpha= 0.01, shuffle=True, random_state= 42, 10-fold",
            "cross_val": true,
            "log_weights": [
                [
                    [
                        -0.3028209006157447,
                        -1.0172241182256851,
                        2.5864087846846626,
                        0.0
                    ]
                ],
                [
                    [
                        -0.5571182849628631,
                        -0.8238218592566832,
                        2.330950390377962,
                        0.21491834645303887
                    ]
                ],
                [
                    [
                        -0.22214236496698564,
                        -0.8060419021018403,
                        2.830241817772586,
                        0.0
                    ]
                ],
                [
                    [
                        -0.3207209820465573,
                        -0.9826962953504855,
                        2.273289863577059,
                        0.41078519063803753
                    ]
                ],
                [
                    [
                        -0.34788047654087106,
                        -0.9043963501564676,
                        2.0183349440444367,
                        0.6635011151519375
                    ]
                ],
                [
                    [
                        -0.3744467283597575,
                        -0.8552752230941719,
                        2.611649934566378,
                        0.07002455355233114
                    ]
                ],
                [
                    [
                        -0.2722694708800886,
                        -0.7782677475818143,
                        2.91872109252875,
                        0.0
                    ]
                ],
                [
                    [
                        -0.3538819964847502,
                        -0.6981919247188051,
                        2.7546835726209196,
                        0.0
                    ]
                ],
                [
                    [
                        -0.28276529362656133,
                        -0.9123476975963348,
                        2.6788775456636658,
                        0.0
                    ]
                ],
                [
                    [
                        -0.30867882361509946,
                        -0.8003246320081236,
                        2.607705516703457,
                        0.15148596353920737
                    ]
                ]
            ],
            "training_score": [
                0.6641509433962264,
                0.6528301886792452,
                0.6842767295597484,
                0.6817610062893081,
                0.6867924528301886,
                0.670440251572327,
                0.6540880503144654,
                0.6830188679245283,
                0.6654088050314465,
                0.6880503144654088
            ],
            "test_score": 0.6800804828973843,
            "mean_training": 0.6730817610062892,
            "std_val": 0.012759082775327986,
            "confusion_matrix": [
                346,
                144,
                174,
                330
            ],
            "log_loss": 0.583464142618804
        },
        {
            "type": "all metrics except jaccard, l1, full phoneme, using sgd, alpha= 0.01, shuffle=True, random_state= 42, 10-fold",
            "cross_val": true,
            "log_weights": [
                [
                    [
                        -1.1360687013298119,
                        -1.5426773623839454,
                        0.0,
                        1.5472353014100264
                    ]
                ],
                [
                    [
                        -1.1069115415504287,
                        -1.856144563354898,
                        0.0,
                        1.0999908297553798
                    ]
                ],
                [
                    [
                        -1.0080911098412313,
                        -1.5839578786164294,
                        0.0,
                        1.5965522650510702
                    ]
                ],
                [
                    [
                        -1.0072671550732026,
                        -1.7774797541868075,
                        0.0,
                        1.3779342448961738
                    ]
                ],
                [
                    [
                        -1.0974049735018516,
                        -1.6582172133701996,
                        0.0,
                        1.3761936815496616
                    ]
                ],
                [
                    [
                        -0.9215813700687223,
                        -1.622949225050428,
                        0.0,
                        1.450074779166751
                    ]
                ],
                [
                    [
                        -1.153580806256294,
                        -1.5176929312343195,
                        0.0,
                        1.462659504583754
                    ]
                ],
                [
                    [
                        -0.9989921835599089,
                        -1.7200364353359483,
                        0.0,
                        1.556015203125098
                    ]
                ],
                [
                    [
                        -1.0336475154476268,
                        -1.5535816786892935,
                        0.0,
                        1.6979945680966695
                    ]
                ],
                [
                    [
                        -0.9487699806265367,
                        -1.6421837229992824,
                        0.0,
                        1.4574670535715495
                    ]
                ]
            ],
            "training_score": [
                0.6477987421383647,
                0.6528301886792452,
                0.6566037735849056,
                0.6427672955974842,
                0.6578616352201258,
                0.6855345911949685,
                0.680503144654088,
                0.6515723270440251,
                0.6553459119496855,
                0.6641509433962264
            ],
            "test_score": 0.6267605633802817,
            "mean_training": 0.6594968553459118,
            "std_val": 0.013012029924201255,
            "confusion_matrix": [
                353,
                125,
                246,
                270
            ],
            "log_loss": 0.6019281426309391
        },
        {
            "type": "all metrics except hamming, l1, full phoneme, using sgd, alpha= 0.01, shuffle=True, random_state= 42, 10-fold",
            "cross_val": true,
            "log_weights": [
                [
                    [
                        -1.0176491318333236,
                        2.654096158486552,
                        0.0,
                        0.296832542173765
                    ]
                ],
                [
                    [
                        -0.880142796953511,
                        3.026947025900038,
                        0.0,
                        0.15803642559406536
                    ]
                ],
                [
                    [
                        -0.9427201816193258,
                        2.6491918531845218,
                        0.0,
                        0.4347044532590134
                    ]
                ],
                [
                    [
                        -0.798365976922112,
                        2.8304826634305744,
                        0.0,
                        0.2747229423494631
                    ]
                ],
                [
                    [
                        -0.9266828550041062,
                        2.691571331051455,
                        0.0,
                        0.484313051902715
                    ]
                ],
                [
                    [
                        -0.8024378324008035,
                        2.4389713260542525,
                        0.0,
                        0.8670563898324839
                    ]
                ],
                [
                    [
                        -0.754323981093808,
                        2.6262194711507845,
                        0.0,
                        0.7359688201281319
                    ]
                ],
                [
                    [
                        -0.746470016408995,
                        3.195043632919296,
                        0.0,
                        0.0
                    ]
                ],
                [
                    [
                        -0.7184280741883844,
                        2.85082868817451,
                        0.0,
                        0.30421634250811064
                    ]
                ],
                [
                    [
                        -0.41608549617157725,
                        2.727849536939572,
                        0.0,
                        0.903360173025303
                    ]
                ]
            ],
            "training_score": [
                0.6754716981132075,
                0.6528301886792452,
                0.6679245283018868,
                0.6855345911949685,
                0.6641509433962264,
                0.6842767295597484,
                0.6779874213836478,
                0.6477987421383647,
                0.7094339622641509,
                0.6880503144654088
            ],
            "test_score": 0.6680080482897385,
            "mean_training": 0.6753459119496855,
            "std_val": 0.01720513793866441,
            "confusion_matrix": [
                387,
                131,
                199,
                277
            ],
            "log_loss": 0.5895310299165856
        },
        {
            "type": "all metrics except edit, l1, full phoneme, using sgd, alpha= 0.01, shuffle=True, random_state= 42, 10-fold",
            "cross_val": true,
            "log_weights": [
                [
                    [
                        -0.936498757230933,
                        3.0361344831283885,
                        0.0,
                        0.2399872174257471
                    ]
                ],
                [
                    [
                        -1.2141936846829562,
                        2.7026109000680223,
                        0.0,
                        0.369336559238688
                    ]
                ],
                [
                    [
                        -1.0927791602034067,
                        2.711788164194975,
                        0.0,
                        0.32283172316871867
                    ]
                ],
                [
                    [
                        -1.336272101483224,
                        2.668337950970313,
                        0.0,
                        0.11611325508837582
                    ]
                ],
                [
                    [
                        -1.1191039706106953,
                        2.6486324770791545,
                        0.0,
                        0.5772682633746438
                    ]
                ],
                [
                    [
                        -0.9487932077245589,
                        3.14361491623684,
                        0.0,
                        0.0
                    ]
                ],
                [
                    [
                        -1.2576145771684948,
                        2.4978413409392126,
                        0.0,
                        0.42388402779802803
                    ]
                ],
                [
                    [
                        -1.1535220670706605,
                        2.922904860417847,
                        0.0,
                        0.17371439757456053
                    ]
                ],
                [
                    [
                        -1.0096523692304682,
                        2.8946062889954343,
                        0.0,
                        0.3246921532461023
                    ]
                ],
                [
                    [
                        -0.8451144761277286,
                        2.9834021884212896,
                        0.0,
                        0.1675230330942801
                    ]
                ]
            ],
            "training_score": [
                0.6729559748427673,
                0.6716981132075471,
                0.6792452830188679,
                0.690566037735849,
                0.6566037735849056,
                0.6943396226415094,
                0.6867924528301886,
                0.6691823899371069,
                0.6855345911949685,
                0.6981132075471698
            ],
            "test_score": 0.6780684104627767,
            "mean_training": 0.6805031446540879,
            "std_val": 0.012260118672715675,
            "confusion_matrix": [
                344,
                167,
                153,
                330
            ],
            "log_loss": 0.6044802040028344
        },
        {
            "type": "all metrics except edit and jaccard, l1, full phoneme, using sgd, alpha= 0.01, shuffle=True, random_state= 42, 10-fold",
            "cross_val": true,
            "log_weights": [
                [
                    [
                        -2.543786810997217,
                        0.0,
                        1.6665667243427436
                    ]
                ],
                [
                    [
                        -2.420497648390157,
                        0.0,
                        1.5929445223868581
                    ]
                ],
                [
                    [
                        -2.4959267757474333,
                        0.0,
                        1.5361785681145406
                    ]
                ],
                [
                    [
                        -2.5414007767434974,
                        0.0,
                        1.4481478259808598
                    ]
                ],
                [
                    [
                        -2.643417445774962,
                        0.0,
                        1.3587942527168335
                    ]
                ],
                [
                    [
                        -2.3743173272191167,
                        0.0,
                        1.7259882894920582
                    ]
                ],
                [
                    [
                        -2.3558066715101837,
                        0.0,
                        1.7171139945581884
                    ]
                ],
                [
                    [
                        -2.5771541911391833,
                        0.0,
                        1.6617271298757486
                    ]
                ],
                [
                    [
                        -2.5945909037453565,
                        0.0,
                        1.4546019315152852
                    ]
                ],
                [
                    [
                        -2.544103646514813,
                        0.0,
                        1.6561628103871495
                    ]
                ]
            ],
            "training_score": [
                0.6327044025157232,
                0.6691823899371069,
                0.6641509433962264,
                0.680503144654088,
                0.6477987421383647,
                0.6716981132075471,
                0.6691823899371069,
                0.6452830188679245,
                0.650314465408805,
                0.6389937106918239
            ],
            "test_score": 0.670020120724346,
            "mean_training": 0.6569811320754716,
            "std_val": 0.015157624150064195,
            "confusion_matrix": [
                349,
                162,
                166,
                317
            ],
            "log_loss": 0.5889827158519555
        },
        {
            "type": "all metrics except hamming and jaccard, l1, full phoneme, using sgd, alpha= 0.01, shuffle=True, random_state= 42, 10-fold",
            "cross_val": true,
            "log_weights": [
                [
                    [
                        -1.9806718963920111,
                        0.0,
                        2.3448493350908333
                    ]
                ],
                [
                    [
                        -2.13733366467613,
                        0.0,
                        2.0292421585493807
                    ]
                ],
                [
                    [
                        -2.298207143459628,
                        0.0,
                        1.685026709197816
                    ]
                ],
                [
                    [
                        -2.1409833447958353,
                        0.0,
                        2.0093102937221476
                    ]
                ],
                [
                    [
                        -2.5113424655920995,
                        0.0,
                        1.547392433482279
                    ]
                ],
                [
                    [
                        -2.2470646168495993,
                        0.0,
                        1.6430339408389085
                    ]
                ],
                [
                    [
                        -2.3883450446009857,
                        0.0,
                        1.4647196610760282
                    ]
                ],
                [
                    [
                        -2.3903210680600266,
                        0.0,
                        1.5719639280734268
                    ]
                ],
                [
                    [
                        -2.3834376904201364,
                        0.0,
                        1.6951963282593427
                    ]
                ],
                [
                    [
                        -2.229987278090277,
                        0.0,
                        1.7852042657687417
                    ]
                ]
            ],
            "training_score": [
                0.6327044025157232,
                0.6327044025157232,
                0.6364779874213836,
                0.6440251572327044,
                0.6465408805031446,
                0.6779874213836478,
                0.6817610062893081,
                0.6427672955974842,
                0.6490566037735849,
                0.6616352201257861
            ],
            "test_score": 0.6830985915492958,
            "mean_training": 0.6505660377358491,
            "std_val": 0.0167517703794581,
            "confusion_matrix": [
                357,
                148,
                167,
                322
            ],
            "log_loss": 0.5824500383049419
        },
        {
            "type": "all metrics except edit, hamming and jaccard, l1, full phoneme, using sgd, alpha= 0.01, shuffle=True, random_state= 42, 10-fold",
            "cross_val": true,
            "log_weights": [
                [
                    [
                        0.0,
                        4.0652344557022175
                    ]
                ],
                [
                    [
                        0.0,
                        4.136674920661437
                    ]
                ],
                [
                    [
                        0.0,
                        3.999585316735523
                    ]
                ],
                [
                    [
                        0.0,
                        4.262057725785105
                    ]
                ],
                [
                    [
                        0.0,
                        3.9336104326245147
                    ]
                ],
                [
                    [
                        0.0,
                        3.979791754095692
                    ]
                ],
                [
                    [
                        0.0,
                        4.047652424490378
                    ]
                ],
                [
                    [
                        0.0,
                        4.228158407094741
                    ]
                ],
                [
                    [
                        0.0,
                        4.2311927308301875
                    ]
                ],
                [
                    [
                        0.0,
                        4.075745748425124
                    ]
                ]
            ],
            "training_score": [
                0.650314465408805,
                0.6452830188679245,
                0.6477987421383647,
                0.6716981132075471,
                0.640251572327044,
                0.6289308176100629,
                0.6327044025157232,
                0.680503144654088,
                0.6213836477987421,
                0.6540880503144654
            ],
            "test_score": 0.6488933601609658,
            "mean_training": 0.6472955974842767,
            "std_val": 0.01740400559137406,
            "confusion_matrix": [
                354,
                145,
                204,
                291
            ],
            "log_loss": 0.6034560381522064
        },
        {
            "type": "all metrics except hamming, lcs, and weighed l1, full phoneme, using sgd, alpha= 0.01, shuffle=True, random_state= 42, 10-fold",
            "cross_val": true,
            "log_weights": [
                [
                    [
                        -1.1011533409313048,
                        3.347146460580777
                    ]
                ],
                [
                    [
                        -1.0514953708008985,
                        3.2169335533170296
                    ]
                ],
                [
                    [
                        -0.7663758950882064,
                        3.389365371579252
                    ]
                ],
                [
                    [
                        -1.1457359406302976,
                        3.1590069053532295
                    ]
                ],
                [
                    [
                        -0.9121754144008095,
                        3.4631732639557486
                    ]
                ],
                [
                    [
                        -1.1474763162500954,
                        3.1523210478840906
                    ]
                ],
                [
                    [
                        -0.9051874663084689,
                        3.308148513598243
                    ]
                ],
                [
                    [
                        -0.8929426171348105,
                        3.255163050294088
                    ]
                ],
                [
                    [
                        -1.0769917650676848,
                        3.1326159369783704
                    ]
                ],
                [
                    [
                        -1.1395827956862432,
                        3.1879975338597655
                    ]
                ]
            ],
            "training_score": [
                0.660377358490566,
                0.6779874213836478,
                0.7094339622641509,
                0.680503144654088,
                0.6754716981132075,
                0.6817610062893081,
                0.6893081761006289,
                0.7056603773584905,
                0.6930817610062893,
                0.660377358490566
            ],
            "test_score": 0.6338028169014085,
            "mean_training": 0.6833962264150943,
            "std_val": 0.015701116468079937,
            "confusion_matrix": [
                318,
                188,
                176,
                312
            ],
            "log_loss": 0.6168153613749968
        },
        {
            "type": "all metrics except jaccard, lcs, and weighed l1, full phoneme, using sgd, alpha= 0.01, shuffle=True, random_state= 42, 10-fold",
            "cross_val": true,
            "log_weights": [
                [
                    [
                        -1.3939591387949768,
                        -2.0414835403925795
                    ]
                ],
                [
                    [
                        -1.640732718986278,
                        -1.9873595894214737
                    ]
                ],
                [
                    [
                        -1.453375332282281,
                        -2.0410767380128303
                    ]
                ],
                [
                    [
                        -1.5267228632919532,
                        -2.0301918591526276
                    ]
                ],
                [
                    [
                        -1.5090543623054542,
                        -2.1218131580739072
                    ]
                ],
                [
                    [
                        -1.4242655971372795,
                        -2.1459978917237486
                    ]
                ],
                [
                    [
                        -1.4833839290820048,
                        -2.293066203532795
                    ]
                ],
                [
                    [
                        -1.4930074072522637,
                        -2.2022880663204836
                    ]
                ],
                [
                    [
                        -1.446968142330071,
                        -2.1735559024014472
                    ]
                ],
                [
                    [
                        -1.3569596356591855,
                        -2.3493498581313332
                    ]
                ]
            ],
            "training_score": [
                0.6578616352201258,
                0.6465408805031446,
                0.6628930817610063,
                0.6477987421383647,
                0.6490566037735849,
                0.6591194968553459,
                0.6415094339622641,
                0.6452830188679245,
                0.6490566037735849,
                0.6465408805031446
            ],
            "test_score": 0.6498993963782697,
            "mean_training": 0.650566037735849,
            "std_val": 0.006579470103457619,
            "confusion_matrix": [
                358,
                155,
                193,
                288
            ],
            "log_loss": 0.5897555394998348
        }
    ]
}