{
    "results": [
        {
            "type": "all metrics, l1, full phoneme, using sgd, alpha= 0.001, shuffle=True, random_state= 42, 10-fold",
            "cross_val": true,
            "log_weights": [
                [
                    [
                        -1.7580036141815707,
                        -7.163106735387986,
                        11.496700966353863,
                        0.0,
                        0.0
                    ]
                ],
                [
                    [
                        -1.9368201701356247,
                        -7.576817410661446,
                        10.921259282063433,
                        0.0,
                        0.0
                    ]
                ],
                [
                    [
                        -1.8564685437403579,
                        -7.336476031330592,
                        11.289235728815708,
                        0.0,
                        0.0
                    ]
                ],
                [
                    [
                        -1.7901823622360846,
                        -7.485345088153828,
                        11.1750142824887,
                        0.0,
                        0.0
                    ]
                ],
                [
                    [
                        -1.656392026610197,
                        -7.257856475294678,
                        11.523509431031487,
                        0.0,
                        0.0
                    ]
                ],
                [
                    [
                        -1.6844232013558416,
                        -7.6872139255434435,
                        11.098430618201899,
                        0.0,
                        0.0
                    ]
                ],
                [
                    [
                        -1.853103271753468,
                        -7.2965574685582615,
                        11.430511157639597,
                        0.0,
                        0.0
                    ]
                ],
                [
                    [
                        -1.755213188259158,
                        -7.457116569294788,
                        11.266668817502461,
                        0.0,
                        0.0
                    ]
                ],
                [
                    [
                        -1.8987712780475727,
                        -7.180354235992411,
                        11.304212506181015,
                        0.0,
                        0.0
                    ]
                ],
                [
                    [
                        -1.7505621930454005,
                        -7.509385498631889,
                        11.190282747384243,
                        0.0,
                        0.0
                    ]
                ]
            ],
            "training_score": [
                0.8838418079096045,
                0.8819083490269931,
                0.8810043942247332,
                0.87984934086629,
                0.8797237915881984,
                0.8786942875078468,
                0.877715003138732,
                0.8795480225988701,
                0.8819334588826114,
                0.8826114249843063
            ],
            "test_score": 0.8833088929511259,
            "mean_training": 0.8806829880728186,
            "std_val": 0.0018036778261571239,
            "confusion_matrix": [
                21949,
                3031,
                2778,
                22023
            ],
            "log_loss": 0.27420928622365626
        },
        {
            "type": "all metrics except weighed, l1, full phoneme, using sgd, alpha= 0.001, shuffle=True, random_state= 42, 10-fold",
            "cross_val": true,
            "log_weights": [
                [
                    [
                        -1.7798619873428418,
                        -7.636163972407885,
                        11.102342417138338,
                        0.0
                    ]
                ],
                [
                    [
                        -1.7698981170548282,
                        -7.225950593939613,
                        11.513615265331191,
                        0.0
                    ]
                ],
                [
                    [
                        -1.6677395802451525,
                        -7.516045140110478,
                        11.26176939427699,
                        0.0
                    ]
                ],
                [
                    [
                        -1.674817005776404,
                        -7.462270573121962,
                        11.348132918986455,
                        0.0
                    ]
                ],
                [
                    [
                        -1.771685119362559,
                        -7.488723754117659,
                        11.210583150461435,
                        0.0
                    ]
                ],
                [
                    [
                        -1.8373869353216692,
                        -7.533027764929749,
                        11.052133279713079,
                        0.0
                    ]
                ],
                [
                    [
                        -1.5648447042705804,
                        -7.347094599942553,
                        11.541614710763243,
                        0.0
                    ]
                ],
                [
                    [
                        -1.7925454283956503,
                        -7.325389259521085,
                        11.234444362129922,
                        0.0
                    ]
                ],
                [
                    [
                        -1.762156776986251,
                        -7.442864787131558,
                        11.181868570882637,
                        0.0
                    ]
                ],
                [
                    [
                        -1.6967185322200027,
                        -7.701958559021654,
                        11.10996576725012,
                        0.0
                    ]
                ]
            ],
            "training_score": [
                0.8817827997489014,
                0.8806277463904583,
                0.8806026365348399,
                0.8807532956685499,
                0.8812554927809165,
                0.8818832391713748,
                0.8834902699309479,
                0.8861268047708726,
                0.8838166980539862,
                0.8812806026365348
            ],
            "test_score": 0.881400534340411,
            "mean_training": 0.8821619585687384,
            "std_val": 0.0016974132390844498,
            "confusion_matrix": [
                21895,
                3076,
                2828,
                21982
            ],
            "log_loss": 0.2726882267618457
        },
        {
            "type": "all metrics except lcs, l1, full phoneme, using sgd, alpha= 0.001, shuffle=True, random_state= 42, 10-fold",
            "cross_val": true,
            "log_weights": [
                [
                    [
                        -2.0288001392130672,
                        -7.175112736973115,
                        11.248008266947268,
                        0.0
                    ]
                ],
                [
                    [
                        -1.802682211690633,
                        -7.607011212906082,
                        11.025819134316418,
                        0.0
                    ]
                ],
                [
                    [
                        -1.973187778701368,
                        -7.5192370397036985,
                        10.952334932841545,
                        0.0
                    ]
                ],
                [
                    [
                        -2.030257857936939,
                        -7.1799852308312655,
                        11.309883107899234,
                        0.0
                    ]
                ],
                [
                    [
                        -1.931239325902753,
                        -7.409795202277467,
                        11.104318902006252,
                        0.0
                    ]
                ],
                [
                    [
                        -2.0522867680461236,
                        -7.280722052256403,
                        11.119814489161477,
                        0.0
                    ]
                ],
                [
                    [
                        -1.8430645644068013,
                        -7.357730075226786,
                        11.24178014877236,
                        0.0
                    ]
                ],
                [
                    [
                        -1.8888105946752463,
                        -7.589266820098833,
                        10.973295005515942,
                        0.0
                    ]
                ],
                [
                    [
                        -1.926945616392673,
                        -7.566975132668063,
                        10.970493673717618,
                        0.0
                    ]
                ],
                [
                    [
                        -2.0797610269327325,
                        -7.374846593046811,
                        11.043866267118336,
                        0.0
                    ]
                ]
            ],
            "training_score": [
                0.8798242310106716,
                0.8818581293157565,
                0.8805524168236033,
                0.8785687382297552,
                0.8814563716258631,
                0.8815065913370999,
                0.8824858757062147,
                0.8795229127432517,
                0.880527306967985,
                0.8812554927809165
            ],
            "test_score": 0.8804563990277415,
            "mean_training": 0.8807558066541118,
            "std_val": 0.0011303591339929967,
            "confusion_matrix": [
                21885,
                3130,
                2821,
                21945
            ],
            "log_loss": 0.2746110305369132
        },
        {
            "type": "all metrics except jaccard, l1, full phoneme, using sgd, alpha= 0.001, shuffle=True, random_state= 42, 10-fold",
            "cross_val": true,
            "log_weights": [
                [
                    [
                        -2.2873572124528856,
                        -16.538749431045744,
                        0.0,
                        0.17183487971278502
                    ]
                ],
                [
                    [
                        -2.520372866967593,
                        -16.06827623979715,
                        0.0,
                        0.45626094064599926
                    ]
                ],
                [
                    [
                        -2.24504505983049,
                        -16.737994667760972,
                        0.0,
                        0.1213431368399335
                    ]
                ],
                [
                    [
                        -2.3574451920627864,
                        -16.16839640512839,
                        0.0,
                        0.49051627710105483
                    ]
                ],
                [
                    [
                        -2.1606898849198974,
                        -16.478054437033673,
                        0.0,
                        0.23973041346833462
                    ]
                ],
                [
                    [
                        -2.2747398667463714,
                        -16.237384629266636,
                        0.0,
                        0.4931621737723468
                    ]
                ],
                [
                    [
                        -2.095133051973645,
                        -16.54749853695448,
                        0.0,
                        0.11873497817690745
                    ]
                ],
                [
                    [
                        -2.672442535361995,
                        -15.888906871088155,
                        0.0,
                        0.5003372353732094
                    ]
                ],
                [
                    [
                        -2.50506102240543,
                        -16.062242382769536,
                        0.0,
                        0.42507593755430234
                    ]
                ],
                [
                    [
                        -2.393570775777164,
                        -16.031855580681913,
                        0.0,
                        0.49330957939510134
                    ]
                ]
            ],
            "training_score": [
                0.8841431261770245,
                0.88030131826742,
                0.8812806026365348,
                0.8835404896421846,
                0.8829378531073446,
                0.8777652228499686,
                0.882812303829253,
                0.8810043942247332,
                0.8858003766478343,
                0.8814563716258631
            ],
            "test_score": 0.8827866053313513,
            "mean_training": 0.8821042059008161,
            "std_val": 0.0021322038001222354,
            "confusion_matrix": [
                21673,
                3195,
                2640,
                22273
            ],
            "log_loss": 0.27546355251705024
        },
        {
            "type": "all metrics except hamming, l1, full phoneme, using sgd, alpha= 0.001, shuffle=True, random_state= 42, 10-fold",
            "cross_val": true,
            "log_weights": [
                [
                    [
                        -3.172292261951742,
                        17.21152550539533,
                        0.0,
                        0.0
                    ]
                ],
                [
                    [
                        -3.3273357975530606,
                        17.07938031687491,
                        0.0,
                        0.0
                    ]
                ],
                [
                    [
                        -3.5262429842971574,
                        16.746075375385864,
                        0.0,
                        0.0
                    ]
                ],
                [
                    [
                        -3.1842909344766435,
                        17.244403468159597,
                        0.0,
                        0.0
                    ]
                ],
                [
                    [
                        -3.087581184245214,
                        17.38668929334086,
                        0.0,
                        0.0
                    ]
                ],
                [
                    [
                        -3.5593879009211107,
                        16.729704147513146,
                        0.0,
                        0.0
                    ]
                ],
                [
                    [
                        -3.3311284248907755,
                        17.18844551403417,
                        0.0,
                        0.0
                    ]
                ],
                [
                    [
                        -3.379048674396227,
                        16.888888376216848,
                        0.0,
                        0.0
                    ]
                ],
                [
                    [
                        -3.0614613487372755,
                        17.459408003592984,
                        0.0,
                        0.0
                    ]
                ],
                [
                    [
                        -3.4133200210527868,
                        16.92466089647916,
                        0.0,
                        0.0
                    ]
                ]
            ],
            "training_score": [
                0.8803515379786566,
                0.8813559322033898,
                0.8795480225988701,
                0.8819334588826114,
                0.8823101067168864,
                0.8805524168236033,
                0.8788449466415568,
                0.8842937853107344,
                0.880075329566855,
                0.8818581293157565
            ],
            "test_score": 0.8801149032763504,
            "mean_training": 0.881112366603892,
            "std_val": 0.0014967264393206702,
            "confusion_matrix": [
                21806,
                3123,
                2845,
                22007
            ],
            "log_loss": 0.2792356285313518
        },
        {
            "type": "all metrics except edit, l1, full phoneme, using sgd, alpha= 0.001, shuffle=True, random_state= 42, 10-fold",
            "cross_val": true,
            "log_weights": [
                [
                    [
                        -8.593798651736426,
                        11.565698601347341,
                        0.0,
                        0.0
                    ]
                ],
                [
                    [
                        -8.888004032364767,
                        11.256537632149232,
                        0.0,
                        0.0
                    ]
                ],
                [
                    [
                        -8.616672293045216,
                        11.51005486333327,
                        0.0,
                        0.0
                    ]
                ],
                [
                    [
                        -8.561081298073788,
                        11.551214357852476,
                        0.0,
                        0.0
                    ]
                ],
                [
                    [
                        -8.856431489844702,
                        11.338680866301685,
                        0.0,
                        0.0
                    ]
                ],
                [
                    [
                        -8.405215284434233,
                        11.763213477134743,
                        0.0,
                        0.0
                    ]
                ],
                [
                    [
                        -8.350857234030983,
                        11.826825134098842,
                        0.0,
                        0.0
                    ]
                ],
                [
                    [
                        -8.438099665417099,
                        11.722375268155005,
                        0.0,
                        0.0
                    ]
                ],
                [
                    [
                        -8.311072400293636,
                        11.855804328789528,
                        0.0,
                        0.0
                    ]
                ],
                [
                    [
                        -8.189098073897926,
                        11.90265330148729,
                        0.0,
                        0.0
                    ]
                ]
            ],
            "training_score": [
                0.8765348399246704,
                0.8790709353421218,
                0.877940991839297,
                0.8803766478342749,
                0.8752291274325172,
                0.8792215944758318,
                0.8772128060263653,
                0.8789956057752668,
                0.8785938480853736,
                0.8798744507219084
            ],
            "test_score": 0.8780659287680038,
            "mean_training": 0.8783050847457627,
            "std_val": 0.0015053876756973607,
            "confusion_matrix": [
                21993,
                2911,
                3159,
                21718
            ],
            "log_loss": 0.27375384613347725
        },
        {
            "type": "all metrics except edit and jaccard, l1, full phoneme, using sgd, alpha= 0.001, shuffle=True, random_state= 42, 10-fold",
            "cross_val": true,
            "log_weights": [
                [
                    [
                        -8.96371479453559,
                        3.0146070387365205,
                        3.119483479412867
                    ]
                ],
                [
                    [
                        -8.937866694468845,
                        3.007305880180899,
                        3.119184088012681
                    ]
                ],
                [
                    [
                        -8.903613520417416,
                        3.0201518509407643,
                        3.1856970513800493
                    ]
                ],
                [
                    [
                        -8.960276823644588,
                        2.9979052800969175,
                        3.1598215849576965
                    ]
                ],
                [
                    [
                        -8.970106293071689,
                        2.9749782055131964,
                        3.140123379672185
                    ]
                ],
                [
                    [
                        -8.951185936409962,
                        3.042495083054026,
                        3.128120808012358
                    ]
                ],
                [
                    [
                        -8.959947739278753,
                        3.017263351069094,
                        3.127557111444865
                    ]
                ],
                [
                    [
                        -8.952764955435958,
                        3.005545636329385,
                        3.146259178263326
                    ]
                ],
                [
                    [
                        -8.944273394477756,
                        3.00117837458068,
                        3.160972727803618
                    ]
                ],
                [
                    [
                        -8.961552727878757,
                        3.0262078321118158,
                        3.1328915210404915
                    ]
                ]
            ],
            "training_score": [
                0.8691776522284996,
                0.8793220338983051,
                0.8776647834274953,
                0.8702573760200879,
                0.8706089139987445,
                0.8761833019460138,
                0.8712617702448211,
                0.8700816070307595,
                0.871864406779661,
                0.872241054613936
            ],
            "test_score": 0.8727827886141298,
            "mean_training": 0.8728662900188324,
            "std_val": 0.0033606040534151344,
            "confusion_matrix": [
                22291,
                2651,
                3682,
                21157
            ],
            "log_loss": 0.3157023956184134
        },
        {
            "type": "all metrics except hamming and jaccard, l1, full phoneme, using sgd, alpha= 0.001, shuffle=True, random_state= 42, 10-fold",
            "cross_val": true,
            "log_weights": [
                [
                    [
                        -6.444906653036095,
                        3.1006564830238084,
                        5.205637195590639
                    ]
                ],
                [
                    [
                        -6.452259667661497,
                        3.1502921497031284,
                        5.205373691323407
                    ]
                ],
                [
                    [
                        -6.474500082770011,
                        3.1264141775600875,
                        5.167915898314452
                    ]
                ],
                [
                    [
                        -6.4626422374513695,
                        3.107880108338838,
                        5.23516862168057
                    ]
                ],
                [
                    [
                        -6.449491684383876,
                        3.112371914704602,
                        5.177747106856968
                    ]
                ],
                [
                    [
                        -6.492113790385432,
                        3.1145920590647416,
                        5.177450823725367
                    ]
                ],
                [
                    [
                        -6.473949992414514,
                        3.139416192412795,
                        5.191889796450073
                    ]
                ],
                [
                    [
                        -6.476512604378128,
                        3.1186344363495806,
                        5.198459023009679
                    ]
                ],
                [
                    [
                        -6.474678178900677,
                        3.1153351767226245,
                        5.209214811337431
                    ]
                ],
                [
                    [
                        -6.459920823741678,
                        3.1154618585560248,
                        5.20669082435455
                    ]
                ]
            ],
            "training_score": [
                0.8555430006277464,
                0.8528060263653484,
                0.848286252354049,
                0.8546641556811049,
                0.8578782172002511,
                0.8488888888888889,
                0.8488637790332706,
                0.8468549905838041,
                0.8490144381669805,
                0.8536095417451349
            ],
            "test_score": 0.8552459773809284,
            "mean_training": 0.8516409290646578,
            "std_val": 0.0035333626673009796,
            "confusion_matrix": [
                22077,
                2891,
                4315,
                20498
            ],
            "log_loss": 0.3569951170304724
        },
        {
            "type": "all metrics except edit, hamming and jaccard, l1, full phoneme, using sgd, alpha= 0.001, shuffle=True, random_state= 42, 10-fold",
            "cross_val": true,
            "log_weights": [
                [
                    [
                        6.261722277733526,
                        6.7618723561172365
                    ]
                ],
                [
                    [
                        6.278791655673358,
                        6.757795145714569
                    ]
                ],
                [
                    [
                        6.2738973492744625,
                        6.7813123576679635
                    ]
                ],
                [
                    [
                        6.245799764338748,
                        6.77103521043429
                    ]
                ],
                [
                    [
                        6.267570593156836,
                        6.767958318553135
                    ]
                ],
                [
                    [
                        6.293047924521061,
                        6.764188463861517
                    ]
                ],
                [
                    [
                        6.278944404783391,
                        6.764905474831263
                    ]
                ],
                [
                    [
                        6.2601650237418465,
                        6.800999097495802
                    ]
                ],
                [
                    [
                        6.281397262465878,
                        6.746371561557324
                    ]
                ],
                [
                    [
                        6.276325438183215,
                        6.764685390567332
                    ]
                ]
            ],
            "training_score": [
                0.8294789704959197,
                0.8310106716886377,
                0.8263402385436284,
                0.8277966101694916,
                0.8281732580037665,
                0.8280728185812931,
                0.8278468298807282,
                0.8268926553672317,
                0.8272944130571249,
                0.8286001255492781
            ],
            "test_score": 0.8272232377814829,
            "mean_training": 0.8281506591337099,
            "std_val": 0.0012634749394323486,
            "confusion_matrix": [
                22054,
                2884,
                5717,
                19126
            ],
            "log_loss": 0.4057475680339811
        },
        {
            "type": "all metrics except lcs and weighed, l1, full phoneme, using sgd, alpha= 0.001, shuffle=True, random_state= 42, 10-fold",
            "cross_val": true,
            "log_weights": [
                [
                    [
                        -3.711472772423814,
                        -6.125444959369247,
                        5.762682440212165
                    ]
                ],
                [
                    [
                        -3.712665512039866,
                        -6.105191141152817,
                        5.742558626173957
                    ]
                ],
                [
                    [
                        -3.673569424889435,
                        -6.091656507768466,
                        5.739667320247213
                    ]
                ],
                [
                    [
                        -3.67753764832253,
                        -6.120493689175017,
                        5.761839127135846
                    ]
                ],
                [
                    [
                        -3.7074803028620806,
                        -6.108359930382335,
                        5.7528651554333425
                    ]
                ],
                [
                    [
                        -3.6910372876684305,
                        -6.105331799939647,
                        5.753890941259074
                    ]
                ],
                [
                    [
                        -3.6900907571471517,
                        -6.090700575690161,
                        5.7445502077359825
                    ]
                ],
                [
                    [
                        -3.701188835959017,
                        -6.091113780582047,
                        5.7469114685180696
                    ]
                ],
                [
                    [
                        -3.705658510849813,
                        -6.093273471755821,
                        5.736344547820285
                    ]
                ],
                [
                    [
                        -3.7011490479832605,
                        -6.116102689249803,
                        5.76325562573216
                    ]
                ]
            ],
            "training_score": [
                0.8766101694915254,
                0.8807030759573132,
                0.8810295040803515,
                0.8766352793471438,
                0.8796484620213434,
                0.88,
                0.8805775266792216,
                0.8782925298179536,
                0.8792969240426868,
                0.8797237915881984
            ],
            "test_score": 0.8795524396858239,
            "mean_training": 0.8792517263025739,
            "std_val": 0.0015070014089338377,
            "confusion_matrix": [
                22391,
                2516,
                3480,
                21394
            ],
            "log_loss": 0.2914687101141174
        },
        {
            "type": "all metrics except edit, lcs, and weighed, l1, full phoneme, using sgd, alpha= 0.001, shuffle=True, random_state= 42, 10-fold",
            "cross_val": true,
            "log_weights": [
                [
                    [
                        -7.2949644093955595,
                        6.837568730778031
                    ]
                ],
                [
                    [
                        -7.275180931596295,
                        6.824528875156526
                    ]
                ],
                [
                    [
                        -7.263233242459943,
                        6.81990580723996
                    ]
                ],
                [
                    [
                        -7.248620186578653,
                        6.826797456656834
                    ]
                ],
                [
                    [
                        -7.269517566621177,
                        6.822341753908975
                    ]
                ],
                [
                    [
                        -7.264783141581938,
                        6.831291728534877
                    ]
                ],
                [
                    [
                        -7.283810986052353,
                        6.84936102201995
                    ]
                ],
                [
                    [
                        -7.302023896590555,
                        6.8149012075870985
                    ]
                ],
                [
                    [
                        -7.303676263422856,
                        6.816129618387367
                    ]
                ],
                [
                    [
                        -7.281209755532756,
                        6.816268336233815
                    ]
                ]
            ],
            "training_score": [
                0.877338355304457,
                0.8801004394224733,
                0.8794978028876334,
                0.879472693032015,
                0.8780665411173886,
                0.8777652228499686,
                0.8773634651600754,
                0.8795480225988701,
                0.8806779661016949,
                0.8808035153797865
            ],
            "test_score": 0.8785279524316506,
            "mean_training": 0.8790634023854362,
            "std_val": 0.0012588054226094704,
            "confusion_matrix": [
                21887,
                2975,
                3072,
                21847
            ],
            "log_loss": 0.2971298598457496
        },
        {
            "type": "all metrics except hamming, lcs, and weighed, l1, full phoneme, using sgd, alpha= 0.001, shuffle=True, random_state= 42, 10-fold",
            "cross_val": true,
            "log_weights": [
                [
                    [
                        -5.101921796850722,
                        8.695826925186529
                    ]
                ],
                [
                    [
                        -5.08792564887001,
                        8.718165355253674
                    ]
                ],
                [
                    [
                        -5.122531749857182,
                        8.701895899548976
                    ]
                ],
                [
                    [
                        -5.089037721107163,
                        8.718158288730743
                    ]
                ],
                [
                    [
                        -5.066537910822736,
                        8.73615004194669
                    ]
                ],
                [
                    [
                        -5.069892444441139,
                        8.721826929816881
                    ]
                ],
                [
                    [
                        -5.1094626789182955,
                        8.713875364471203
                    ]
                ],
                [
                    [
                        -5.097695467889828,
                        8.701355330970348
                    ]
                ],
                [
                    [
                        -5.078995796636703,
                        8.707223572583773
                    ]
                ],
                [
                    [
                        -5.07952626181262,
                        8.725260432253839
                    ]
                ]
            ],
            "training_score": [
                0.8803264281230383,
                0.877639673571877,
                0.8767608286252354,
                0.8763088512241055,
                0.8783427495291902,
                0.8806026365348399,
                0.8770119271814187,
                0.8789453860640302,
                0.8793722536095417,
                0.8781167608286252
            ],
            "test_score": 0.8726823486872501,
            "mean_training": 0.8783427495291901,
            "std_val": 0.0013935856760256434,
            "confusion_matrix": [
                22216,
                2677,
                3661,
                21227
            ],
            "log_loss": 0.3146597980757493
        },
        {
            "type": "all metrics except jaccard, lcs, and weighed, l1, full phoneme, using sgd, alpha= 0.001, shuffle=True, random_state= 42, 10-fold",
            "cross_val": true,
            "log_weights": [
                [
                    [
                        -4.85138003610285,
                        -8.829240698944913
                    ]
                ],
                [
                    [
                        -4.838448589192267,
                        -8.826170971425606
                    ]
                ],
                [
                    [
                        -4.834147270312559,
                        -8.813387614977259
                    ]
                ],
                [
                    [
                        -4.8967777353931154,
                        -8.821935734183157
                    ]
                ],
                [
                    [
                        -4.855559494225216,
                        -8.830328681657294
                    ]
                ],
                [
                    [
                        -4.844284806141557,
                        -8.835622290566356
                    ]
                ],
                [
                    [
                        -4.845585192267531,
                        -8.814158103055817
                    ]
                ],
                [
                    [
                        -4.829861697779524,
                        -8.80149607029342
                    ]
                ],
                [
                    [
                        -4.840783603561436,
                        -8.828748558252133
                    ]
                ],
                [
                    [
                        -4.850512828649505,
                        -8.799613609675431
                    ]
                ]
            ],
            "training_score": [
                0.8770621468926554,
                0.8777401129943503,
                0.8777401129943503,
                0.8761833019460138,
                0.8761330822347771,
                0.875128688010044,
                0.8774639045825486,
                0.8784431889516635,
                0.8763841807909605,
                0.8786189579409919
            ],
            "test_score": 0.8789899760952974,
            "mean_training": 0.8770897677338356,
            "std_val": 0.0010600672090170698,
            "confusion_matrix": [
                22268,
                2689,
                3335,
                21489
            ],
            "log_loss": 0.30797568490413135
        },
        {
            "type": "weighed, l1, full phoneme, using sgd, alpha= 0.001, shuffle=True, random_state= 42, 10-fold",
            "cross_val": true,
            "log_weights": [
                [
                    [
                        9.149321122190967
                    ]
                ],
                [
                    [
                        9.186983180495771
                    ]
                ],
                [
                    [
                        9.172318586006616
                    ]
                ],
                [
                    [
                        9.140663890981122
                    ]
                ],
                [
                    [
                        9.1690497508308
                    ]
                ],
                [
                    [
                        9.14045688544139
                    ]
                ],
                [
                    [
                        9.172695132356074
                    ]
                ],
                [
                    [
                        9.164490745478995
                    ]
                ],
                [
                    [
                        9.171394448737773
                    ]
                ],
                [
                    [
                        9.184816790315622
                    ]
                ]
            ],
            "training_score": [
                0.8044695543000627,
                0.7986691776522284,
                0.802812303829253,
                0.8055994978028876,
                0.802962962962963,
                0.8023101067168864,
                0.8015317011927181,
                0.804494664155681,
                0.8023352165725047,
                0.8028374136848713
            ],
            "test_score": 0.8040216146722645,
            "mean_training": 0.8028022598870056,
            "std_val": 0.0018070096106808985,
            "confusion_matrix": [
                21211,
                3875,
                5881,
                18814
            ],
            "log_loss": 0.45526875855801147
        },
        {
            "type": "lcs, l1, full phoneme, using sgd, alpha= 0.001, shuffle=True, random_state= 42, 10-fold",
            "cross_val": true,
            "log_weights": [
                [
                    [
                        9.148602078429382
                    ]
                ],
                [
                    [
                        9.131330098089542
                    ]
                ],
                [
                    [
                        9.14266924153456
                    ]
                ],
                [
                    [
                        9.144676053657118
                    ]
                ],
                [
                    [
                        9.132255555398107
                    ]
                ],
                [
                    [
                        9.134847958793532
                    ]
                ],
                [
                    [
                        9.129058085808829
                    ]
                ],
                [
                    [
                        9.137460911687253
                    ]
                ],
                [
                    [
                        9.150588655453001
                    ]
                ],
                [
                    [
                        9.150800502606083
                    ]
                ]
            ],
            "training_score": [
                0.7907344632768362,
                0.792617702448211,
                0.7901318267419962,
                0.7909102322661644,
                0.7927432517263026,
                0.7916635279347144,
                0.7924921531701192,
                0.7900313873195229,
                0.7908600125549278,
                0.7910106716886378
            ],
            "test_score": 0.7931540145838774,
            "mean_training": 0.7913195229127432,
            "std_val": 0.0009535168050729428,
            "confusion_matrix": [
                21444,
                3461,
                6836,
                18040
            ],
            "log_loss": 0.47099277900245184
        },
        {
            "type": "edit and lcs, l1, full phoneme, using sgd, alpha= 0.001, shuffle=True, random_state= 42, 10-fold",
            "cross_val": true,
            "log_weights": [
                [
                    [
                        -7.716965603726224,
                        4.320338729953806
                    ]
                ],
                [
                    [
                        -7.7507281413001525,
                        4.294864415980293
                    ]
                ],
                [
                    [
                        -7.711647919732593,
                        4.3203506514688605
                    ]
                ],
                [
                    [
                        -7.732823422493194,
                        4.294801210982704
                    ]
                ],
                [
                    [
                        -7.722425190497507,
                        4.305826849405189
                    ]
                ],
                [
                    [
                        -7.744760736146035,
                        4.295729248271394
                    ]
                ],
                [
                    [
                        -7.731577951992702,
                        4.3020496992413415
                    ]
                ],
                [
                    [
                        -7.7304775566028,
                        4.286236672190017
                    ]
                ],
                [
                    [
                        -7.736544232231114,
                        4.3079592591085945
                    ]
                ],
                [
                    [
                        -7.703868284111444,
                        4.288446719936642
                    ]
                ]
            ],
            "training_score": [
                0.832316384180791,
                0.8330947897049592,
                0.8335467671060891,
                0.8334965473948525,
                0.833923414940364,
                0.8334965473948525,
                0.8345511613308223,
                0.8306591337099811,
                0.832316384180791,
                0.8344758317639673
            ],
            "test_score": 0.8338321849701693,
            "mean_training": 0.8331876961707471,
            "std_val": 0.0011090514707694633,
            "confusion_matrix": [
                21739,
                3290,
                4982,
                19770
            ],
            "log_loss": 0.38950954628764345
        },
        {
            "type": "hamming and weighed, l1, full phoneme, using sgd, alpha= 0.001, shuffle=True, random_state= 42, 10-fold",
            "cross_val": true,
            "log_weights": [
                [
                    [
                        -9.89999499113999,
                        3.4995285505933222
                    ]
                ],
                [
                    [
                        -9.889118394006406,
                        3.467858002326219
                    ]
                ],
                [
                    [
                        -9.885511468549858,
                        3.494323801185711
                    ]
                ],
                [
                    [
                        -9.897364378291847,
                        3.4904964661929423
                    ]
                ],
                [
                    [
                        -9.894374655248726,
                        3.4780718530685855
                    ]
                ],
                [
                    [
                        -9.8713631931224,
                        3.496840462205024
                    ]
                ],
                [
                    [
                        -9.856871924911973,
                        3.507784818784972
                    ]
                ],
                [
                    [
                        -9.878003507755452,
                        3.4970795305431532
                    ]
                ],
                [
                    [
                        -9.876034872590717,
                        3.533797696202392
                    ]
                ],
                [
                    [
                        -9.889253402007647,
                        3.466478483656978
                    ]
                ]
            ],
            "training_score": [
                0.8773634651600754,
                0.8796233521657251,
                0.8772881355932204,
                0.8762335216572504,
                0.8772881355932204,
                0.8793722536095417,
                0.8802762084118017,
                0.8804017576898933,
                0.8792215944758318,
                0.8784682988072818
            ],
            "test_score": 0.8767602097185673,
            "mean_training": 0.878553672316384,
            "std_val": 0.0013657638031477173,
            "confusion_matrix": [
                22279,
                2784,
                3351,
                21367
            ],
            "log_loss": 0.3179151282358112
        },
        {
            "type": "jaccard and lcs, l1, full phoneme, using sgd, alpha= 0.001, shuffle=True, random_state= 42, 10-fold",
            "cross_val": true,
            "log_weights": [
                [
                    [
                        10.08487750196042,
                        3.660542607603021
                    ]
                ],
                [
                    [
                        10.09082847287369,
                        3.6112377972708405
                    ]
                ],
                [
                    [
                        10.07484754087326,
                        3.6255400650843606
                    ]
                ],
                [
                    [
                        10.0635484714156,
                        3.633852424060567
                    ]
                ],
                [
                    [
                        10.064622361310693,
                        3.6464976850703175
                    ]
                ],
                [
                    [
                        10.064212494336298,
                        3.653674802147957
                    ]
                ],
                [
                    [
                        10.069293433233074,
                        3.6389014905327266
                    ]
                ],
                [
                    [
                        10.060946992158968,
                        3.625327298999873
                    ]
                ],
                [
                    [
                        10.067416970292097,
                        3.6441599835744864
                    ]
                ],
                [
                    [
                        10.08213553753859,
                        3.651413781574608
                    ]
                ]
            ],
            "training_score": [
                0.8730947897049592,
                0.8696798493408663,
                0.8729441305712492,
                0.8731450094161959,
                0.8746516007532956,
                0.8735969868173258,
                0.8752542372881356,
                0.8700564971751412,
                0.8734714375392342,
                0.8709604519774011
            ],
            "test_score": 0.8709748699302947,
            "mean_training": 0.8726854990583804,
            "std_val": 0.0017685985586892406,
            "confusion_matrix": [
                22870,
                2149,
                4274,
                20488
            ],
            "log_loss": 0.32239600536807833
        },
        {
            "type": "hamming, l1, full phoneme, using sgd, alpha= 0.001, shuffle=True, random_state= 42, 10-fold",
            "cross_val": true,
            "log_weights": [
                [
                    [
                        -11.41836976493078
                    ]
                ],
                [
                    [
                        -11.415274468570384
                    ]
                ],
                [
                    [
                        -11.439553682703636
                    ]
                ],
                [
                    [
                        -11.427663440876968
                    ]
                ],
                [
                    [
                        -11.434771099901775
                    ]
                ],
                [
                    [
                        -11.418306491488366
                    ]
                ],
                [
                    [
                        -11.404092265455796
                    ]
                ],
                [
                    [
                        -11.421500812241126
                    ]
                ],
                [
                    [
                        -11.42353624998279
                    ]
                ],
                [
                    [
                        -11.435077372275959
                    ]
                ]
            ],
            "training_score": [
                0.8726177024482109,
                0.8764092906465788,
                0.8728185812931576,
                0.8737476459510358,
                0.8727934714375393,
                0.87969868173258,
                0.8826365348399247,
                0.8758819836785938,
                0.8784934086629002,
                0.874300062774639
            ],
            "test_score": 0.8745907072979651,
            "mean_training": 0.875939736346516,
            "std_val": 0.0032232302132779544,
            "confusion_matrix": [
                22782,
                2175,
                4068,
                20756
            ],
            "log_loss": 0.32033788771758376
        },
        {
            "type": "edit, l1, full phoneme, using sgd, alpha= 0.001, shuffle=True, random_state= 42, 10-fold",
            "cross_val": true,
            "log_weights": [
                [
                    [
                        -9.586444056939786
                    ]
                ],
                [
                    [
                        -9.59790828820723
                    ]
                ],
                [
                    [
                        -9.547073470112144
                    ]
                ],
                [
                    [
                        -9.571833568220487
                    ]
                ],
                [
                    [
                        -9.588545266467719
                    ]
                ],
                [
                    [
                        -9.585977103289679
                    ]
                ],
                [
                    [
                        -9.563626795116258
                    ]
                ],
                [
                    [
                        -9.604695075682134
                    ]
                ],
                [
                    [
                        -9.584051552819657
                    ]
                ],
                [
                    [
                        -9.579476326493118
                    ]
                ]
            ],
            "training_score": [
                0.8364092906465788,
                0.8351286880100439,
                0.8365348399246705,
                0.8368863779033271,
                0.834450721908349,
                0.834149403640929,
                0.8353546767106089,
                0.8322159447583176,
                0.8358317639673571,
                0.834224733207784
            ],
            "test_score": 0.8325465539061088,
            "mean_training": 0.8351186440677966,
            "std_val": 0.001340555907565217,
            "confusion_matrix": [
                21082,
                3682,
                4654,
                20363
            ],
            "log_loss": 0.4002730966661607
        },
        {
            "type": "jaccard, l1, full phoneme, using sgd, alpha= 0.001, shuffle=True, random_state= 42, 10-fold",
            "cross_val": true,
            "log_weights": [
                [
                    [
                        11.425849432696625
                    ]
                ],
                [
                    [
                        11.425051315929956
                    ]
                ],
                [
                    [
                        11.419509162425054
                    ]
                ],
                [
                    [
                        11.414102044989288
                    ]
                ],
                [
                    [
                        11.450241680452693
                    ]
                ],
                [
                    [
                        11.43706367413029
                    ]
                ],
                [
                    [
                        11.419906608259101
                    ]
                ],
                [
                    [
                        11.424115324001948
                    ]
                ],
                [
                    [
                        11.41673658873165
                    ]
                ],
                [
                    [
                        11.412439959876084
                    ]
                ]
            ],
            "training_score": [
                0.8766603892027621,
                0.8754551161330822,
                0.8755555555555555,
                0.8770370370370371,
                0.8738731952291274,
                0.8760577526679222,
                0.8753295668549906,
                0.8743251726302573,
                0.8758819836785938,
                0.8767357187696171
            ],
            "test_score": 0.8785681284024025,
            "mean_training": 0.8756911487758945,
            "std_val": 0.000968941144039807,
            "confusion_matrix": [
                22128,
                2904,
                3141,
                21608
            ],
            "log_loss": 0.32459090734000007
        },
        {
            "type": "all metrics, l1, half phoneme, using sgd, alpha= 0.001, shuffle=True, random_state= 42, 10-fold",
            "cross_val": true,
            "log_weights": [
                [
                    [
                        0.0,
                        -7.401379098472151,
                        9.68538809115176,
                        0.0,
                        -1.0131045877800433
                    ]
                ],
                [
                    [
                        -0.11983910630125706,
                        -7.418194551556334,
                        9.606003461438736,
                        0.0,
                        -1.0337430767638351
                    ]
                ],
                [
                    [
                        -0.16608377085874118,
                        -7.200895820554384,
                        9.562091367945923,
                        0.0,
                        -0.8744132196405684
                    ]
                ],
                [
                    [
                        -0.14187307411182992,
                        -7.175999692397893,
                        9.829043395729999,
                        0.0,
                        -1.0020894222276446
                    ]
                ],
                [
                    [
                        0.0,
                        -7.413175666167905,
                        9.67795378406931,
                        0.0,
                        -0.9835966641216392
                    ]
                ],
                [
                    [
                        -0.013066798262654531,
                        -7.619211772814366,
                        9.611759073378169,
                        0.0,
                        -1.0631138564579845
                    ]
                ],
                [
                    [
                        -0.05593227140939029,
                        -7.558538929275979,
                        9.490902764603925,
                        0.0,
                        -1.0649610142266406
                    ]
                ],
                [
                    [
                        0.0,
                        -7.494304312312709,
                        9.710936484422863,
                        0.0,
                        -1.0341606458547863
                    ]
                ],
                [
                    [
                        -0.10781726940579821,
                        -7.33586797651006,
                        9.568995271873765,
                        0.0,
                        -0.9994105019350328
                    ]
                ],
                [
                    [
                        -0.13471528817048412,
                        -7.407720356614528,
                        9.54089510383548,
                        0.0,
                        -1.0370477873656505
                    ]
                ]
            ],
            "training_score": [
                0.898480853735091,
                0.8985059635907093,
                0.8995354676710609,
                0.896120527306968,
                0.8968989328311362,
                0.8979033270558694,
                0.9019962335216573,
                0.8977024482109228,
                0.900841180163214,
                0.8997363465160075
            ],
            "test_score": 0.8991382254273719,
            "mean_training": 0.8987721280602636,
            "std_val": 0.0016965493970617126,
            "confusion_matrix": [
                22212,
                2872,
                2149,
                22548
            ],
            "log_loss": 0.2528361244608398
        },
        {
            "type": "all metrics except weighed, l1, half phoneme, using sgd, alpha= 0.001, shuffle=True, random_state= 42, 10-fold",
            "cross_val": true,
            "log_weights": [
                [
                    [
                        -0.08149611853318953,
                        -7.160534990809172,
                        9.039868734316984,
                        0.0
                    ]
                ],
                [
                    [
                        0.0,
                        -7.187388582438141,
                        9.172194112289564,
                        0.0
                    ]
                ],
                [
                    [
                        0.0,
                        -6.997891119844685,
                        9.25472681491093,
                        0.0
                    ]
                ],
                [
                    [
                        -0.1333330476959589,
                        -7.079776697608418,
                        9.08474664186186,
                        0.0
                    ]
                ],
                [
                    [
                        0.0,
                        -7.340936900897432,
                        8.987789809291893,
                        0.0
                    ]
                ],
                [
                    [
                        0.0,
                        -7.13122516441355,
                        9.153602957244848,
                        0.0
                    ]
                ],
                [
                    [
                        -0.033555465809807394,
                        -7.17308484847995,
                        9.105501498538349,
                        0.0
                    ]
                ],
                [
                    [
                        0.0,
                        -7.109796438003945,
                        9.175426681784355,
                        0.0
                    ]
                ],
                [
                    [
                        0.0,
                        -7.041026490610683,
                        9.319799006675622,
                        0.0
                    ]
                ],
                [
                    [
                        0.0,
                        -7.16466616648888,
                        9.180251138267824,
                        0.0
                    ]
                ]
            ],
            "training_score": [
                0.8989077212806026,
                0.8976271186440677,
                0.8995856873822976,
                0.8981544256120527,
                0.8978531073446328,
                0.899008160703076,
                0.8967733835530446,
                0.8974764595103578,
                0.8970747018204646,
                0.8980037664783428
            ],
            "test_score": 0.897189690845905,
            "mean_training": 0.898046453232894,
            "std_val": 0.0008457251361706069,
            "confusion_matrix": [
                21966,
                3009,
                2109,
                22697
            ],
            "log_loss": 0.2554419940656879
        },
        {
            "type": "all metrics except lcs, l1, half phoneme, using sgd, alpha= 0.001, shuffle=True, random_state= 42, 10-fold",
            "cross_val": true,
            "log_weights": [
                [
                    [
                        -0.13109824235033601,
                        -7.235605493676654,
                        9.682968006571556,
                        -1.0071846779025904
                    ]
                ],
                [
                    [
                        -0.4753683179114708,
                        -7.0564777242747985,
                        9.56208589376541,
                        -1.0186063064618829
                    ]
                ],
                [
                    [
                        -0.251895184531618,
                        -7.486201983719148,
                        9.334892861932998,
                        -0.9860956736514324
                    ]
                ],
                [
                    [
                        -0.24320416609520537,
                        -7.379209786254891,
                        9.513654935129708,
                        -1.0348622993123873
                    ]
                ],
                [
                    [
                        -0.25141779511322837,
                        -7.32458656232005,
                        9.50370063733437,
                        -0.9893007649041681
                    ]
                ],
                [
                    [
                        -0.18966999594045406,
                        -7.263539685383221,
                        9.625375260220107,
                        -1.0166462810814878
                    ]
                ],
                [
                    [
                        -0.16536343304967127,
                        -7.184932407309423,
                        9.708524001659333,
                        -1.0043937322255359
                    ]
                ],
                [
                    [
                        -0.3253788090942376,
                        -7.035226374710394,
                        9.741278234379841,
                        -1.010194485433159
                    ]
                ],
                [
                    [
                        -0.25783800719706695,
                        -7.063132142092634,
                        9.781975397150624,
                        -0.9616207217812986
                    ]
                ],
                [
                    [
                        -0.2906219152501176,
                        -7.403196216742285,
                        9.331464396626345,
                        -1.0195473807683915
                    ]
                ]
            ],
            "training_score": [
                0.9000627746390458,
                0.8980037664783428,
                0.9000627746390458,
                0.8988323917137476,
                0.8964720652856246,
                0.8995354676710609,
                0.8994601381042059,
                0.9007156308851224,
                0.8983050847457628,
                0.9008662900188323
            ],
            "test_score": 0.9005644723890641,
            "mean_training": 0.8992316384180791,
            "std_val": 0.0012861271969590907,
            "confusion_matrix": [
                22276,
                2812,
                2138,
                22555
            ],
            "log_loss": 0.24852150359609673
        },
        {
            "type": "all metrics except jaccard, l1, half phoneme, using sgd, alpha= 0.001, shuffle=True, random_state= 42, 10-fold",
            "cross_val": true,
            "log_weights": [
                [
                    [
                        -0.06091157413326207,
                        -15.431744663114813,
                        0.2712019548339501,
                        0.0
                    ]
                ],
                [
                    [
                        0.0,
                        -15.502540906913197,
                        0.16538360850636893,
                        0.0
                    ]
                ],
                [
                    [
                        0.0,
                        -15.081283993271104,
                        0.5931619737887048,
                        0.0
                    ]
                ],
                [
                    [
                        0.0,
                        -15.42709692014088,
                        0.2306936503843914,
                        0.0
                    ]
                ],
                [
                    [
                        0.0,
                        -15.522225774248657,
                        0.16287134093269512,
                        -0.17693844807850945
                    ]
                ],
                [
                    [
                        -0.15095547867052764,
                        -15.395888398061288,
                        0.13454787227358755,
                        0.0
                    ]
                ],
                [
                    [
                        -0.006845045095882484,
                        -15.488927494807967,
                        0.21854685750544156,
                        0.0
                    ]
                ],
                [
                    [
                        0.0,
                        -15.587405864759697,
                        0.08733398968784452,
                        0.0
                    ]
                ],
                [
                    [
                        0.0,
                        -15.269246181686121,
                        0.4302841140372434,
                        0.0
                    ]
                ],
                [
                    [
                        0.0,
                        -15.49338922337059,
                        0.1623410570858484,
                        0.0
                    ]
                ]
            ],
            "training_score": [
                0.8898179535467671,
                0.9008160703075957,
                0.8907470182046453,
                0.9025737602008789,
                0.8919271814187069,
                0.8998367859384808,
                0.8914752040175768,
                0.9009165097300691,
                0.8893910860012555,
                0.8913496547394852
            ],
            "test_score": 0.8899781040959402,
            "mean_training": 0.8948851224105463,
            "std_val": 0.005109294780212017,
            "confusion_matrix": [
                22521,
                2450,
                3027,
                21783
            ],
            "log_loss": 0.2528325369228705
        },
        {
            "type": "all metrics except hamming, l1, half phoneme, using sgd, alpha= 0.001, shuffle=True, random_state= 42, 10-fold",
            "cross_val": true,
            "log_weights": [
                [
                    [
                        -1.213789313715457,
                        15.601615203347034,
                        0.0,
                        -0.8166061157873484
                    ]
                ],
                [
                    [
                        -1.2624449953313879,
                        15.550428033059076,
                        0.0,
                        -0.851807241778637
                    ]
                ],
                [
                    [
                        -1.2510456085619073,
                        15.115386353119762,
                        0.0,
                        -0.5103853934112033
                    ]
                ],
                [
                    [
                        -1.4467670299436757,
                        15.266740740613166,
                        0.0,
                        -0.755378988832725
                    ]
                ],
                [
                    [
                        -1.0439157874784346,
                        15.178424919479585,
                        0.0,
                        -0.23585461132069807
                    ]
                ],
                [
                    [
                        -1.4950959534919326,
                        15.240792858017254,
                        0.0,
                        -0.8250188558549063
                    ]
                ],
                [
                    [
                        -1.1745109033433074,
                        15.05718326796457,
                        0.0,
                        -0.2531703859502606
                    ]
                ],
                [
                    [
                        -1.2604307484949728,
                        14.956575152619818,
                        0.0,
                        -0.46166315657560947
                    ]
                ],
                [
                    [
                        -1.192867765924248,
                        14.95301638142901,
                        0.0,
                        0.0
                    ]
                ],
                [
                    [
                        -1.4131367579429288,
                        15.370477940967891,
                        0.0,
                        -0.7199770613546544
                    ]
                ]
            ],
            "training_score": [
                0.8992843691148776,
                0.9004143126177024,
                0.8980539861895794,
                0.8994099183929692,
                0.8969491525423728,
                0.8988072818581293,
                0.8996107972379159,
                0.9005649717514125,
                0.8968738229755179,
                0.8883364720652857
            ],
            "test_score": 0.8936542054197385,
            "mean_training": 0.8978305084745763,
            "std_val": 0.003387680609077635,
            "confusion_matrix": [
                22389,
                2523,
                2771,
                22098
            ],
            "log_loss": 0.24988126448354034
        },
        {
            "type": "all metrics except edit, l1, half phoneme, using sgd, alpha= 0.001, shuffle=True, random_state= 42, 10-fold",
            "cross_val": true,
            "log_weights": [
                [
                    [
                        -7.178853398728248,
                        9.869849044883992,
                        0.0,
                        -1.0465668629768994
                    ]
                ],
                [
                    [
                        -7.411328116746691,
                        9.68903287933858,
                        0.0,
                        -1.0354487682348459
                    ]
                ],
                [
                    [
                        -7.395694005364567,
                        9.684223170165053,
                        0.0,
                        -1.0775114101597882
                    ]
                ],
                [
                    [
                        -7.353902041018627,
                        9.738485971869796,
                        0.0,
                        -1.0391888973607712
                    ]
                ],
                [
                    [
                        -7.359612427909711,
                        9.712312724090122,
                        0.0,
                        -1.0421302107921233
                    ]
                ],
                [
                    [
                        -7.453639430461521,
                        9.707764246556545,
                        0.0,
                        -1.029215950890906
                    ]
                ],
                [
                    [
                        -7.69499230357087,
                        9.423031512214699,
                        0.0,
                        -1.0907252579251683
                    ]
                ],
                [
                    [
                        -7.453400721983152,
                        9.403315580590506,
                        0.0,
                        -0.903219669859065
                    ]
                ],
                [
                    [
                        -7.460619514558936,
                        9.698337375526515,
                        0.0,
                        -1.088205787414202
                    ]
                ],
                [
                    [
                        -7.386744803630013,
                        9.713838085385593,
                        0.0,
                        -1.0582142331679163
                    ]
                ]
            ],
            "training_score": [
                0.9003892027620841,
                0.9017953546767106,
                0.9002887633396108,
                0.8981042059008161,
                0.8994350282485876,
                0.8970495919648462,
                0.9017200251098556,
                0.8990583804143126,
                0.8982046453232894,
                0.9016446955430006
            ],
            "test_score": 0.8996203370763947,
            "mean_training": 0.8997689893283113,
            "std_val": 0.0015911031944689992,
            "confusion_matrix": [
                22092,
                2791,
                2206,
                22692
            ],
            "log_loss": 0.2510363723236234
        },
        {
            "type": "all metrics except edit and jaccard, l1, half phoneme, using sgd, alpha= 0.001, shuffle=True, random_state= 42, 10-fold",
            "cross_val": true,
            "log_weights": [
                [
                    [
                        -15.71174237991406,
                        0.014984301758580615,
                        0.0
                    ]
                ],
                [
                    [
                        -15.120817262695233,
                        0.5211033262739667,
                        0.0
                    ]
                ],
                [
                    [
                        -15.390001436138569,
                        0.2561960591898057,
                        0.0
                    ]
                ],
                [
                    [
                        -15.37666983529304,
                        0.33788631005473807,
                        0.0
                    ]
                ],
                [
                    [
                        -15.363855089355814,
                        0.33129893471385197,
                        0.0
                    ]
                ],
                [
                    [
                        -15.490185124566421,
                        0.23829186382508089,
                        0.0
                    ]
                ],
                [
                    [
                        -15.360626668136312,
                        0.24353686073715658,
                        0.0
                    ]
                ],
                [
                    [
                        -15.496588000015484,
                        0.21196813858393224,
                        0.0
                    ]
                ],
                [
                    [
                        -15.547655119342146,
                        0.11820044259812486,
                        0.0
                    ]
                ],
                [
                    [
                        -15.042603501500707,
                        0.7149144298878605,
                        0.0
                    ]
                ]
            ],
            "training_score": [
                0.8870558694287508,
                0.8927558066541117,
                0.8924293785310734,
                0.8890646578782172,
                0.8873069679849341,
                0.9003138731952292,
                0.890721908349027,
                0.9001381042059008,
                0.8916007532956686,
                0.8890897677338355
            ],
            "test_score": 0.8905003917157148,
            "mean_training": 0.8920477087256747,
            "std_val": 0.00448809150957151,
            "confusion_matrix": [
                22477,
                2392,
                3059,
                21853
            ],
            "log_loss": 0.2540874483736946
        },
        {
            "type": "all metrics except hamming and jaccard, l1, half phoneme, using sgd, alpha= 0.001, shuffle=True, random_state= 42, 10-fold",
            "cross_val": true,
            "log_weights": [
                [
                    [
                        -6.679743646168603,
                        3.215144536108667,
                        4.593815998449519
                    ]
                ],
                [
                    [
                        -6.809004213876923,
                        3.0173005770969277,
                        4.555456202117748
                    ]
                ],
                [
                    [
                        -6.852620328819336,
                        3.0636440365765236,
                        4.496858399655782
                    ]
                ],
                [
                    [
                        -6.795263428030817,
                        3.054807420248683,
                        4.639131551134602
                    ]
                ],
                [
                    [
                        -6.650613232101382,
                        3.2326764207317007,
                        4.592762295256655
                    ]
                ],
                [
                    [
                        -6.888936089945532,
                        3.0139318068434466,
                        4.590735329299251
                    ]
                ],
                [
                    [
                        -6.457252563529852,
                        3.4851020777084196,
                        4.548354914982879
                    ]
                ],
                [
                    [
                        -6.698325062616431,
                        3.2147124634071047,
                        4.527992332590227
                    ]
                ],
                [
                    [
                        -6.564057735287222,
                        3.4292576808118382,
                        4.479973568060626
                    ]
                ],
                [
                    [
                        -6.601846200934095,
                        3.3479704571993256,
                        4.570044847083478
                    ]
                ]
            ],
            "training_score": [
                0.8497175141242937,
                0.8520276208411801,
                0.8522787193973634,
                0.8489642184557439,
                0.8490395480225988,
                0.8498179535467671,
                0.8535091023226616,
                0.8472316384180791,
                0.8464030131826742,
                0.8471814187068424
            ],
            "test_score": 0.8510275004519797,
            "mean_training": 0.8496170747018204,
            "std_val": 0.0022540204246277664,
            "confusion_matrix": [
                21543,
                3234,
                4182,
                20822
            ],
            "log_loss": 0.32643092587548594
        },
        {
            "type": "all metrics except edit, hamming and jaccard, l1, half phoneme, using sgd, alpha= 0.001, shuffle=True, random_state= 42, 10-fold",
            "cross_val": true,
            "log_weights": [
                [
                    [
                        9.225394623228471,
                        5.659321930582415
                    ]
                ],
                [
                    [
                        9.194912912588133,
                        5.653694813481895
                    ]
                ],
                [
                    [
                        9.16452655590295,
                        5.718854347057357
                    ]
                ],
                [
                    [
                        9.17492691259898,
                        5.715769560867042
                    ]
                ],
                [
                    [
                        9.052407305271267,
                        5.8995390626782065
                    ]
                ],
                [
                    [
                        9.162900990506028,
                        5.85220516885818
                    ]
                ],
                [
                    [
                        9.077459160779108,
                        5.8735422674828035
                    ]
                ],
                [
                    [
                        9.22541009431998,
                        5.7842847344578745
                    ]
                ],
                [
                    [
                        9.158175710851696,
                        5.764119590876916
                    ]
                ],
                [
                    [
                        9.157160404747668,
                        5.701019896648316
                    ]
                ]
            ],
            "training_score": [
                0.8553170119271815,
                0.8575015693659761,
                0.8360828625235405,
                0.8365599497802888,
                0.8560200878844947,
                0.8543879472693032,
                0.8552165725047081,
                0.8538606403013183,
                0.8548148148148148,
                0.8573760200878845
            ],
            "test_score": 0.8576364476406662,
            "mean_training": 0.851713747645951,
            "std_val": 0.007776228777109423,
            "confusion_matrix": [
                21902,
                3111,
                3976,
                20792
            ],
            "log_loss": 0.3448501343903058
        },
        {
            "type": "all metrics except lcs and weighed, l1, half phoneme, using sgd, alpha= 0.001, shuffle=True, random_state= 42, 10-fold",
            "cross_val": true,
            "log_weights": [
                [
                    [
                        -0.12815204507755665,
                        -6.90101242218956,
                        9.274276874152234
                    ]
                ],
                [
                    [
                        -0.15408568183162294,
                        -6.987937999550763,
                        9.098235818565563
                    ]
                ],
                [
                    [
                        0.0,
                        -7.206360104694852,
                        9.001175722313034
                    ]
                ],
                [
                    [
                        -0.21214264334669605,
                        -6.985981947446023,
                        9.109257369718637
                    ]
                ],
                [
                    [
                        -0.1392779714617389,
                        -7.342075441446319,
                        8.792668425618386
                    ]
                ],
                [
                    [
                        -0.23462282702842657,
                        -6.914003846031299,
                        9.14203385562526
                    ]
                ],
                [
                    [
                        -0.24875524577876792,
                        -6.968189150444083,
                        9.046242796441652
                    ]
                ],
                [
                    [
                        -0.25512771181436456,
                        -6.982224487784348,
                        9.06520316111661
                    ]
                ],
                [
                    [
                        -0.11536003098085376,
                        -7.4175693537843035,
                        8.738355396963847
                    ]
                ],
                [
                    [
                        -0.21829008452155904,
                        -6.859219781858927,
                        9.175874396633242
                    ]
                ]
            ],
            "training_score": [
                0.8986566227244194,
                0.898706842435656,
                0.9002887633396108,
                0.8891148775894538,
                0.8975517890772128,
                0.8973006905210295,
                0.8966980539861896,
                0.8981293157564344,
                0.898932831136221,
                0.8978028876333961
            ],
            "test_score": 0.897591450553424,
            "mean_training": 0.8973182674199623,
            "std_val": 0.002894438881364581,
            "confusion_matrix": [
                22104,
                2980,
                2118,
                22579
            ],
            "log_loss": 0.254048393912431
        },
        {
            "type": "all metrics except edit, lcs and weighed, l1, half phoneme, using sgd, alpha= 0.001, shuffle=True, random_state= 42, 10-fold",
            "cross_val": true,
            "log_weights": [
                [
                    [
                        -7.28796861236182,
                        8.99246908298793
                    ]
                ],
                [
                    [
                        -7.326545422957124,
                        8.939166158810172
                    ]
                ],
                [
                    [
                        -7.077567353047988,
                        9.119138770342387
                    ]
                ],
                [
                    [
                        -7.258426260910663,
                        8.962491560691712
                    ]
                ],
                [
                    [
                        -7.1107390874687315,
                        9.080101604362252
                    ]
                ],
                [
                    [
                        -7.241104103014542,
                        8.97912439328119
                    ]
                ],
                [
                    [
                        -7.141935870059447,
                        9.06367366523233
                    ]
                ],
                [
                    [
                        -7.3602757705183235,
                        8.892053966709643
                    ]
                ],
                [
                    [
                        -7.3047481351997305,
                        8.979775741420287
                    ]
                ],
                [
                    [
                        -7.163354925780393,
                        9.02616944857748
                    ]
                ]
            ],
            "training_score": [
                0.8962460765850596,
                0.8962962962962963,
                0.9003389830508475,
                0.8988072818581293,
                0.8981544256120527,
                0.898556183301946,
                0.8992341494036409,
                0.8965473948524796,
                0.8945386064030132,
                0.8979033270558694
            ],
            "test_score": 0.9005042084329362,
            "mean_training": 0.8976622724419336,
            "std_val": 0.0016406634396746314,
            "confusion_matrix": [
                22213,
                2890,
                2063,
                22615
            ],
            "log_loss": 0.2507645098180348
        },
        {
            "type": "all metrics except hamming, lcs and weighed, l1, half phoneme, using sgd, alpha= 0.001, shuffle=True, random_state= 42, 10-fold",
            "cross_val": true,
            "log_weights": [
                [
                    [
                        -1.237158906835154,
                        14.949255373088198
                    ]
                ],
                [
                    [
                        -1.184062092470199,
                        14.92602768927176
                    ]
                ],
                [
                    [
                        -1.2397723796559583,
                        14.892191889277411
                    ]
                ],
                [
                    [
                        -1.2416043997079285,
                        14.90163966071976
                    ]
                ],
                [
                    [
                        -1.3192083425540762,
                        14.865361205971954
                    ]
                ],
                [
                    [
                        -1.2112157315977212,
                        14.990731214133106
                    ]
                ],
                [
                    [
                        -1.381053378310537,
                        14.741833544550063
                    ]
                ],
                [
                    [
                        -1.2111709897718175,
                        14.890138398297195
                    ]
                ],
                [
                    [
                        -1.0989127258130469,
                        14.998697424744453
                    ]
                ],
                [
                    [
                        -1.1155783604949592,
                        14.978820401898425
                    ]
                ]
            ],
            "training_score": [
                0.8969491525423728,
                0.899083490269931,
                0.8988072818581293,
                0.8977024482109228,
                0.8952919020715631,
                0.8968487131198996,
                0.8997865662272442,
                0.8995605775266792,
                0.8981042059008161,
                0.898706842435656
            ],
            "test_score": 0.8994596331933871,
            "mean_training": 0.8980841180163214,
            "std_val": 0.0013320914485573513,
            "confusion_matrix": [
                22147,
                2893,
                2112,
                22629
            ],
            "log_loss": 0.25247756355678247
        },
        {
            "type": "all metrics except jaccard, lcs and weighed, l1, half phoneme, using sgd, alpha= 0.001, shuffle=True, random_state= 42, 10-fold",
            "cross_val": true,
            "log_weights": [
                [
                    [
                        -0.32936835996825553,
                        -15.836493938457547
                    ]
                ],
                [
                    [
                        -0.1507918488288286,
                        -16.077342378643642
                    ]
                ],
                [
                    [
                        -0.43901180959050023,
                        -15.691355992398723
                    ]
                ],
                [
                    [
                        -0.3670834082752885,
                        -15.858262888895883
                    ]
                ],
                [
                    [
                        -0.47655621032900264,
                        -15.760775525858163
                    ]
                ],
                [
                    [
                        -0.20439830845998086,
                        -16.048063176752773
                    ]
                ],
                [
                    [
                        -0.11837312226290121,
                        -16.16728550955242
                    ]
                ],
                [
                    [
                        -0.34066197135225645,
                        -15.874562939512014
                    ]
                ],
                [
                    [
                        -0.27482272621932397,
                        -15.978793362676385
                    ]
                ],
                [
                    [
                        -0.3134728926480966,
                        -15.929648734926634
                    ]
                ]
            ],
            "training_score": [
                0.8935593220338983,
                0.9035530445699937,
                0.901594475831764,
                0.8893659761456372,
                0.8919774011299435,
                0.8924795982423102,
                0.898782172002511,
                0.9007156308851224,
                0.8997865662272442,
                0.9001129943502825
            ],
            "test_score": 0.8986762017637251,
            "mean_training": 0.8971927181418706,
            "std_val": 0.004624878918452477,
            "confusion_matrix": [
                22048,
                3082,
                1962,
                22689
            ],
            "log_loss": 0.254507099712218
        },
        {
            "type": "weighed, l1, half phoneme, using sgd, alpha= 0.001, shuffle=True, random_state= 42, 10-fold",
            "cross_val": true,
            "log_weights": [
                [
                    [
                        11.563396058675176
                    ]
                ],
                [
                    [
                        11.697545045107162
                    ]
                ],
                [
                    [
                        11.53615337816416
                    ]
                ],
                [
                    [
                        11.6777749980221
                    ]
                ],
                [
                    [
                        11.666839597682042
                    ]
                ],
                [
                    [
                        11.73280694606528
                    ]
                ],
                [
                    [
                        11.538287914162568
                    ]
