{
    "results": [
        {
            "type": "all metrics, l1, half phoneme, using sgd, alpha= 0.01, shuffle=True, random_state= 42, 10-fold",
            "cross_val": true,
            "log_weights": [
                [
                    [
                        -2.111341050466618,
                        -2.6571344272526862,
                        5.240933923662319,
                        0.0917926376771791,
                        0.0
                    ]
                ],
                [
                    [
                        -2.163653517275482,
                        -2.5618448991001492,
                        5.051441408196183,
                        0.2663556864263463,
                        0.0
                    ]
                ],
                [
                    [
                        -2.1863336276627363,
                        -2.745575739288368,
                        5.353841017512585,
                        0.0,
                        0.0
                    ]
                ],
                [
                    [
                        -2.2440498908261537,
                        -2.7352733998385177,
                        5.19715061296354,
                        0.05027713099381782,
                        0.0
                    ]
                ],
                [
                    [
                        -2.061924813105475,
                        -2.6119820726077734,
                        5.117999620997872,
                        0.4141555546167026,
                        0.0
                    ]
                ],
                [
                    [
                        -2.130171998196479,
                        -2.6323531015520225,
                        5.2387228920463285,
                        0.22633512838905243,
                        0.0
                    ]
                ],
                [
                    [
                        -2.2551889111622483,
                        -2.703788312810915,
                        5.249404034334121,
                        0.0,
                        0.0
                    ]
                ],
                [
                    [
                        -2.0792713235527724,
                        -2.643925100144357,
                        5.159093902113827,
                        0.0321896958203733,
                        0.08466595142445461
                    ]
                ],
                [
                    [
                        -2.1972180400383414,
                        -2.6544163877005906,
                        4.945248453245801,
                        0.4186131568170024,
                        0.0
                    ]
                ],
                [
                    [
                        -2.197921309290971,
                        -2.67945978878837,
                        5.097190551637104,
                        0.25289768523268824,
                        0.0
                    ]
                ]
            ],
            "training_score": [
                0.890194601381042,
                0.8921782799748902,
                0.8880100439422474,
                0.8892404268675456,
                0.888060263653484,
                0.8905461393596987,
                0.8886126804770873,
                0.8907721280602636,
                0.890872567482737,
                0.890947897049592
            ],
            "test_score": 0.8882103613828569,
            "mean_training": 0.8899435028248588,
            "std_val": 0.0013239824703038363,
            "confusion_matrix": [
                22614,
                2393,
                3172,
                21602
            ],
            "log_loss": 0.28701922450551637
        },
        {
            "type": "all metrics, l1 except weighed, half phoneme, using sgd, alpha= 0.01, shuffle=True, random_state= 42, 10-fold",
            "cross_val": true,
            "log_weights": [
                [
                    [
                        -2.0992729029567605,
                        -2.6584800699650692,
                        5.219225285512101,
                        0.26001752783837695
                    ]
                ],
                [
                    [
                        -2.217658064864792,
                        -2.628191566922856,
                        5.163888987295791,
                        0.24385536092181376
                    ]
                ],
                [
                    [
                        -2.027600060318824,
                        -2.945115961487121,
                        5.341960915044388,
                        0.0
                    ]
                ],
                [
                    [
                        -2.073341641683187,
                        -2.721802799661558,
                        5.30678323327105,
                        0.137739360348982
                    ]
                ],
                [
                    [
                        -2.100693712811648,
                        -2.7465553252300734,
                        5.404650747274041,
                        0.0
                    ]
                ],
                [
                    [
                        -2.1472170680582,
                        -2.7019557200927897,
                        5.322450445208737,
                        0.07374400098987222
                    ]
                ],
                [
                    [
                        -2.248625530463292,
                        -2.713061411595905,
                        5.316028834722113,
                        0.0
                    ]
                ],
                [
                    [
                        -2.1594151051264125,
                        -2.7030857953185334,
                        5.367327380804959,
                        0.0
                    ]
                ],
                [
                    [
                        -2.246261602124691,
                        -2.6301271783585385,
                        4.878620969092766,
                        0.5227343137540793
                    ]
                ],
                [
                    [
                        -2.129093155190734,
                        -2.5867489248043514,
                        5.078152435620093,
                        0.4867635779180644
                    ]
                ]
            ],
            "training_score": [
                0.8881104833647206,
                0.8873571876961708,
                0.8914500941619585,
                0.8870056497175142,
                0.8896672944130571,
                0.8869554300062774,
                0.8916007532956686,
                0.8884118016321406,
                0.8880853735091023,
                0.8889391086001256
            ],
            "test_score": 0.8905405676864667,
            "mean_training": 0.8887583176396735,
            "std_val": 0.0015956834155645765,
            "confusion_matrix": [
                22622,
                2309,
                3140,
                21710
            ],
            "log_loss": 0.28514007578181017
        },
        {
            "type": "all metrics, l1 except lcs, half phoneme, using sgd, alpha= 0.01, shuffle=True, random_state= 42, 10-fold",
            "cross_val": true,
            "log_weights": [
                [
                    [
                        -2.2716151583658815,
                        -2.638145555556063,
                        5.4019085760718175,
                        0.0
                    ]
                ],
                [
                    [
                        -2.251222032294197,
                        -2.555064629064229,
                        5.194814448191159,
                        0.22605834992820145
                    ]
                ],
                [
                    [
                        -2.2904914588273,
                        -2.7286868265425683,
                        5.477238028710421,
                        0.0
                    ]
                ],
                [
                    [
                        -2.266738909406186,
                        -2.730388162175721,
                        5.523516577472365,
                        0.0
                    ]
                ],
                [
                    [
                        -2.3403778362177117,
                        -2.709547521556393,
                        5.484203160647501,
                        0.0
                    ]
                ],
                [
                    [
                        -2.330436103419611,
                        -2.7244887555816564,
                        5.417628204732641,
                        0.0
                    ]
                ],
                [
                    [
                        -2.308545081679695,
                        -2.5998895328374654,
                        5.28589860348472,
                        0.03429868767885568
                    ]
                ],
                [
                    [
                        -2.2090325833117905,
                        -2.9028173014500815,
                        5.456818202166314,
                        0.0
                    ]
                ],
                [
                    [
                        -2.2588389297858695,
                        -2.7748760088853635,
                        5.459478195007163,
                        0.0
                    ]
                ],
                [
                    [
                        -2.3199787711364777,
                        -2.6455424815713244,
                        5.315619644434669,
                        0.0
                    ]
                ]
            ],
            "training_score": [
                0.8898681732580037,
                0.8885624607658505,
                0.8887633396107972,
                0.8898932831136221,
                0.8917765222849968,
                0.8884871311989956,
                0.8886377903327056,
                0.8888135593220339,
                0.8900188323917138,
                0.8894664155681105
            ],
            "test_score": 0.8876077218215785,
            "mean_training": 0.889428750784683,
            "std_val": 0.0009671858763836915,
            "confusion_matrix": [
                22441,
                2341,
                3254,
                21745
            ],
            "log_loss": 0.2876703056170274
        },
        {
            "type": "all metrics, l1 except jaccard, half phoneme, using sgd, alpha= 0.01, shuffle=True, random_state= 42, 10-fold",
            "cross_val": true,
            "log_weights": [
                [
                    [
                        -3.2450558929840847,
                        -3.8638549435144927,
                        1.8181855698941953,
                        1.1712530228058737
                    ]
                ],
                [
                    [
                        -3.052604965655689,
                        -3.885882837032455,
                        1.7615743941168054,
                        1.4199104013133537
                    ]
                ],
                [
                    [
                        -2.641384640387442,
                        -2.8779996508488197,
                        0.837467365568996,
                        4.926599985157642
                    ]
                ],
                [
                    [
                        -3.542138143917554,
                        -4.146812108726429,
                        1.5217811649653177,
                        0.7539137599421338
                    ]
                ],
                [
                    [
                        -3.3930999378098323,
                        -4.15708964432977,
                        1.9128646350881755,
                        0.44766621760911074
                    ]
                ],
                [
                    [
                        -3.307249560736621,
                        -4.016504122695308,
                        1.7612832231538342,
                        0.916321225609635
                    ]
                ],
                [
                    [
                        -3.0576334660110214,
                        -4.0872199792125254,
                        1.6966515601775238,
                        1.288532219839896
                    ]
                ],
                [
                    [
                        -2.8135504310091277,
                        -3.9209376331163703,
                        1.9832520734560761,
                        1.5127243398990098
                    ]
                ],
                [
                    [
                        -3.111266283380658,
                        -4.081687310863192,
                        1.8320899642074013,
                        1.0248276425920462
                    ]
                ],
                [
                    [
                        -3.156082683719884,
                        -3.9316849564326013,
                        1.6741562643702481,
                        1.3689008558049955
                    ]
                ]
            ],
            "training_score": [
                0.8862272441933459,
                0.8879598242310107,
                0.8933584431889516,
                0.8898430634023854,
                0.8914500941619585,
                0.8873571876961708,
                0.8875831763967357,
                0.885775266792216,
                0.8858254865034526,
                0.8884620213433773
            ],
            "test_score": 0.888571945119624,
            "mean_training": 0.8883841807909603,
            "std_val": 0.0023698024046370876,
            "confusion_matrix": [
                22736,
                2292,
                3255,
                21498
            ],
            "log_loss": 0.2991102046304903
        },
        {
            "type": "all metrics, l1 except hamming, half phoneme, using sgd, alpha= 0.01, shuffle=True, random_state= 42, 10-fold",
            "cross_val": true,
            "log_weights": [
                [
                    [
                        -3.8045014458661592,
                        6.239110361610639,
                        0.0,
                        0.0
                    ]
                ],
                [
                    [
                        -3.5782004230860123,
                        5.947844160495563,
                        0.293088721675941,
                        0.22028014682506303
                    ]
                ],
                [
                    [
                        -3.8633318303194764,
                        6.037454492956365,
                        0.18234884731843545,
                        0.0
                    ]
                ],
                [
                    [
                        -3.7218548954424233,
                        5.80437625336464,
                        0.26300099849636716,
                        0.23661202305459983
                    ]
                ],
                [
                    [
                        -3.7996702730931764,
                        6.0713714745376315,
                        0.3347445726514207,
                        0.0
                    ]
                ],
                [
                    [
                        -3.713952416964498,
                        5.867516189087319,
                        0.544444065802655,
                        0.0
                    ]
                ],
                [
                    [
                        -3.664706658675804,
                        5.755041149883567,
                        0.6820979148428798,
                        0.0
                    ]
                ],
                [
                    [
                        -3.729155914831147,
                        5.604250940778271,
                        0.3331259976736227,
                        0.3875385345292933
                    ]
                ],
                [
                    [
                        -3.8464569841510383,
                        5.778578762163526,
                        0.17115371569707147,
                        0.2188440987466465
                    ]
                ],
                [
                    [
                        -3.75476346546945,
                        5.781242967071151,
                        0.6715260384812994,
                        0.0
                    ]
                ]
            ],
            "training_score": [
                0.8894664155681105,
                0.8884118016321406,
                0.8895919648462022,
                0.888286252354049,
                0.8890395480225989,
                0.888060263653484,
                0.8905461393596987,
                0.8900941619585687,
                0.8884620213433773,
                0.8897426239799121
            ],
            "test_score": 0.8872059621140596,
            "mean_training": 0.8891701192718141,
            "std_val": 0.0008029502092724933,
            "confusion_matrix": [
                22689,
                2371,
                3244,
                21477
            ],
            "log_loss": 0.2900412297857868
        },
        {
            "type": "all metrics, l1 except edit, half phoneme, using sgd, alpha= 0.01, shuffle=True, random_state= 42, 10-fold",
            "cross_val": true,
            "log_weights": [
                [
                    [
                        -3.855169879889315,
                        5.37894978780505,
                        0.5420325764560053,
                        0.393667993050692
                    ]
                ],
                [
                    [
                        -3.8436599855823577,
                        5.306841779045545,
                        0.8512141640834513,
                        0.11325748392412543
                    ]
                ],
                [
                    [
                        -3.9596276216632815,
                        5.606687924228954,
                        0.3631583896042093,
                        0.09413000380820477
                    ]
                ],
                [
                    [
                        -4.025431956305748,
                        5.58871386482575,
                        0.6956723350277654,
                        0.0
                    ]
                ],
                [
                    [
                        -3.992515214808713,
                        5.79826857913776,
                        0.35670254215291514,
                        0.0
                    ]
                ],
                [
                    [
                        -4.028343550973544,
                        5.808566869260139,
                        0.28233939851671536,
                        0.0
                    ]
                ],
                [
                    [
                        -3.9765443384210695,
                        5.719139710893993,
                        0.5676823393581304,
                        0.0
                    ]
                ],
                [
                    [
                        -3.902111420158356,
                        5.3984056324405225,
                        0.34539092205627114,
                        0.4863771509973631
                    ]
                ],
                [
                    [
                        -4.000118607204157,
                        5.556630095781387,
                        0.745057767691758,
                        0.0
                    ]
                ],
                [
                    [
                        -3.797212729897242,
                        5.702422750254397,
                        0.5745465819818504,
                        0.0
                    ]
                ]
            ],
            "training_score": [
                0.8875580665411174,
                0.890947897049592,
                0.8891902071563088,
                0.8877087256748274,
                0.8888637790332705,
                0.8864783427495292,
                0.8858757062146893,
                0.8868047708725675,
                0.8873320778405525,
                0.8906967984934087
            ],
            "test_score": 0.8886121210903758,
            "mean_training": 0.8881456371625862,
            "std_val": 0.0016400100017371249,
            "confusion_matrix": [
                22715,
                2360,
                3185,
                21521
            ],
            "log_loss": 0.2901706315777006
        },
        {
            "type": "all metrics, l1 except edit and jaccard, half phoneme, using sgd, alpha= 0.01, shuffle=True, random_state= 42, 10-fold",
            "cross_val": true,
            "log_weights": [
                [
                    [
                        -6.017333423754448,
                        2.8542618100624177,
                        1.3038215260378407
                    ]
                ],
                [
                    [
                        -6.384810851635625,
                        2.375925341993811,
                        1.3971412770088132
                    ]
                ],
                [
                    [
                        -6.36725048743941,
                        2.7274522582892886,
                        1.013122575862305
                    ]
                ],
                [
                    [
                        -5.930881228626624,
                        2.545052340814061,
                        1.81303982956538
                    ]
                ],
                [
                    [
                        -6.3293064741380745,
                        2.5800640387373766,
                        1.2745667330435058
                    ]
                ],
                [
                    [
                        -6.16354472306327,
                        2.5189045896419575,
                        1.5210062359361713
                    ]
                ],
                [
                    [
                        -6.294422809070326,
                        2.412741633510459,
                        1.4366546321212272
                    ]
                ],
                [
                    [
                        -5.916820987710795,
                        2.4824570936483124,
                        1.9177476694675788
                    ]
                ],
                [
                    [
                        -6.117470845744672,
                        2.5084378820327293,
                        1.6236815930808697
                    ]
                ],
                [
                    [
                        -5.984912399491959,
                        2.693035504024159,
                        1.5655418594756763
                    ]
                ]
            ],
            "training_score": [
                0.8925047080979285,
                0.8886377903327056,
                0.8857250470809793,
                0.8869554300062774,
                0.8884620213433773,
                0.888662900188324,
                0.8897677338355304,
                0.8908223477715003,
                0.8866541117388576,
                0.8884369114877589
            ],
            "test_score": 0.888933528856391,
            "mean_training": 0.888662900188324,
            "std_val": 0.0019057040513255725,
            "confusion_matrix": [
                22755,
                2206,
                3323,
                21497
            ],
            "log_loss": 0.30546751885516504
        },
        {
            "type": "all metrics, l1 except hamming and jaccard, half phoneme, using sgd, alpha= 0.01, shuffle=True, random_state= 42, 10-fold",
            "cross_val": true,
            "log_weights": [
                [
                    [
                        -5.932186295286427,
                        2.3106129789373866,
                        1.8599186475346867
                    ]
                ],
                [
                    [
                        -5.818181283738965,
                        2.438590193249896,
                        1.8943061140914288
                    ]
                ],
                [
                    [
                        -5.72203334731746,
                        2.4307802331912316,
                        2.023493811058546
                    ]
                ],
                [
                    [
                        -6.1505280248067695,
                        2.243034261377035,
                        1.6105220982439763
                    ]
                ],
                [
                    [
                        -5.758705105698797,
                        2.347544954600712,
                        2.119793173221791
                    ]
                ],
                [
                    [
                        -5.7780653176923895,
                        2.279191774844325,
                        2.0747116126222482
                    ]
                ],
                [
                    [
                        -5.968834358086089,
                        2.6597341903645453,
                        1.4405653120745556
                    ]
                ],
                [
                    [
                        -6.364274529186205,
                        1.9212804364124945,
                        1.7426783358039293
                    ]
                ],
                [
                    [
                        -5.667471594108564,
                        2.4488033263770737,
                        2.055926397745316
                    ]
                ],
                [
                    [
                        -5.9503381757195974,
                        2.405206136240867,
                        1.7687698032704118
                    ]
                ]
            ],
            "training_score": [
                0.8854488386691777,
                0.8838920276208412,
                0.8845448838669178,
                0.885775266792216,
                0.8837664783427496,
                0.8830131826741996,
                0.8842937853107344,
                0.8839673571876961,
                0.8868298807281858,
                0.8833647206528562
            ],
            "test_score": 0.883650388702517,
            "mean_training": 0.8844896421845576,
            "std_val": 0.0011264674159745657,
            "confusion_matrix": [
                22301,
                2467,
                3325,
                21688
            ],
            "log_loss": 0.3115947188587466
        },
        {
            "type": "all metrics, l1 except edit, hamming and jaccard, half phoneme, using sgd, alpha= 0.01, shuffle=True, random_state= 42, 10-fold",
            "cross_val": true,
            "log_weights": [
                [
                    [
                        5.772728511096227,
                        4.429459078905528
                    ]
                ],
                [
                    [
                        5.88574219803486,
                        4.476905974966903
                    ]
                ],
                [
                    [
                        6.200705700489064,
                        3.9622585365813516
                    ]
                ],
                [
                    [
                        6.235983649227017,
                        3.9642486906044274
                    ]
                ],
                [
                    [
                        6.119618890115702,
                        4.007443494730491
                    ]
                ],
                [
                    [
                        6.100843312119436,
                        4.126295553279567
                    ]
                ],
                [
                    [
                        5.771690156776646,
                        4.542272504966776
                    ]
                ],
                [
                    [
                        6.08899585690154,
                        4.157530642202376
                    ]
                ],
                [
                    [
                        5.8707976082548265,
                        4.466013368629924
                    ]
                ],
                [
                    [
                        5.958800103365434,
                        4.298168879457704
                    ]
                ]
            ],
            "training_score": [
                0.8659133709981167,
                0.8636283741368487,
                0.8616195856873823,
                0.8634777150031387,
                0.8622975517890772,
                0.8590332705586943,
                0.8630257376020087,
                0.8633270558694287,
                0.8631261770244821,
                0.8548399246704331
            ],
            "test_score": 0.8554870332054398,
            "mean_training": 0.8620288763339611,
            "std_val": 0.002907306005926634,
            "confusion_matrix": [
                22750,
                2049,
                5145,
                19837
            ],
            "log_loss": 0.35781845562739684
        },
        {
            "type": "all metrics except lcs and weighed, l1, half phoneme, using sgd, alpha= 0.01, shuffle=True, random_state= 42, 10-fold",
            "cross_val": true,
            "log_weights": [
                [
                    [
                        -2.29181207009844,
                        -2.7596186295454084,
                        5.581659787419504
                    ]
                ],
                [
                    [
                        -2.398842095321155,
                        -2.705806570920275,
                        5.558321254875312
                    ]
                ],
                [
                    [
                        -2.4261929689221797,
                        -2.728028763963121,
                        5.502957900323871
                    ]
                ],
                [
                    [
                        -2.385009091544499,
                        -2.83585020105368,
                        5.41572970136502
                    ]
                ],
                [
                    [
                        -2.372565589779464,
                        -2.7206052830613627,
                        5.568146905854168
                    ]
                ],
                [
                    [
                        -2.413570713073973,
                        -2.7016564877198856,
                        5.557359661855321
                    ]
                ],
                [
                    [
                        -2.027538216883736,
                        -2.9734469353529143,
                        5.620030295950876
                    ]
                ],
                [
                    [
                        -2.534937971761237,
                        -2.690157854942232,
                        5.449100314306991
                    ]
                ],
                [
                    [
                        -2.350902132803868,
                        -2.7143883533678603,
                        5.566567698988222
                    ]
                ],
                [
                    [
                        -2.466550029415002,
                        -2.707456959306254,
                        5.486908410679317
                    ]
                ]
            ],
            "training_score": [
                0.8865536723163842,
                0.8893408662900188,
                0.8890646578782172,
                0.8881858129315756,
                0.8882109227871939,
                0.8890144381669806,
                0.8913998744507219,
                0.8887633396107972,
                0.8887131198995606,
                0.8864281230382925
            ],
            "test_score": 0.8899379281251883,
            "mean_training": 0.8885674827369743,
            "std_val": 0.0013428397702041457,
            "confusion_matrix": [
                22620,
                2320,
                3159,
                21682
            ],
            "log_loss": 0.28125320355781097
        },
        {
            "type": "all metrics except edit, lcs and weighed, l1, half phoneme, using sgd, alpha= 0.01, shuffle=True, random_state= 42, 10-fold",
            "cross_val": true,
            "log_weights": [
                [
                    [
                        -4.304332337941037,
                        6.329816375160605
                    ]
                ],
                [
                    [
                        -4.406482034831661,
                        6.200354234362063
                    ]
                ],
                [
                    [
                        -4.421324601009509,
                        6.2117625341135065
                    ]
                ],
                [
                    [
                        -4.316163257958434,
                        6.344481408004843
                    ]
                ],
                [
                    [
                        -4.337204220094368,
                        6.339880446449359
                    ]
                ],
                [
                    [
                        -4.3748127596554,
                        6.229546719163348
                    ]
                ],
                [
                    [
                        -4.344968855896293,
                        6.341667915058244
                    ]
                ],
                [
                    [
                        -4.383104375199006,
                        6.278818636112499
                    ]
                ],
                [
                    [
                        -4.32260809969334,
                        6.323096720545934
                    ]
                ],
                [
                    [
                        -4.338430595975594,
                        6.300803925671577
                    ]
                ]
            ],
            "training_score": [
                0.890571249215317,
                0.8900941619585687,
                0.8880853735091023,
                0.890119271814187,
                0.8887884494664156,
                0.8900439422473321,
                0.8875831763967357,
                0.8884620213433773,
                0.8886126804770873,
                0.888135593220339
            ],
            "test_score": 0.8861011229183825,
            "mean_training": 0.8890495919648462,
            "std_val": 0.0010029619417331874,
            "confusion_matrix": [
                22510,
                2431,
                3239,
                21601
            ],
            "log_loss": 0.2833711196455518
        },
        {
            "type": "all metrics except hamming, lcs and weighed, l1, half phoneme, using sgd, alpha= 0.01, shuffle=True, random_state= 42, 10-fold",
            "cross_val": true,
            "log_weights": [
                [
                    [
                        -4.151683228290041,
                        6.413247436553901
                    ]
                ],
                [
                    [
                        -4.17697628302122,
                        6.421518736485821
                    ]
                ],
                [
                    [
                        -4.056051867525351,
                        6.4816590596366455
                    ]
                ],
                [
                    [
                        -4.124663691454593,
                        6.457162626591756
                    ]
                ],
                [
                    [
                        -4.210002291889365,
                        6.373358720749338
                    ]
                ],
                [
                    [
                        -4.10710043572457,
                        6.486339772389822
                    ]
                ],
                [
                    [
                        -3.8923541765640954,
                        6.724846646936445
                    ]
                ],
                [
                    [
                        -4.130337714973795,
                        6.45418723046598
                    ]
                ],
                [
                    [
                        -4.187034716010811,
                        6.427371303954999
                    ]
                ],
                [
                    [
                        -4.074386892543603,
                        6.508643855435805
                    ]
                ]
            ],
            "training_score": [
                0.888135593220339,
                0.8858505963590709,
                0.8908474576271187,
                0.8877338355304457,
                0.8895919648462022,
                0.890345260514752,
                0.8869805398618958,
                0.890420590081607,
                0.8878091650973007,
                0.8895668549905839
            ],
            "test_score": 0.8888933528856391,
            "mean_training": 0.8887281858129317,
            "std_val": 0.0015792162931702574,
            "confusion_matrix": [
                22520,
                2369,
                3162,
                21730
            ],
            "log_loss": 0.28231349737790434
        },
        {
            "type": "all metrics except jaccard, lcs and weighed, l1, half phoneme, using sgd, alpha= 0.01, shuffle=True, random_state= 42, 10-fold",
            "cross_val": true,
            "log_weights": [
                [
                    [
                        -4.5580408358993445,
                        -5.387367529877055
                    ]
                ],
                [
                    [
                        -4.593885463695647,
                        -5.407608464315011
                    ]
                ],
                [
                    [
                        -4.5523185419157,
                        -5.4885371806680725
                    ]
                ],
                [
                    [
                        -4.716552254323168,
                        -5.303303010552354
                    ]
                ],
                [
                    [
                        -4.686521462356257,
                        -5.213018193874673
                    ]
                ],
                [
                    [
                        -4.39527588531399,
                        -5.633488385254002
                    ]
                ],
                [
                    [
                        -4.775323098581747,
                        -5.340495759473617
                    ]
                ],
                [
                    [
                        -4.679457741019053,
                        -5.360713705385488
                    ]
                ],
                [
                    [
                        -4.8873519757793185,
                        -5.14064371297937
                    ]
                ],
                [
                    [
                        -4.72580642163615,
                        -5.340228614965905
                    ]
                ]
            ],
            "training_score": [
                0.8913998744507219,
                0.8904456999372253,
                0.8888386691776522,
                0.8899937225360954,
                0.8902699309478971,
                0.8890395480225989,
                0.8898179535467671,
                0.8900690521029504,
                0.8852981795354676,
                0.8891650973006905
            ],
            "test_score": 0.8907615355256021,
            "mean_training": 0.8894337727558066,
            "std_val": 0.0015536508840868712,
            "confusion_matrix": [
                22668,
                2458,
                2980,
                21675
            ],
            "log_loss": 0.2872680972269317
        },
        {
            "type": "weighed, l1, half phoneme, using sgd, alpha= 0.01, shuffle=True, random_state= 42, 10-fold",
            "cross_val": true,
            "log_weights": [
                [
                    [
                        8.849094002348604
                    ]
                ],
                [
                    [
                        8.541214852497491
                    ]
                ],
                [
                    [
                        8.756065102203928
                    ]
                ],
                [
                    [
                        8.632325063084782
                    ]
                ],
                [
                    [
                        8.773537783805493
                    ]
                ],
                [
                    [
                        8.754689977415326
                    ]
                ],
                [
                    [
                        8.583154231672761
                    ]
                ],
                [
                    [
                        8.66441397873331
                    ]
                ],
                [
                    [
                        8.719636396835824
                    ]
                ],
                [
                    [
                        8.540896339285986
                    ]
                ]
            ],
            "training_score": [
                0.8580790960451977,
                0.8597614563716258,
                0.8590332705586943,
                0.8601883239171375,
                0.8583553044569994,
                0.859158819836786,
                0.8602636534839925,
                0.8561707470182046,
                0.8575266792215944,
                0.8575015693659761
            ],
            "test_score": 0.8592233984853659,
            "mean_training": 0.8586038920276209,
            "std_val": 0.0012542090109524174,
            "confusion_matrix": [
                22747,
                2044,
                4964,
                20026
            ],
            "log_loss": 0.41384887711594487
        },
        {
            "type": "lcs, l1, half phoneme, using sgd, alpha= 0.01, shuffle=True, random_state= 42, 10-fold",
            "cross_val": true,
            "log_weights": [
                [
                    [
                        8.148804565905515
                    ]
                ],
                [
                    [
                        8.164240655213618
                    ]
                ],
                [
                    [
                        8.185442151174893
                    ]
                ],
                [
                    [
                        8.181581606382982
                    ]
                ],
                [
                    [
                        8.177191447177316
                    ]
                ],
                [
                    [
                        8.14167938907337
                    ]
                ],
                [
                    [
                        8.180429187346794
                    ]
                ],
                [
                    [
                        8.207817538935302
                    ]
                ],
                [
                    [
                        8.161959576130963
                    ]
                ],
                [
                    [
                        8.160757766750342
                    ]
                ]
            ],
            "training_score": [
                0.8204143126177025,
                0.8226993094789705,
                0.8233019460138105,
                0.821519146264909,
                0.8232015065913371,
                0.8224733207784055,
                0.8210922787193974,
                0.8196861268047708,
                0.8194099183929693,
                0.8215944758317639
            ],
            "test_score": 0.8213776340370824,
            "mean_training": 0.8215392341494037,
            "std_val": 0.0013238300716362278,
            "confusion_matrix": [
                21853,
                3315,
                5577,
                19036
            ],
            "log_loss": 0.3948338079027609
        },
        {
            "type": "edit and lcs, l1, half phoneme, using sgd, alpha= 0.01, shuffle=True, random_state= 42, 10-fold",
            "cross_val": true,
            "log_weights": [
                [
                    [
                        -6.657188231608323,
                        2.9292867918813825
                    ]
                ],
                [
                    [
                        -6.631220576758921,
                        3.0168384955743024
                    ]
                ],
                [
                    [
                        -6.362228888720389,
                        3.2683552287721973
                    ]
                ],
                [
                    [
                        -6.934865490338228,
                        2.619301239291624
                    ]
                ],
                [
                    [
                        -6.512023412485632,
                        3.0674170831960215
                    ]
                ],
                [
                    [
                        -6.494474360669862,
                        3.1312183437991608
                    ]
                ],
                [
                    [
                        -6.7160362409298,
                        2.8877195923716905
                    ]
                ],
                [
                    [
                        -6.516636110961704,
                        3.114257541502295
                    ]
                ],
                [
                    [
                        -6.641765503417564,
                        3.0155102106706555
                    ]
                ],
                [
                    [
                        -6.776127327081094,
                        2.835529622653583
                    ]
                ]
            ],
            "training_score": [
                0.8808035153797865,
                0.8822598870056497,
                0.8826114249843063,
                0.8803515379786566,
                0.8824858757062147,
                0.8837664783427496,
                0.8829880728185813,
                0.882284996861268,
                0.8830382925298179,
                0.8831387319522913
            ],
            "test_score": 0.8813000944135313,
            "mean_training": 0.8823728813559322,
            "std_val": 0.0009994384960081179,
            "confusion_matrix": [
                22181,
                2821,
                3088,
                21691
            ],
            "log_loss": 0.3119479371201214
        },
        {
            "type": "hamming and weighed, l1, half phoneme, using sgd, alpha= 0.01, shuffle=True, random_state= 42, 10-fold",
            "cross_val": true,
            "log_weights": [
                [
                    [
                        -7.801592471810219,
                        1.971050406183296
                    ]
                ],
                [
                    [
                        -7.667675534334453,
                        2.238167635060543
                    ]
                ],
                [
                    [
                        -7.571886805832752,
                        2.3459342457864056
                    ]
                ],
                [
                    [
                        -7.739468493394495,
                        2.067607981620716
                    ]
                ],
                [
                    [
                        -7.479054997646232,
                        2.3785549121552587
                    ]
                ],
                [
                    [
                        -7.736677222791252,
                        2.136190876955019
                    ]
                ],
                [
                    [
                        -7.4769102607083395,
                        2.520892346429931
                    ]
                ],
                [
                    [
                        -7.773338271626188,
                        1.9756982230454143
                    ]
                ],
                [
                    [
                        -7.59473529223814,
                        2.2761297412780266
                    ]
                ],
                [
                    [
                        -6.822250467740648,
                        3.3540415824046717
                    ]
                ]
            ],
            "training_score": [
                0.8869805398618958,
                0.8900690521029504,
                0.8911236660389202,
                0.891173885750157,
                0.8939359698681733,
                0.8926553672316384,
                0.8898430634023854,
                0.8931324544883867,
                0.891023226616447,
                0.8920527306967985
            ],
            "test_score": 0.8898374881983085,
            "mean_training": 0.8911989956057752,
            "std_val": 0.0018715519333157235,
            "confusion_matrix": [
                22625,
                2465,
                3019,
                21672
            ],
            "log_loss": 0.3068547908971419
        },
        {
            "type": "hamming, l1, half phoneme, using sgd, alpha= 0.01, shuffle=True, random_state= 42, 10-fold",
            "cross_val": true,
            "log_weights": [
                [
                    [
                        -9.525796059246657
                    ]
                ],
                [
                    [
                        -9.57741633108341
                    ]
                ],
                [
                    [
                        -9.465061168317492
                    ]
                ],
                [
                    [
                        -9.479618543409178
                    ]
                ],
                [
                    [
                        -9.484953068358362
                    ]
                ],
                [
                    [
                        -9.420513377014322
                    ]
                ],
                [
                    [
                        -9.493277690242145
                    ]
                ],
                [
                    [
                        -9.528905206896537
                    ]
                ],
                [
                    [
                        -9.516267357097682
                    ]
                ],
                [
                    [
                        -9.400977242891454
                    ]
                ]
            ],
            "training_score": [
                0.8910734463276836,
                0.8903201506591337,
                0.8905461393596987,
                0.8877338355304457,
                0.8905210295040803,
                0.8902699309478971,
                0.8884118016321406,
                0.8902950408035154,
                0.8896924042686755,
                0.8893659761456372
            ],
            "test_score": 0.8895160804322935,
            "mean_training": 0.8898229755178907,
            "std_val": 0.0009912383854340156,
            "confusion_matrix": [
                22510,
                2440,
                3060,
                21771
            ],
            "log_loss": 0.29365301468317234
        },
        {
            "type": "edit, l1, half phoneme, using sgd, alpha= 0.01, shuffle=True, random_state= 42, 10-fold",
            "cross_val": true,
            "log_weights": [
                [
                    [
                        -9.319919576331223
                    ]
                ],
                [
                    [
                        -9.293359630398934
                    ]
                ],
                [
                    [
                        -9.337854867258622
                    ]
                ],
                [
                    [
                        -9.336735653943565
                    ]
                ],
                [
                    [
                        -9.328762756059842
                    ]
                ],
                [
                    [
                        -9.332399500672192
                    ]
                ],
                [
                    [
                        -9.320065910631104
                    ]
                ],
                [
                    [
                        -9.231321225081896
                    ]
                ],
                [
                    [
                        -9.357299480665548
                    ]
                ],
                [
                    [
                        -9.232827710270728
                    ]
                ]
            ],
            "training_score": [
                0.8861016949152543,
                0.8810546139359698,
                0.8856748273697427,
                0.8843691148775894,
                0.8850973006905211,
                0.8820841180163214,
                0.8837162586315128,
                0.8862272441933459,
                0.8836158192090395,
                0.8861268047708726
            ],
            "test_score": 0.885136899620337,
            "mean_training": 0.8844067796610169,
            "std_val": 0.0017019314916720566,
            "confusion_matrix": [
                22265,
                2665,
                3053,
                21798
            ],
            "log_loss": 0.3027720731487105
        },
        {
            "type": "jaccard, l1, half phoneme, using sgd, alpha= 0.01, shuffle=True, random_state= 42, 10-fold",
            "cross_val": true,
            "log_weights": [
                [
                    [
                        10.262780272485948
                    ]
                ],
                [
                    [
                        10.27380605501218
                    ]
                ],
                [
                    [
                        10.260265215702141
                    ]
                ],
                [
                    [
                        10.227234559107735
                    ]
                ],
                [
                    [
                        10.208827240651637
                    ]
                ],
                [
                    [
                        10.201164523620292
                    ]
                ],
                [
                    [
                        10.222055523287004
                    ]
                ],
                [
                    [
                        10.23925853456296
                    ]
                ],
                [
                    [
                        10.255771154592559
                    ]
                ],
                [
                    [
                        10.198706791348298
                    ]
                ]
            ],
            "training_score": [
                0.8877840552416824,
                0.8881104833647206,
                0.8889391086001256,
                0.8873320778405525,
                0.8884871311989956,
                0.891249215317012,
                0.8901443816698054,
                0.8889642184557439,
                0.8896924042686755,
                0.8885373509102322
            ],
            "test_score": 0.8848757558104497,
            "mean_training": 0.8889240426867545,
            "std_val": 0.0011101396301313954,
            "confusion_matrix": [
                22663,
                2394,
                3337,
                21387
            ],
            "log_loss": 0.29037161198222045
        },
        {
            "type": "all metrics, l1, full phoneme, using sgd, alpha= 0.01, shuffle=True, random_state= 42, 10-fold",
            "cross_val": true,
            "log_weights": [
                [
                    [
                        -1.3895577009921385,
                        -3.596028435856731,
                        6.18562722172837,
                        0.0,
                        0.4216868497470174
                    ]
                ],
                [
                    [
                        -1.2664296886374948,
                        -3.624737688366615,
                        6.241892311649794,
                        0.0,
                        0.48189037303687565
                    ]
                ],
                [
                    [
                        -1.1308832378973823,
                        -3.7845820922792752,
                        6.3352081677718735,
                        0.0,
                        0.3439595567521785
                    ]
                ],
                [
                    [
                        -1.7081669353875215,
                        -3.4562564967582823,
                        6.227847295305945,
                        0.0,
                        0.1358793123896139
                    ]
                ],
                [
                    [
                        -1.4934089895645388,
                        -3.586271285064417,
                        6.386949205702585,
                        0.0,
                        0.10803255179176387
                    ]
                ],
                [
                    [
                        -1.1382368990793994,
                        -3.8398606660924304,
                        6.255289710065109,
                        0.0,
                        0.29562503096348924
                    ]
                ],
                [
                    [
                        -1.14355935369525,
                        -3.796798430289319,
                        6.411002798751665,
                        0.0,
                        0.129158874677054
                    ]
                ],
                [
                    [
                        -1.542857038322697,
                        -3.4806077247607874,
                        6.151620966153196,
                        0.0,
                        0.4970708399683069
                    ]
                ],
                [
                    [
                        -1.3543809970334937,
                        -3.7292461001524795,
                        6.3381931597676076,
                        0.0,
                        0.15668180204893334
                    ]
                ],
                [
                    [
                        -0.7173131902186238,
                        -3.970267443392219,
                        6.074101743015049,
                        0.0,
                        0.9422679229840899
                    ]
                ]
            ],
            "training_score": [
                0.8787947269303201,
                0.8735718769617075,
                0.8743251726302573,
                0.877112366603892,
                0.8749780288763339,
                0.8786440677966102,
                0.8724168236032643,
                0.8734714375392342,
                0.8767106089139988,
                0.8753044569993722
            ],
            "test_score": 0.8757156344790181,
            "mean_training": 0.8755329566854991,
            "std_val": 0.0020934287067156027,
            "confusion_matrix": [
                22479,
                2593,
                3594,
                21115
            ],
            "log_loss": 0.32156370894383435
        }
    ]
}