{
    "results": [
        {
            "type": "all metrics, l1, half phoneme, using sgd, alpha= 0.001, shuffle=True, random_state= 42, 10-fold, imbalanced dataset one percent true",
            "cross_val": true,
            "log_weights": [
                [
                    [
                        -0.1166673481747186,
                        -7.259061497719751,
                        9.712196969995237,
                        0.0,
                        -1.0430742649230045
                    ]
                ],
                [
                    [
                        -0.06541019718821633,
                        -7.389120988909643,
                        9.634316314672407,
                        0.0,
                        -1.0359768134836036
                    ]
                ],
                [
                    [
                        -0.24831247869080905,
                        -7.2055814695804745,
                        9.717559448409444,
                        0.0,
                        -1.0091997541341313
                    ]
                ],
                [
                    [
                        -0.14720515667534398,
                        -7.095307760129275,
                        9.72013871241452,
                        0.0,
                        -0.988133377098864
                    ]
                ],
                [
                    [
                        0.0,
                        -7.40167279553201,
                        9.706104377960445,
                        0.0,
                        -1.0514186123554705
                    ]
                ],
                [
                    [
                        0.0,
                        -7.490115767317712,
                        9.631115994865773,
                        0.0,
                        -1.0366779441579321
                    ]
                ],
                [
                    [
                        -0.21323017043573309,
                        -7.344028642811393,
                        9.575883960854679,
                        0.0,
                        -1.0790964165432348
                    ]
                ],
                [
                    [
                        -0.1241489120763008,
                        -7.302618776607386,
                        9.587957819766388,
                        0.0,
                        -1.020711411812509
                    ]
                ],
                [
                    [
                        -0.10604640890132547,
                        -7.316781323163442,
                        9.73806337584004,
                        0.0,
                        -1.0564225170833739
                    ]
                ],
                [
                    [
                        -0.17777973188326215,
                        -7.2295533604944415,
                        9.703541037242736,
                        0.0,
                        -1.0439309149447036
                    ]
                ]
            ],
            "training_score": [
                0.9015286956871096,
                0.9003033285791768,
                0.8974106586850404,
                0.8999618328277857,
                0.8984954098953416,
                0.8992185773688757,
                0.8988770816174846,
                0.8985355858660935,
                0.8976517145095518,
                0.8998613929009059
            ],
            "test_score": 0.8876553581906438,
            "mean_training": 0.8991844277937366,
            "std_val": 0.0011957009453138492,
            "confusion_matrix": [
                131972,
                16778,
                71,
                1155
            ],
            "log_loss": 0.2587498845752831
        },
        {
            "type": "all metrics except lcs, l1, half phoneme, using sgd, alpha= 0.001, shuffle=True, random_state= 42, 10-fold, imbalanced dataset (one percent true)",
            "cross_val": true,
            "log_weights": [
                [
                    [
                        -0.21425374574634642,
                        -7.32042544532612,
                        9.47441052218828,
                        -0.9265522112711566
                    ]
                ],
                [
                    [
                        -0.24646082417054463,
                        -7.104819197677817,
                        9.772589390967953,
                        -1.0365577630954328
                    ]
                ],
                [
                    [
                        -0.3163360986904753,
                        -7.177765510100401,
                        9.581409202114171,
                        -1.016761529137138
                    ]
                ],
                [
                    [
                        -0.24925386720062653,
                        -7.4456683515924285,
                        9.370369993021818,
                        -1.0487665988992425
                    ]
                ],
                [
                    [
                        -0.21136062487570367,
                        -7.272078239534474,
                        9.679959473165418,
                        -1.0400111121922053
                    ]
                ],
                [
                    [
                        -0.3216400544960797,
                        -7.088430927772801,
                        9.620838772732348,
                        -1.0116316354427324
                    ]
                ],
                [
                    [
                        -0.21141706695484938,
                        -7.279536403125709,
                        9.482372934603696,
                        -0.9234366156577934
                    ]
                ],
                [
                    [
                        -0.26723037437724645,
                        -7.4030456468590815,
                        9.44817798966952,
                        -1.0333492980963637
                    ]
                ],
                [
                    [
                        -0.2893675309983183,
                        -7.190887379554332,
                        9.525275132694368,
                        -0.9904910805545739
                    ]
                ],
                [
                    [
                        -0.19794550997349797,
                        -7.29170520863952,
                        9.609772545506422,
                        -1.0518713143158425
                    ]
                ]
            ],
            "training_score": [
                0.8985958498222213,
                0.900986320081959,
                0.9007050882866957,
                0.9013278158333501,
                0.8993391052811314,
                0.9013077278479741,
                0.8970088989775216,
                0.8990779614712441,
                0.9020308953215082,
                0.9004841204475603
            ],
            "test_score": 0.885501680268843,
            "mean_training": 0.9000863783371165,
            "std_val": 0.0014639938516803632,
            "confusion_matrix": [
                131649,
                17101,
                71,
                1155
            ],
            "log_loss": 0.2598894736763096
        },
        {
            "type": "all metrics except jaccard, l1, half phoneme, using sgd, alpha= 0.001, shuffle=True, random_state= 42, 10-fold, imbalanced dataset (one percent true)",
            "cross_val": true,
            "log_weights": [
                [
                    [
                        -0.16365881146240144,
                        -15.396621035551945,
                        0.15438144187026545,
                        0.0
                    ]
                ],
                [
                    [
                        0.0,
                        -15.344381049560308,
                        0.3437365113723503,
                        0.0
                    ]
                ],
                [
                    [
                        -0.24461971060516155,
                        -15.41632336131031,
                        0.06079217150251642,
                        0.0
                    ]
                ],
                [
                    [
                        -0.3246992685730586,
                        -15.755039450963972,
                        0.0,
                        -0.6499840865642922
                    ]
                ],
                [
                    [
                        0.0,
                        -15.809610883524348,
                        0.0,
                        0.0
                    ]
                ],
                [
                    [
                        -0.2801637385228379,
                        -15.567028083059855,
                        0.0,
                        0.0
                    ]
                ],
                [
                    [
                        0.0,
                        -15.716639700569901,
                        0.37936199158470135,
                        -0.6092942773646979
                    ]
                ],
                [
                    [
                        0.0,
                        -15.81936646666825,
                        0.2936472760915457,
                        -0.6478017933820011
                    ]
                ],
                [
                    [
                        0.0,
                        -16.299698819345956,
                        0.0,
                        -0.7574576576475655
                    ]
                ],
                [
                    [
                        0.0,
                        -15.707087846434598,
                        0.0,
                        0.0
                    ]
                ]
            ],
            "training_score": [
                0.9010867600088387,
                0.8915047909845122,
                0.8918663747212792,
                0.9014885197163577,
                0.8910628553062413,
                0.8911231192623692,
                0.9009461441112071,
                0.891946726662783,
                0.901347903818726,
                0.9008256161989514
            ],
            "test_score": 0.8802275030671574,
            "mean_training": 0.8963198810791265,
            "std_val": 0.004829170485492019,
            "confusion_matrix": [
                130852,
                17898,
                65,
                1161
            ],
            "log_loss": 0.267319963585457
        },
        {
            "type": "all metrics except edit, l1, half phoneme, using sgd, alpha= 0.001, shuffle=True, random_state= 42, 10-fold, imbalanced dataset (one percent true)",
            "cross_val": true,
            "log_weights": [
                [
                    [
                        -7.320303907294802,
                        9.722948204618111,
                        0.0,
                        -1.022190873249091
                    ]
                ],
                [
                    [
                        -7.123871623252981,
                        10.011056867603473,
                        0.0,
                        -1.0159407016085553
                    ]
                ],
                [
                    [
                        -7.3150679635343465,
                        9.801405720598908,
                        0.0,
                        -1.0649271410267003
                    ]
                ],
                [
                    [
                        -7.356696250796759,
                        9.67566843725582,
                        0.0,
                        -1.036250524518007
                    ]
                ],
                [
                    [
                        -7.353452213685419,
                        9.656706968075456,
                        0.0,
                        -0.9916399602146463
                    ]
                ],
                [
                    [
                        -7.4308282264584244,
                        9.666299280229843,
                        0.0,
                        -1.019133130299919
                    ]
                ],
                [
                    [
                        -7.518010136324964,
                        9.548609777650253,
                        0.0,
                        -1.011857377312101
                    ]
                ],
                [
                    [
                        -7.392893540853483,
                        9.666070644635102,
                        0.0,
                        -0.9961750354931752
                    ]
                ],
                [
                    [
                        -7.349119866402189,
                        9.76612815945721,
                        0.0,
                        -1.027637294865634
                    ]
                ],
                [
                    [
                        -7.480292195457502,
                        9.405311284304807,
                        0.0,
                        -0.9394554397683406
                    ]
                ]
            ],
            "training_score": [
                0.8986561137783492,
                0.8958638838110926,
                0.8997408649886502,
                0.8998011289447782,
                0.8988369056467327,
                0.8986159378075973,
                0.8989976095297403,
                0.8978927703340632,
                0.8987766416906049,
                0.8991984893834998
            ],
            "test_score": 0.8883021283405345,
            "mean_training": 0.8986380345915107,
            "std_val": 0.0010641116099746036,
            "confusion_matrix": [
                132072,
                16678,
                74,
                1152
            ],
            "log_loss": 0.2549403987090516
        },
        {
            "type": "all metrics except hamming and jaccard, l1, half phoneme, using sgd, alpha= 0.001, shuffle=True, random_state= 42, 10-fold, imbalanced dataset (one percent true)",
            "cross_val": true,
            "log_weights": [
                [
                    [
                        -6.8785823878305115,
                        2.9757030170891814,
                        4.618537570043991
                    ]
                ],
                [
                    [
                        -6.701089198816736,
                        3.210489054096773,
                        4.5956455703225565
                    ]
                ],
                [
                    [
                        -6.9733031703645745,
                        2.8294415973573686,
                        4.671569679957635
                    ]
                ],
                [
                    [
                        -6.94037812936913,
                        2.990488494555052,
                        4.527909794859616
                    ]
                ],
                [
                    [
                        -6.67057018853233,
                        3.2343487710119176,
                        4.61949179635983
                    ]
                ],
                [
                    [
                        -6.901449168952737,
                        2.9682757729021003,
                        4.562161621647387
                    ]
                ],
                [
                    [
                        -6.597527150021268,
                        3.2767161318302716,
                        4.688089020814215
                    ]
                ],
                [
                    [
                        -6.98967181554521,
                        2.9058597856991604,
                        4.572513302343995
                    ]
                ],
                [
                    [
                        -6.626764921258006,
                        3.2696809618918192,
                        4.682643212639952
                    ]
                ],
                [
                    [
                        -6.842896532648274,
                        2.963100145434377,
                        4.694239536652319
                    ]
                ]
            ],
            "training_score": [
                0.8508266205982202,
                0.8473513991281815,
                0.8478335107772041,
                0.8522930435306643,
                0.8492396697535204,
                0.8485165022799863,
                0.8477129828649484,
                0.8470500793475423,
                0.8481950945139712,
                0.8505453888029569
            ],
            "test_score": 0.8711060436336481,
            "mean_training": 0.8489564291597196,
            "std_val": 0.0016439644446117649,
            "confusion_matrix": [
                129574,
                19176,
                155,
                1071
            ],
            "log_loss": 0.3380412711708651
        },
        {
            "type": " hamming and jaccard, l1, half phoneme, using sgd, alpha= 0.001, shuffle=True, random_state= 42, 10-fold, imbalanced dataset (one percent true)",
            "cross_val": true,
            "log_weights": [
                [
                    [
                        -7.255322988099708,
                        8.97952376546141
                    ]
                ],
                [
                    [
                        -7.298490663017015,
                        8.987645576861599
                    ]
                ],
                [
                    [
                        -7.02140988325313,
                        9.20857297086692
                    ]
                ],
                [
                    [
                        -7.229083775979749,
                        8.989679283882207
                    ]
                ],
                [
                    [
                        -7.416853076861033,
                        8.867321519847708
                    ]
                ],
                [
                    [
                        -7.197036621229348,
                        9.044927037316459
                    ]
                ],
                [
                    [
                        -7.500474821052651,
                        8.733511567732538
                    ]
                ],
                [
                    [
                        -7.376582063332426,
                        8.895923757250934
                    ]
                ],
                [
                    [
                        -7.338512096848166,
                        8.937780736259986
                    ]
                ],
                [
                    [
                        -7.171230250391744,
                        9.111264135005007
                    ]
                ]
            ],
            "training_score": [
                0.8985154978807175,
                0.8982141781000783,
                0.8985556738514694,
                0.8993792812518833,
                0.8984753219099656,
                0.8996806010325225,
                0.8985556738514694,
                0.8974307466704164,
                0.897249954802033,
                0.8995801611056428
            ],
            "test_score": 0.8827812449991999,
            "mean_training": 0.8985637090456198,
            "std_val": 0.0007802417633837728,
            "confusion_matrix": [
                131239,
                17511,
                69,
                1157
            ],
            "log_loss": 0.26272216125475717
        },
        {
            "type": " edit and jaccard, l1, half phoneme, using sgd, alpha= 0.001, shuffle=True, random_state= 42, 10-fold, imbalanced dataset (one percent true)",
            "cross_val": true,
            "log_weights": [
                [
                    [
                        -1.0358779758390217,
                        15.150597571628305
                    ]
                ],
                [
                    [
                        -1.1509580503340366,
                        15.078916083102463
                    ]
                ],
                [
                    [
                        -1.3559395662907157,
                        14.865291783047514
                    ]
                ],
                [
                    [
                        -1.1414886220121496,
                        15.07781020493008
                    ]
                ],
                [
                    [
                        -1.271375356645572,
                        14.969543881368189
                    ]
                ],
                [
                    [
                        -1.0947887023447946,
                        15.152516387436668
                    ]
                ],
                [
                    [
                        -1.282519685181413,
                        14.933623908516406
                    ]
                ],
                [
                    [
                        -1.4230607406110019,
                        14.770921534820038
                    ]
                ],
                [
                    [
                        -1.2712509550034146,
                        14.883362953599722
                    ]
                ],
                [
                    [
                        -1.2362978472321446,
                        14.901506868283626
                    ]
                ]
            ],
            "training_score": [
                0.8989976095297403,
                0.897953034290191,
                0.8962053795624837,
                0.897189690845905,
                0.8880496574998493,
                0.8964263474016191,
                0.8898174002129327,
                0.8993591932665073,
                0.899499809164139,
                0.8989775215443643
            ],
            "test_score": 0.8827879127327038,
            "mean_training": 0.8962475643317731,
            "std_val": 0.003842621581150192,
            "confusion_matrix": [
                131242,
                17508,
                71,
                1155
            ],
            "log_loss": 0.2666337746846356
        },
        {
            "type": " edit and hamming, l1, half phoneme, using sgd, alpha= 0.001, shuffle=True, random_state= 42, 10-fold, imbalanced dataset (one percent true)",
            "cross_val": true,
            "log_weights": [
                [
                    [
                        -0.06322616475888465,
                        -16.203214350597342
                    ]
                ],
                [
                    [
                        -0.26531698953682487,
                        -15.876449746514703
                    ]
                ],
                [
                    [
                        -0.11963079069788705,
                        -16.027664074319468
                    ]
                ],
                [
                    [
                        -0.17788091149175067,
                        -15.999645941147392
                    ]
                ],
                [
                    [
                        -0.1404966584934284,
                        -16.097563893574875
                    ]
                ],
                [
                    [
                        -0.23136696241502233,
                        -15.949520788924376
                    ]
                ],
                [
                    [
                        -0.19407895422007002,
                        -16.035502690962083
                    ]
                ],
                [
                    [
                        -0.16533213398281593,
                        -16.010988842537955
                    ]
                ],
                [
                    [
                        -0.19201150759671257,
                        -15.982115336472026
                    ]
                ],
                [
                    [
                        -0.23059198806136622,
                        -15.922738837540676
                    ]
                ]
            ],
            "training_score": [
                0.8985757618368454,
                0.899881480886282,
                0.8999417448424097,
                0.9015487836724855,
                0.9010666720234628,
                0.9001426246961692,
                0.9007452642574476,
                0.9000020087985376,
                0.89984130491553,
                0.9014885197163577
            ],
            "test_score": 0.8802275030671574,
            "mean_training": 0.9003234165645526,
            "std_val": 0.0008575005449031189,
            "confusion_matrix": [
                130852,
                17898,
                65,
                1161
            ],
            "log_loss": 0.262643239491648
        },
        {
            "type": " hamming and weighed, l1, half phoneme, using sgd, alpha= 0.001, shuffle=True, random_state= 42, 10-fold, imbalanced dataset (one percent true)",
            "cross_val": true,
            "log_weights": [
                [
                    [
                        -16.18843233435114,
                        -0.29790134917043454
                    ]
                ],
                [
                    [
                        -16.158765119347986,
                        0.0
                    ]
                ],
                [
                    [
                        -16.190341253440945,
                        0.0
                    ]
                ],
                [
                    [
                        -16.422855069132652,
                        -0.7957199493928919
                    ]
                ],
                [
                    [
                        -16.29980081194607,
                        -0.7679521603827172
                    ]
                ],
                [
                    [
                        -16.165660552426065,
                        -0.5506117956846116
                    ]
                ],
                [
                    [
                        -16.083657044889122,
                        0.0
                    ]
                ],
                [
                    [
                        -16.274533810263904,
                        -0.7110972821845565
                    ]
                ],
                [
                    [
                        -16.16605048997616,
                        0.0
                    ]
                ],
                [
                    [
                        -16.19343897973134,
                        0.0
                    ]
                ]
            ],
            "training_score": [
                0.8999015688716578,
                0.8984552339245897,
                0.9000622727546654,
                0.8998011289447782,
                0.9028745907072979,
                0.900604648359816,
                0.9022317751752676,
                0.9028745907072979,
                0.9028143267511701,
                0.9010064080673349
            ],
            "test_score": 0.8802275030671574,
            "mean_training": 0.9010626544263876,
            "std_val": 0.0014816656171153413,
            "confusion_matrix": [
                130852,
                17898,
                65,
                1161
            ],
            "log_loss": 0.2567815964944814
        },
        {
            "type": " jaccard and lcs, l1, half phoneme, using sgd, alpha= 0.001, shuffle=True, random_state= 42, 10-fold, imbalanced dataset (one percent true)",
            "cross_val": true,
            "log_weights": [
                [
                    [
                        16.147966876030218,
                        0.0
                    ]
                ],
                [
                    [
                        16.12008482330031,
                        0.0
                    ]
                ],
                [
                    [
                        16.214807667101816,
                        0.0
                    ]
                ],
                [
                    [
                        16.178093195119445,
                        0.0
                    ]
                ],
                [
                    [
                        16.103474952137493,
                        0.0
                    ]
                ],
                [
                    [
                        16.10769030591106,
                        0.0
                    ]
                ],
                [
                    [
                        16.181174302211915,
                        0.0
                    ]
                ],
                [
                    [
                        16.19843224590324,
                        0.0
                    ]
                ],
                [
                    [
                        16.108054507632946,
                        0.0
                    ]
                ],
                [
                    [
                        16.135437295148712,
                        0.0
                    ]
                ]
            ],
            "training_score": [
                0.897973122275567,
                0.8978325063779353,
                0.8984552339245897,
                0.8984150579538378,
                0.9005644723890641,
                0.8978325063779353,
                0.8984351459392138,
                0.8973503947289126,
                0.8987766416906049,
                0.897591450553424
            ],
            "test_score": 0.8834746892836187,
            "mean_training": 0.8983226532211084,
            "std_val": 0.0008575099565575995,
            "confusion_matrix": [
                131346,
                17404,
                72,
                1154
            ],
            "log_loss": 0.26043133505138805
        },
        {
            "type": " all metrics, l1, half phoneme, using sgd, alpha= 0.001, shuffle=True, random_state= 42, 10-fold, imbalanced dataset one percent false",
            "cross_val": true,
            "log_weights": [
                [
                    [
                        -0.07114225799678534,
                        -7.288621622531546,
                        9.67988115272058,
                        0.0,
                        -1.001931090169925
                    ]
                ],
                [
                    [
                        0.0,
                        -7.771781768701794,
                        9.295478790491657,
                        0.0,
                        -1.0019306028017736
                    ]
                ],
                [
                    [
                        -0.2982135377742357,
                        -7.073184887707695,
                        9.751872043545916,
                        0.0,
                        -1.0611116523038429
                    ]
                ],
                [
                    [
                        0.0,
                        -7.460671454254984,
                        9.600561709567012,
                        0.0,
                        -1.0147604814883027
                    ]
                ],
                [
                    [
                        -0.2573946317587288,
                        -7.333851947941041,
                        9.417907669128015,
                        0.0,
                        -0.9957534496854576
                    ]
                ],
                [
                    [
                        0.0,
                        -7.120433374847163,
                        9.97938335138895,
                        0.0,
                        -1.015051325017883
                    ]
                ],
                [
                    [
                        -0.12094726637081844,
                        -7.447899281979181,
                        9.452988307591538,
                        0.0,
                        -1.0025364148145643
                    ]
                ],
                [
                    [
                        -0.11289163136025619,
                        -7.212364150532833,
                        9.781426906633664,
                        0.0,
                        -1.026699874953787
                    ]
                ],
                [
                    [
                        -0.10245622240578726,
                        -7.622769146420268,
                        9.283466198971592,
                        0.0,
                        -0.9778285240221375
                    ]
                ],
                [
                    [
                        -0.15591203691421085,
                        -7.253378058179009,
                        9.680414226175994,
                        0.0,
                        -1.0234284721871874
                    ]
                ]
            ],
            "training_score": [
                0.900202888652297,
                0.8996806010325225,
                0.9004640324621843,
                0.8994596331933871,
                0.9006247363451919,
                0.9009260561258311,
                0.9002631526084249,
                0.9006649123159438,
                0.8998011289447782,
                0.9006448243305679
            ],
            "test_score": 0.9060661096985108,
            "mean_training": 0.9002731966011128,
            "std_val": 0.0004602954849893016,
            "confusion_matrix": [
                1139,
                111,
                11526,
                111109
            ],
            "log_loss": 0.2546475399716164
        },
        {
            "type": " all metrics except lcs, l1, half phoneme, using sgd, alpha= 0.001, shuffle=True, random_state= 42, 10-fold, imbalanced dataset one percent false",
            "cross_val": true,
            "log_weights": [
                [
                    [
                        -0.11366192945796663,
                        -7.367949988218335,
                        9.608583561934775,
                        -1.0491282977268637
                    ]
                ],
                [
                    [
                        -0.17564173549731912,
                        -7.261909317996613,
                        9.598205597335035,
                        -1.0104106113576974
                    ]
                ],
                [
                    [
                        -0.18872160739824786,
                        -7.48467569983136,
                        9.510088056493245,
                        -1.077519417204207
                    ]
                ],
                [
                    [
                        -0.2651814076964129,
                        -7.343785258890276,
                        9.474706014108097,
                        -1.0114845435845328
                    ]
                ],
                [
                    [
                        -0.22527824858426196,
                        -7.54581100711594,
                        9.291145898848091,
                        -1.0607404773468365
                    ]
                ],
                [
                    [
                        -0.13493623815819042,
                        -7.233055106062988,
                        9.765075869079546,
                        -0.9944319594884973
                    ]
                ],
                [
                    [
                        -0.15985754627371818,
                        -7.450933777659171,
                        9.527611957685282,
                        -1.0393173105970421
                    ]
                ],
                [
                    [
                        -0.16901873362603548,
                        -7.3381774417793535,
                        9.552412253773907,
                        -1.0304298321081304
                    ]
                ],
                [
                    [
                        -0.3087210065954752,
                        -7.467920892297517,
                        9.301424671891446,
                        -1.0173851595681156
                    ]
                ],
                [
                    [
                        -0.10653586796071221,
                        -7.268574729710018,
                        9.749422047490672,
                        -1.0399221635935585
                    ]
                ]
            ],
            "training_score": [
                0.900202888652297,
                0.9002430646230489,
                0.8974307466704164,
                0.8991583134127479,
                0.900966232096583,
                0.8966473152407545,
                0.8983949699684619,
                0.8995801611056428,
                0.9001024487254173,
                0.8984753219099656
            ],
            "test_score": 0.9101343988376317,
            "mean_training": 0.8991201462405336,
            "std_val": 0.0013011510864131687,
            "confusion_matrix": [
                1133,
                117,
                11016,
                111619
            ],
            "log_loss": 0.24831895278611196
        },
        {
            "type": " all metrics except jaccard, l1, half phoneme, using sgd, alpha= 0.001, shuffle=True, random_state= 42, 10-fold, imbalanced dataset one percent false",
            "cross_val": true,
            "log_weights": [
                [
                    [
                        0.0,
                        -15.93432292623315,
                        0.23437894874444476,
                        -0.7172131170335123
                    ]
                ],
                [
                    [
                        -0.17293231868315412,
                        -15.357510429307894,
                        0.14839168208150813,
                        0.0
                    ]
                ],
                [
                    [
                        -0.005854019048457844,
                        -16.168397324966485,
                        0.06439051242411778,
                        -0.7566364438819501
                    ]
                ],
                [
                    [
                        0.0,
                        -15.920832213038137,
                        0.0,
                        -0.523747881797222
                    ]
                ],
                [
                    [
                        0.0,
                        -15.73089655472688,
                        0.0,
                        -0.33765011443843346
                    ]
                ],
                [
                    [
                        0.0,
                        -15.563732475722379,
                        0.05055957644881568,
                        0.0
                    ]
                ],
                [
                    [
                        -0.4438726132253995,
                        -15.233513429264084,
                        0.0,
                        0.0
                    ]
                ],
                [
                    [
                        -0.5264381441100912,
                        -15.324535386507197,
                        0.0,
                        0.0
                    ]
                ],
                [
                    [
                        -0.33299224191236876,
                        -15.42130679445207,
                        0.0,
                        0.0
                    ]
                ],
                [
                    [
                        0.0,
                        -15.660131236196074,
                        0.009236307958604677,
                        0.0
                    ]
                ]
            ],
            "training_score": [
                0.8937345573612422,
                0.8922078704726703,
                0.8940760531126334,
                0.9020509833068842,
                0.8936140294489866,
                0.902452743014403,
                0.8927703340631968,
                0.8887728249733834,
                0.9004841204475603,
                0.9005042084329362
            ],
            "test_score": 0.9191588973644913,
            "mean_training": 0.8960667724633897,
            "std_val": 0.004584458968002281,
            "confusion_matrix": [
                1123,
                127,
                9888,
                112747
            ],
            "log_loss": 0.2510895163935565
        },
        {
            "type": " all metrics except edit, l1, half phoneme, using sgd, alpha= 0.001, shuffle=True, random_state= 42, 10-fold, imbalanced dataset one percent false",
            "cross_val": true,
            "log_weights": [
                [
                    [
                        -7.455667215524211,
                        9.676074795646503,
                        0.0,
                        -1.0334569379214977
                    ]
                ],
                [
                    [
                        -7.267626557844303,
                        9.825633911100226,
                        0.0,
                        -0.9846398015920836
                    ]
                ],
                [
                    [
                        -7.338715640774059,
                        9.699076083510882,
                        0.0,
                        -0.9729805949741335
                    ]
                ],
                [
                    [
                        -7.69434178198548,
                        9.385473486455474,
                        0.0,
                        -1.0237114493859452
                    ]
                ],
                [
                    [
                        -7.669190750305151,
                        9.27929869500489,
                        0.0,
                        -0.950593564173729
                    ]
                ],
                [
                    [
                        -7.114487831396785,
                        9.956957947921948,
                        0.0,
                        -1.0086038711620804
                    ]
                ],
                [
                    [
                        -7.49680510064868,
                        9.542281722567287,
                        0.0,
                        -0.9821979324572305
                    ]
                ],
                [
                    [
                        -7.346225242764052,
                        9.677829313905088,
                        0.0,
                        -0.9852418856214901
                    ]
                ],
                [
                    [
                        -7.383247274925057,
                        9.655921681151089,
                        0.0,
                        -1.025262307642667
                    ]
                ],
                [
                    [
                        -7.444240554777135,
                        9.596544355058091,
                        0.0,
                        -1.0073159088204675
                    ]
                ]
            ],
            "training_score": [
                0.89835479399771,
                0.8963660834454913,
                0.9006850003013198,
                0.8991583134127479,
                0.8986762017637251,
                0.8996002490910187,
                0.8986360257929732,
                0.8987967296759808,
                0.8997609529740263,
                0.9001828006669211
            ],
            "test_score": 0.9091092545505913,
            "mean_training": 0.8990217151121913,
            "std_val": 0.0011327130287974339,
            "confusion_matrix": [
                1137,
                113,
                11147,
                111488
            ],
            "log_loss": 0.2505249968262636
        },
        {
            "type": " all metrics except hamming and jaccard, l1, half phoneme, using sgd, alpha= 0.001, shuffle=True, random_state= 42, 10-fold, imbalanced dataset one percent false",
            "cross_val": true,
            "log_weights": [
                [
                    [
                        -6.813443640141691,
                        3.0719505322426746,
                        4.602207967045742
                    ]
                ],
                [
                    [
                        -6.809895112975016,
                        3.027004874874797,
                        4.683354915152727
                    ]
                ],
                [
                    [
                        -6.672381773395253,
                        3.099123494599523,
                        4.8028575266878475
                    ]
                ],
                [
                    [
                        -6.876947360623283,
                        2.910199647494746,
                        4.710784268802345
                    ]
                ],
                [
                    [
                        -7.152554816962337,
                        2.676201070593852,
                        4.615540921340067
                    ]
                ],
                [
                    [
                        -6.858873433569209,
                        2.9638090764655516,
                        4.64655396131914
                    ]
                ],
                [
                    [
                        -6.663585958580612,
                        3.2191090989287248,
                        4.606422391199535
                    ]
                ],
                [
                    [
                        -6.685032145048592,
                        3.2081696937850324,
                        4.703157901327819
                    ]
                ],
                [
                    [
                        -6.760446548961866,
                        3.0586917363377495,
                        4.764448689490909
                    ]
                ],
                [
                    [
                        -6.957049282349363,
                        2.85198948231369,
                        4.621400154682961
                    ]
                ]
            ],
            "training_score": [
                0.8485165022799863,
                0.8542415781121311,
                0.8504047729053253,
                0.8506659167152126,
                0.8509873244812278,
                0.8510676764227315,
                0.8479942146602117,
                0.8476326309234447,
                0.848255358470099,
                0.8518310198670176
            ],
            "test_score": 0.8284376639625459,
            "mean_training": 0.8501596994837387,
            "std_val": 0.001966793300327031,
            "confusion_matrix": [
                1082,
                168,
                21086,
                101549
            ],
            "log_loss": 0.3296435304609654
        },
        {
            "type": " all metrics except hamming, l1, half phoneme, using sgd, alpha= 0.001, shuffle=True, random_state= 42, 10-fold, imbalanced dataset one percent false",
            "cross_val": true,
            "log_weights": [
                [
                    [
                        0.0,
                        -15.739405637406113,
                        0.19147144978933106,
                        -0.5753572265869413
                    ]
                ],
                [
                    [
                        0.0,
                        -15.502853327042487,
                        0.26247549423976374,
                        -0.3715208139377598
                    ]
                ],
                [
                    [
                        0.0,
                        -15.877333433686065,
                        0.2485885557970255,
                        -0.6916077141037447
                    ]
                ],
                [
                    [
                        0.0,
                        -15.457324376105515,
                        0.17424002917023368,
                        0.0
                    ]
                ],
                [
                    [
                        0.0,
                        -15.211935295112486,
                        0.4476897301817009,
                        0.0
                    ]
                ],
                [
                    [
                        -0.3131765580155112,
                        -15.715622243087372,
                        0.0,
                        0.0
                    ]
                ],
                [
                    [
                        -0.28491198112764893,
                        -15.456182229527087,
                        0.0,
                        0.0
                    ]
                ],
                [
                    [
                        0.0,
                        -15.532962983224168,
                        0.12440641207783679,
                        0.0
                    ]
                ],
                [
                    [
                        -0.12769635717074615,
                        -15.479857753499054,
                        0.10389941783258445,
                        0.0
                    ]
                ],
                [
                    [
                        0.0,
                        -15.579604254334308,
                        0.050979397618517684,
                        0.0
                    ]
                ]
            ],
            "training_score": [
                0.9021715112191399,
                0.9015688716578615,
                0.8951407163375585,
                0.8921074305457906,
                0.8994596331933871,
                0.8987766416906049,
                0.9011068479942147,
                0.898716377734477,
                0.9011269359795906,
                0.8923685743556778
            ],
            "test_score": 0.8732211325019171,
            "mean_training": 0.8982543540708303,
            "std_val": 0.0035606088659613376,
            "confusion_matrix": [
                1152,
                98,
                15608,
                107027
            ],
            "log_loss": 0.2545992326934883
        },
        {
            "type": " all metrics except jaccard, l1, half phoneme, using sgd, alpha= 0.001, shuffle=True, random_state= 42, 10-fold, imbalanced dataset one percent false",
            "cross_val": true,
            "log_weights": [
                [
                    [
                        -1.0763472933269786,
                        15.858845425163477,
                        0.0,
                        -0.8538832977727572
                    ]
                ],
                [
                    [
                        -1.3075343378730673,
                        15.165129162437294,
                        0.0,
                        -0.5855928314207542
                    ]
                ],
                [
                    [
                        -0.9891830473238866,
                        15.863548434953639,
                        0.0,
                        -0.8428824206734038
                    ]
                ],
                [
                    [
                        -1.1705688405668795,
                        15.422711108690887,
                        0.0,
                        -0.656725471660475
                    ]
                ],
                [
                    [
                        -0.9483294338840945,
                        15.926144582556217,
                        0.0,
                        -0.8296594653292702
                    ]
                ],
                [
                    [
                        -1.1930897777443286,
                        15.509691214628356,
                        0.0,
                        -0.6926050074992314
                    ]
                ],
                [
                    [
                        -1.0520375118926641,
                        15.812208857133438,
                        0.0,
                        -0.8668429477313675
                    ]
                ],
                [
                    [
                        -1.2507339552820542,
                        15.36572508651431,
                        0.0,
                        -0.690781009573571
                    ]
                ],
                [
                    [
                        -1.2188288064625592,
                        15.270539846299611,
                        0.0,
                        -0.5468117472532115
                    ]
                ],
                [
                    [
                        -1.2819452852405147,
                        15.57458668120168,
                        0.0,
                        -0.8374395687627161
                    ]
                ]
            ],
            "training_score": [
                0.8985757618368454,
                0.9001828006669211,
                0.8981940901147024,
                0.8970289869628975,
                0.8985154978807175,
                0.8963660834454913,
                0.8995198971495149,
                0.8997810409594021,
                0.8989373455736124,
                0.8993190172957554
            ],
            "test_score": 0.9078096621867054,
            "mean_training": 0.898642052188586,
            "std_val": 0.0011397537704966126,
            "confusion_matrix": [
                1127,
                123,
                11298,
                111337
            ],
            "log_loss": 0.25382357683070805
        },
        {
            "type": "hamming and jaccard, l1, half phoneme, using sgd, alpha= 0.001, shuffle=True, random_state= 42, 10-fold, imbalanced dataset one percent false",
            "cross_val": true,
            "log_weights": [
                [
                    [
                        -6.922530090377933,
                        9.336288627768106
                    ]
                ],
                [
                    [
                        -7.257874273287799,
                        9.04002108237632
                    ]
                ],
                [
                    [
                        -7.225392364976454,
                        9.012733425237347
                    ]
                ],
                [
                    [
                        -7.058277117633514,
                        9.21544957411073
                    ]
                ],
                [
                    [
                        -7.181550962812146,
                        9.088055402790419
                    ]
                ],
                [
                    [
                        -7.101177667133221,
                        9.127894808529208
                    ]
                ],
                [
                    [
                        -7.14959335164401,
                        9.085632535628962
                    ]
                ],
                [
                    [
                        -7.307243984448331,
                        8.991935547056126
                    ]
                ],
                [
                    [
                        -7.055537048392729,
                        9.166449707575651
                    ]
                ],
                [
                    [
                        -7.2355321811326485,
                        9.021420193366998
                    ]
                ]
            ],
            "training_score": [
                0.8989172575882365,
                0.8987565537052289,
                0.8999015688716578,
                0.898334706012334,
                0.8973303067435366,
                0.8995198971495149,
                0.8997609529740263,
                0.8970892509190254,
                0.8996203370763947,
                0.8984552339245897
            ],
            "test_score": 0.9121039673891108,
            "mean_training": 0.8987686064964544,
            "std_val": 0.000935729322604775,
            "confusion_matrix": [
                1125,
                125,
                10764,
                111871
            ],
            "log_loss": 0.24935932273297137
        },
        {
            "type": "edit and jaccard, l1, half phoneme, using sgd, alpha= 0.001, shuffle=True, random_state= 42, 10-fold, imbalanced dataset one percent false",
            "cross_val": true,
            "log_weights": [
                [
                    [
                        -1.1536198918755265,
                        15.088401127685032
                    ]
                ],
                [
                    [
                        -1.2032646955247819,
                        14.99181347663355
                    ]
                ],
                [
                    [
                        -1.20226279537762,
                        14.965652469021135
                    ]
                ],
                [
                    [
                        -1.3211438276382532,
                        14.873024634716026
                    ]
                ],
                [
                    [
                        -1.282414788886361,
                        14.96619948895706
                    ]
                ],
                [
                    [
                        -1.0638585563005338,
                        15.15505214856451
                    ]
                ],
                [
                    [
                        -1.2332728806597792,
                        14.96496888278109
                    ]
                ],
                [
                    [
                        -1.2506046049720652,
                        14.928624121552593
                    ]
                ],
                [
                    [
                        -1.4307407648762809,
                        14.776293031004565
                    ]
                ],
                [
                    [
                        -1.3184782801727557,
                        14.873734036354612
                    ]
                ]
            ],
            "training_score": [
                0.8967276671822583,
                0.8962053795624837,
                0.8988569936321086,
                0.89686828307989,
                0.8975110986119202,
                0.8985154978807175,
                0.8975110986119202,
                0.8985958498222213,
                0.8963058194893634,
                0.8975110986119202
            ],
            "test_score": 0.9114097751947371,
            "mean_training": 0.8974608786484802,
            "std_val": 0.0009031219546679858,
            "confusion_matrix": [
                1123,
                127,
                10848,
                111787
            ],
            "log_loss": 0.2541938966656458
        },
        {
            "type": "edit and hamming, l1, half phoneme, using sgd, alpha= 0.001, shuffle=True, random_state= 42, 10-fold, imbalanced dataset one percent false",
            "cross_val": true,
            "log_weights": [
                [
                    [
                        -0.19549647472062032,
                        -15.936760635312936
                    ]
                ],
                [
                    [
                        -0.3738283436862446,
                        -15.739320168662537
                    ]
                ],
                [
                    [
                        -0.2915982702188938,
                        -15.832029509914285
                    ]
                ],
                [
                    [
                        -0.2634798657131999,
                        -15.909173074016236
                    ]
                ],
                [
                    [
                        -0.3043699810418374,
                        -15.885445607016582
                    ]
                ],
                [
                    [
                        -0.32350160797195726,
                        -15.787407450726215
                    ]
                ],
                [
                    [
                        -0.13679687426977172,
                        -16.098953579200618
                    ]
                ],
                [
                    [
                        -0.15595497714846174,
                        -16.054962128118575
                    ]
                ],
                [
                    [
                        -0.1342761884790669,
                        -16.082593738331255
                    ]
                ],
                [
                    [
                        -0.09707388578403951,
                        -16.13433962165452
                    ]
                ]
            ],
            "training_score": [
                0.9017094875554931,
                0.899499809164139,
                0.9000220967839135,
                0.8994194572226352,
                0.8910628553062413,
                0.8989172575882365,
                0.8892549366224062,
                0.8902794238765794,
                0.8930113898877081,
                0.9002631526084249
            ],
            "test_score": 0.9191588973644913,
            "mean_training": 0.8963439866615776,
            "std_val": 0.004579809118464878,
            "confusion_matrix": [
                1123,
                127,
                9888,
                112747
            ],
            "log_loss": 0.25299830455043265
        },
        {
            "type": "hamming and weighed, l1, half phoneme, using sgd, alpha= 0.001, shuffle=True, random_state= 42, 10-fold, imbalanced dataset one percent false",
            "cross_val": true,
            "log_weights": [
                [
                    [
                        -16.229726158964258,
                        0.0
                    ]
                ],
                [
                    [
                        -16.51213704459779,
                        -0.8922013757058036
                    ]
                ],
                [
                    [
                        -16.446869151906917,
                        -0.8639550973949124
                    ]
                ],
                [
                    [
                        -16.314814105336538,
                        -0.732571305736627
                    ]
                ],
                [
                    [
                        -16.188004054828927,
                        0.0
                    ]
                ],
                [
                    [
                        -16.149060531598487,
                        -0.12173556229132103
                    ]
                ],
                [
                    [
                        -16.22202050586593,
                        -0.5116660165945697
                    ]
                ],
                [
                    [
                        -16.190300097406944,
                        0.0
                    ]
                ],
                [
                    [
                        -16.237103903985535,
                        -0.6023993616634765
                    ]
                ],
                [
                    [
                        -16.096576083197817,
                        0.0
                    ]
                ]
            ],
            "training_score": [
                0.8888732649002632,
                0.9022719511460195,
                0.9030553825756815,
                0.9021715112191399,
                0.9007854402281995,
                0.8990779614712441,
                0.8999417448424097,
                0.9018300154677488,
                0.8936140294489866,
                0.9025531829412828
            ],
            "test_score": 0.9191588973644913,
            "mean_training": 0.8994174484240975,
            "std_val": 0.004378834787344884,
            "confusion_matrix": [
                1123,
                127,
                9888,
                112747
            ],
            "log_loss": 0.24929465500559167
        },
        {
            "type": "jaccard and lcs, l1, half phoneme, using sgd, alpha= 0.001, shuffle=True, random_state= 42, 10-fold, imbalanced dataset one percent false",
            "cross_val": true,
            "log_weights": [
                [
                    [
                        16.187050154735587,
                        0.0
                    ]
                ],
                [
                    [
                        16.16899550493308,
                        0.0
                    ]
                ],
                [
                    [
                        16.213921937022796,
                        0.0
                    ]
                ],
                [
                    [
                        16.125415329007566,
                        0.0
                    ]
                ],
                [
                    [
                        16.190044894280124,
                        0.0
                    ]
                ],
                [
                    [
                        16.106385128204025,
                        0.0
                    ]
                ],
                [
                    [
                        16.191925263846596,
                        0.0
                    ]
                ],
                [
                    [
                        16.25691781921973,
                        0.0
                    ]
                ],
                [
                    [
                        16.138973759319825,
                        0.0
                    ]
                ],
                [
                    [
                        16.1585135775794,
                        0.0
                    ]
                ]
            ],
            "training_score": [
                0.8964464353869951,
                0.8988770816174846,
                0.8980132982463189,
                0.8977521544364315,
                0.8983748819830859,
                0.8970289869628975,
                0.8968281071091381,
                0.8966473152407545,
                0.8976316265241759,
                0.8969486350213937
            ],
            "test_score": 0.9102070468579732,
            "mean_training": 0.8974548522528675,
            "std_val": 0.0007615863664847533,
            "confusion_matrix": [
                1126,
                124,
                11000,
                111635
            ],
            "log_loss": 0.2539495967792307
        },
        {
            "type": "all metrics, l1, full phoneme, using sgd, alpha= 0.001, shuffle=True, random_state= 42, 10-fold, imbalanced dataset one percent true",
            "cross_val": true,
            "log_weights": [
                [
                    [
                        -1.9332015581044752,
                        -7.3563105885128675,
                        11.190354578943454,
                        0.0,
                        0.0
                    ]
                ],
                [
                    [
                        -1.8433873628938309,
                        -7.269402733973533,
                        11.308388217424833,
                        0.0,
                        0.0
                    ]
                ],
                [
                    [
                        -1.9130589326752587,
                        -7.2524116602967625,
                        11.295929442027063,
                        0.0,
                        0.0
                    ]
                ],
                [
                    [
                        -1.885451106569568,
                        -7.481923938570437,
                        11.093829837555914,
                        0.0,
                        0.0
                    ]
                ],
                [
                    [
                        -1.8964969045939335,
                        -7.520089386369696,
                        11.058847312659676,
                        0.0,
                        0.0
                    ]
                ],
                [
                    [
                        -1.8855544502922743,
                        -7.502864959710342,
                        11.080696529064678,
                        0.0,
                        0.0
                    ]
                ],
                [
                    [
                        -1.9346222891070652,
                        -7.159375135425737,
                        11.314008120882773,
                        0.0,
                        0.0
                    ]
                ],
                [
                    [
                        -1.926160376526505,
                        -7.439378323466663,
                        11.173530733333209,
                        0.0,
                        0.0
                    ]
                ],
                [
                    [
                        -1.971912196927014,
                        -7.426221590486661,
                        10.997443613917312,
                        0.0,
                        0.0
                    ]
                ],
                [
                    [
                        -2.0372148258223524,
                        -7.007040747837451,
                        11.44826778613365,
                        0.0,
                        0.0
                    ]
                ]
            ],
            "training_score": [
                0.8807376308230047,
                0.8837106526586449,
                0.881420622325787,
                0.881420622325787,
                0.8811193025451477,
                0.8817420300918021,
                0.8806974548522528,
                0.8797332315542075,
                0.8833289809365019,
                0.882907133243607
            ],
            "test_score": 0.8761735210967088,
            "mean_training": 0.8816817661356744,
            "std_val": 0.0012018593134304279,
            "confusion_matrix": [
                130270,
                18480,
                91,
                1135
            ],
            "log_loss": 0.28103496961522234
        },
        {
            "type": "all metrics except edit, l1, full phoneme, using sgd, alpha= 0.001, shuffle=True, random_state= 42, 10-fold, imbalanced dataset one percent true",
            "cross_val": true,
            "log_weights": [
                [
                    [
                        -8.487334546581831,
                        11.78058193045187,
                        0.0,
                        0.0
                    ]
                ],
                [
                    [
                        -8.589707525689873,
                        11.67703097343358,
                        0.0,
                        0.0
                    ]
                ],
                [
                    [
                        -8.68249173933391,
                        11.552101438126956,
                        0.0,
                        0.0
                    ]
                ],
                [
                    [
                        -8.622763671933393,
                        11.575190509883676,
                        0.0,
                        0.0
                    ]
                ],
                [
                    [
                        -8.673509124411382,
                        11.463885333311921,
                        0.0,
                        0.0
                    ]
                ],
                [
                    [
                        -8.623022289654754,
                        11.576671704467778,
                        0.0,
                        0.0
                    ]
                ],
                [
                    [
                        -8.528334354201956,
                        11.698610632555782,
                        0.0,
                        0.0
                    ]
                ],
                [
                    [
                        -8.418540565237928,
                        11.767430910215403,
                        0.0,
                        0.0
                    ]
                ],
                [
                    [
                        -8.814279548543361,
                        11.341327382569023,
                        0.0,
                        0.0
                    ]
                ],
                [
                    [
                        -8.778097290782382,
                        11.462550856514307,
                        0.0,
                        0.0
                    ]
                ]
            ],
            "training_score": [
                0.8783069845925152,
                0.8779253128703722,
                0.8784676884755228,
                0.878769008256162,
                0.8804162230569896,
                0.8774432012213496,
                0.8780458407826279,
                0.8777445210019887,
                0.879130591992929,
                0.8780659287680038
            ],
            "test_score": 0.8818610977756441,
            "mean_training": 0.8784315301018462,
            "std_val": 0.0008090646526267419,
            "confusion_matrix": [
                131129,
                17621,
                97,
                1129
            ],
            "log_loss": 0.29161390497215584
        },
        {
            "type": "all metrics except hamming and jaccard, l1, full phoneme, using sgd, alpha= 0.001, shuffle=True, random_state= 42, 10-fold, imbalanced dataset one percent true",
            "cross_val": true,
            "log_weights": [
                [
                    [
                        -10.207185117008462,
                        0.8659686740414176,
                        7.8790434724612215
                    ]
                ],
                [
                    [
                        -9.848992155517081,
                        1.3081713470275036,
                        7.8129904642129056
                    ]
                ],
                [
                    [
                        -9.891707773143734,
                        1.230332514393577,
                        7.7841394882913795
                    ]
                ],
                [
                    [
                        -9.915770849463348,
                        1.2099103489579535,
                        7.791782915593081
                    ]
                ],
                [
                    [
                        -9.87853773790712,
                        1.2840357531527267,
                        7.788769036221519
                    ]
                ],
                [
                    [
                        -9.918247791708783,
                        1.193898995675048,
                        7.762152283244847
                    ]
                ],
                [
                    [
                        -9.869018436511627,
                        1.2398208563340947,
                        7.857738148340123
                    ]
                ],
                [
                    [
                        -9.995615885877402,
                        1.02023136521428,
                        7.871646306845266
                    ]
                ],
                [
                    [
                        -9.834603570828666,
                        1.2924243412967635,
                        7.870307321606542
                    ]
                ],
                [
                    [
                        -10.003235084932728,
                        1.0642234301806384,
                        7.793390085738842
                    ]
                ]
            ],
            "training_score": [
                0.8549245696149134,
                0.8542616660975071,
                0.8587613748217191,
                0.8522327795745365,
                0.8588819027339748,
                0.8560294088105904,
                0.8556678250738233,
                0.8589823426608545,
                0.8562503766497258,
                0.8532974427994616
            ],
            "test_score": 0.8743398943831013,
            "mean_training": 0.8559289688837108,
            "std_val": 0.002249944038824948,
            "confusion_matrix": [
                130078,
                18672,
                174,
                1052
            ],
            "log_loss": 0.3502680438244856
        },
        {
            "type": "hamming and jaccard, l1, full phoneme, using sgd, alpha= 0.001, shuffle=True, random_state= 42, 10-fold, imbalanced dataset one percent true",
            "cross_val": true,
            "log_weights": [
                [
                    [
                        -8.92974188970481,
                        11.216797850563454
                    ]
                ],
                [
                    [
                        -8.534324391997329,
                        11.63754597038116
                    ]
                ],
                [
                    [
                        -8.961671955991935,
                        11.250864052990375
                    ]
                ],
                [
                    [
                        -9.078707566485317,
                        11.1858666588835
                    ]
                ],
                [
                    [
                        -8.883014469669718,
                        11.398601159666228
                    ]
                ],
                [
                    [
                        -8.736197475672677,
                        11.479524419620676
                    ]
                ],
                [
                    [
                        -8.79201118478177,
                        11.40363732409191
                    ]
                ],
                [
                    [
                        -8.743027208910254,
                        11.490966451062752
                    ]
                ],
                [
                    [
                        -9.185590460289399,
                        11.040518290808055
                    ]
                ],
                [
                    [
                        -8.623622591835302,
                        11.6495743882932
                    ]
                ]
            ],
            "training_score": [
                0.8785681284024025,
                0.8796930555834556,
                0.8778650489142444,
                0.8780458407826279,
                0.8775436411482292,
                0.8785882163877785,
                0.8798537594664632,
                0.8788292722122898,
                0.8773628492798458,
                0.8771217934553344
            ],
            "test_score": 0.882087800714781,
            "mean_training": 0.8783471605632671,
            "std_val": 0.0008865608807978538,
            "confusion_matrix": [
                131163,
                17587,
                97,
                1129
            ],
            "log_loss": 0.28783478857018696
        },
        {
            "type": "lcs and weighed, l1, full phoneme, using sgd, alpha= 0.001, shuffle=True, random_state= 42, 10-fold, imbalanced dataset one percent true",
            "cross_val": true,
            "log_weights": [
                [
                    [
                        9.520571163919332,
                        9.592305467762666
                    ]
                ],
                [
                    [
                        9.544066960226097,
                        9.563015382032368
                    ]
                ],
                [
                    [
                        9.53002283458168,
                        9.583794126412908
                    ]
                ],
                [
                    [
                        9.500164814346695,
                        9.626798968764916
                    ]
                ],
                [
                    [
                        9.468920067913734,
                        9.622820550448075
                    ]
                ],
                [
                    [
                        9.511765133082369,
                        9.610970291793844
                    ]
                ],
                [
                    [
                        9.498700172831093,
                        9.609470547457098
                    ]
                ],
                [
                    [
                        9.531096801593927,
                        9.573579166319838
                    ]
                ],
                [
                    [
                        9.5061617114113,
                        9.583195732192927
                    ]
                ],
                [
                    [
                        9.50507406515549,
                        9.627510999561743
                    ]
                ]
            ],
            "training_score": [
                0.8295534440850927,
                0.8269219180008437,
                0.8301761716317471,
                0.8278057893573854,
                0.8280267571965207,
                0.8291315963921978,
                0.8286093087724232,
                0.8274442056206183,
                0.8292119483337016,
                0.8240091601213314
            ],
            "test_score": 0.8357337173947832,
            "mean_training": 0.8280890299511862,
            "std_val": 0.0016621263297444092,
            "confusion_matrix": [
                124266,
                24484,
                152,
                1074
            ],
            "log_loss": 0.387852629366503
        },
        {
            "type": "edit and jaccard, l1, full phoneme, using sgd, alpha= 0.001, shuffle=True, random_state= 42, 10-fold, imbalanced dataset one percent true",
            "cross_val": true,
            "log_weights": [
                [
                    [
                        -2.998498235699193,
                        17.43930293964614
                    ]
                ],
                [
                    [
                        -2.8767618037278258,
                        17.592167964526226
                    ]
                ],
                [
                    [
                        -3.1632090023362056,
                        17.214630402640193
                    ]
                ],
                [
                    [
                        -3.1255344059903223,
                        17.349566923068615
                    ]
                ],
                [
                    [
                        -2.9931456426364043,
                        17.437197745812057
                    ]
                ],
                [
                    [
                        -3.106137554175907,
                        17.321674095965314
                    ]
                ],
                [
                    [
                        -3.252308949074663,
                        17.130673869876247
                    ]
                ],
                [
                    [
                        -3.214530777873302,
                        17.18270055638978
                    ]
                ],
                [
                    [
                        -3.2813816872365287,
                        17.220632031186867
                    ]
                ],
                [
                    [
                        -3.2227730675514117,
                        17.147347379543234
                    ]
                ]
            ],
            "training_score": [
                0.8808179827645085,
                0.8808179827645085,
                0.8831080130973664,
                0.882525461521464,
                0.8821437897993211,
                0.8801349912617263,
                0.8804965749984934,
                0.8808179827645085,
                0.879914023422591,
                0.8803358711154858
            ],
            "test_score": 0.8763202112337974,
            "mean_training": 0.8811112673509974,
            "std_val": 0.0010332803548211715,
            "confusion_matrix": [
                130294,
                18456,
                93,
                1133
            ],
            "log_loss": 0.2924056311387906
        },
        {
            "type": "edit and hamming, l1, full phoneme, using sgd, alpha= 0.001, shuffle=True, random_state= 42, 10-fold, imbalanced dataset one percent true",
            "cross_val": true,
            "log_weights": [
                [
                    [
                        -1.9386200606765502,
                        -18.197854390442632
                    ]
                ],
                [
                    [
                        -1.8194014061533592,
                        -18.479765902731177
                    ]
                ],
                [
                    [
                        -1.7757219925703907,
                        -18.6231057235405
                    ]
                ],
                [
                    [
                        -1.8874693021607145,
                        -18.486826452190293
                    ]
                ],
                [
                    [
                        -1.9261533205296812,
                        -18.277534506256924
                    ]
                ],
                [
                    [
                        -1.9831341073523645,
                        -18.199387027069548
                    ]
                ],
                [
                    [
                        -2.134257063932754,
                        -18.039467728332088
                    ]
                ],
                [
                    [
                        -1.8951618943834811,
                        -18.287471119692523
                    ]
                ],
                [
                    [
                        -2.144397652949443,
                        -18.075052782232625
                    ]
                ],
                [
                    [
                        -2.1399749947405966,
                        -18.038627341633877
                    ]
                ]
            ],
            "training_score": [
                0.8817018541210502,
                0.8827464293605994,
                0.880637190896125,
                0.8804363110423655,
                0.8805568389546212,
                0.8837106526586449,
                0.8818826459894337,
                0.8834093328780057,
                0.8805367509692453,
                0.8811393905305237
            ],
            "test_score": 0.8751466901370886,
            "mean_training": 0.8816757397400614,
            "std_val": 0.0011742127675505147,
            "confusion_matrix": [
                130111,
                18639,
                86,
                1140
            ],
            "log_loss": 0.27957645777045415
        },
        {
            "type": "all metrics except jaccard, l1, full phoneme, using sgd, alpha= 0.001, shuffle=True, random_state= 42, 10-fold, imbalanced dataset one percent true",
            "cross_val": true,
            "log_weights": [
                [
                    [
                        -2.4709396550330864,
                        -16.426403378391047,
                        0.0,
                        0.27923165367631536
                    ]
                ],
                [
                    [
                        -2.5056073348285985,
                        -16.241386816912264,
                        0.0,
                        0.3391720007148428
                    ]
                ],
                [
                    [
                        -2.520710718215583,
                        -16.02795979589763,
                        0.0,
                        0.47242457652324477
                    ]
                ],
                [
                    [
                        -2.5789115773252127,
                        -16.072453348026155,
                        0.0,
                        0.46376696892973707
                    ]
                ],
                [
                    [
                        -2.4026065113719572,
                        -16.733130266544386,
                        0.0,
                        0.0014526427519633203
                    ]
                ],
                [
                    [
                        -2.4117119137772747,
                        -16.25397107636335,
                        0.0,
                        0.4319986619715933
                    ]
                ],
                [
                    [
                        -2.4223344659465327,
                        -16.718761190201462,
                        0.0,
                        0.06081971874908302
                    ]
                ],
                [
                    [
                        -2.441547687199062,
                        -15.920458975703893,
                        0.0,
                        0.5677214819777684
                    ]
                ],
                [
                    [
                        -2.2710278106226434,
                        -16.781302910639074,
                        0.0,
                        0.0593654473677063
                    ]
                ],
                [
                    [
                        -2.29982218636507,
                        -16.943593593954997,
                        0.0,
                        0.0
                    ]
                ]
            ],
            "training_score": [
                0.8786083043731544,
                0.8827263413752234,
                0.8827263413752234,
                0.8826660774190956,
                0.8811996544866515,
                0.8839316204977803,
                0.8787087443000341,
                0.8828267813021032,
                0.8826259014483437,
                0.881400534340411
            ],
            "test_score": 0.8685322985010935,
            "mean_training": 0.881742030091802,
            "std_val": 0.0017022241625905814,
            "confusion_matrix": [
                129112,
                19638,
                79,
                1147
            ],
            "log_loss": 0.2887169231520669
        },
        {
            "type": "all metrics except hamming, l1, full phoneme, using sgd, alpha= 0.001, shuffle=True, random_state= 42, 10-fold, imbalanced dataset one percent true",
            "cross_val": true,
            "log_weights": [
                [
                    [
                        -3.074596775177825,
                        17.334837681147164,
                        0.0,
                        0.0
                    ]
                ],
                [
                    [
                        -3.211419828255633,
                        17.23114282813475,
                        0.0,
                        0.0
                    ]
                ],
                [
                    [
                        -3.506373447991348,
                        16.835377592508653,
                        0.0,
                        0.0
                    ]
                ],
                [
                    [
                        -3.4465257588424274,
                        16.92934319355899,
                        0.0,
                        0.0
                    ]
                ],
                [
                    [
                        -3.322294957983393,
                        17.037322175872454,
                        0.0,
                        0.0
                    ]
                ],
                [
                    [
                        -3.0721163535870923,
                        17.3450302495486,
                        0.0,
                        0.0
                    ]
                ],
                [
                    [
                        -3.284781216330238,
                        17.042996110245067,
                        0.0,
                        0.0
                    ]
                ],
                [
                    [
                        -3.315188141845429,
                        17.114885071572246,
                        0.0,
                        0.0
                    ]
                ],
                [
                    [
                        -3.196861403690509,
                        17.22219771395242,
                        0.0,
                        0.0
                    ]
                ],
                [
                    [
                        -3.44665458140946,
                        16.882367789337508,
                        0.0,
                        0.0
                    ]
                ]
            ],
            "training_score": [
                0.8834896848195094,
                0.8818223820333059,
                0.8796327916273277,
                0.8810791265743958,
                0.8796930555834556,
                0.8809385106767642,
                0.8809184226913883,
                0.8816616781502983,
                0.8794118237881923,
                0.8802956951447339
            ],
            "test_score": 0.8764135595028538,
            "mean_training": 0.8808943171089372,
            "std_val": 0.0011753033739941878,
            "confusion_matrix": [
                130308,
                18442,
                93,
                1133
            ],
            "log_loss": 0.28259364671429815
        },
        {
            "type": "edit and lcs, l1, full phoneme, using sgd, alpha= 0.001, shuffle=True, random_state= 42, 10-fold, imbalanced dataset one percent true",
            "cross_val": true,
            "log_weights": [
                [
                    [
                        -11.53579584052619,
                        4.279839996269381
                    ]
                ],
                [
                    [
                        -11.648969988030068,
                        4.1302198468055
                    ]
                ],
                [
                    [
                        -11.570959433857196,
                        4.194063313088386
                    ]
                ],
                [
                    [
                        -11.492783281087236,
                        4.343296059552029
                    ]
                ],
                [
                    [
                        -11.421389496749114,
                        4.3824130802146755
                    ]
                ],
                [
                    [
                        -11.490119129915731,
                        4.285331088255151
                    ]
                ],
                [
                    [
                        -11.533675658147489,
                        4.274752370199184
                    ]
                ],
                [
                    [
                        -11.804630031956211,
                        3.862089921668996
                    ]
                ],
                [
                    [
                        -11.633028735368756,
                        4.123771976400516
                    ]
                ],
                [
                    [
                        -11.663637548817965,
                        4.08738119190716
                    ]
                ]
            ],
            "training_score": [
                0.8338522729555453,
                0.8365239750105462,
                0.8377895180892309,
                0.8364637110544183,
                0.8352584319318616,
                0.8348767602097186,
                0.8343142966191921,
                0.8369056467326892,
                0.8324059380084772,
                0.8371467025572006
            ],
            "test_score": 0.8569771163386142,
            "mean_training": 0.835553725316888,
            "std_val": 0.0016130302026687866,
            "confusion_matrix": [
                127477,
                21273,
                177,
                1049
            ],
            "log_loss": 0.3735711962474556
        },
        {
            "type": "hamming and weighed, l1, full phoneme, using sgd, alpha= 0.001, shuffle=True, random_state= 42, 10-fold, imbalanced dataset one percent true",
            "cross_val": true,
            "log_weights": [
                [
                    [
                        -19.396865505043518,
                        0.0
                    ]
                ],
                [
                    [
                        -19.149018115443283,
                        0.0
                    ]
                ],
                [
                    [
                        -19.155963983425007,
                        0.0
                    ]
                ],
                [
                    [
                        -19.12806808066484,
                        0.0
                    ]
                ],
                [
                    [
                        -19.213338427902315,
                        0.0
                    ]
                ],
                [
                    [
                        -19.054677117934887,
                        0.0
                    ]
                ],
                [
                    [
                        -19.125186563851354,
                        0.0
                    ]
                ],
                [
                    [
                        -19.00920203761091,
                        0.0
                    ]
                ],
                [
                    [
                        -19.335662950304915,
                        0.0
                    ]
                ],
                [
                    [
                        -19.22705952408868,
                        0.0
                    ]
                ]
            ],
            "training_score": [
                0.879532351700448,
                0.881782206062554,
                0.879130591992929,
                0.8817018541210502,
                0.8794519997589442,
                0.8818223820333059,
                0.8801751672324782,
                0.8801149032763504,
                0.8818424700186819,
                0.8820634378578173
            ],
            "test_score": 0.8770269909852243,
            "mean_training": 0.880761736405456,
            "std_val": 0.0011208231807106142,
            "confusion_matrix": [
                130394,
                18356,
                87,
                1139
            ],
            "log_loss": 0.28268484194868226
        },
        {
